<?xml version="1.0"?>
<opencv_storage>
<cascade>
  <stageType>BOOST</stageType>
  <featureType>HAAR</featureType>
  <height>20</height>
  <width>20</width>
  <stageParams>
    <boostType>GAB</boostType>
    <minHitRate>9.9500000476837158e-01</minHitRate>
    <maxFalseAlarm>5.0000000000000000e-01</maxFalseAlarm>
    <weightTrimRate>9.4999999999999996e-01</weightTrimRate>
    <maxDepth>1</maxDepth>
    <maxWeakCount>100</maxWeakCount></stageParams>
  <featureParams>
    <maxCatCount>0</maxCatCount>
    <featSize>1</featSize>
    <mode>BASIC</mode></featureParams>
  <stageNum>34</stageNum>
  <stages>
    <!-- stage 0 -->
    <_>
      <maxWeakCount>17</maxWeakCount>
      <stageThreshold>-1.2334017753601074e+00</stageThreshold>
      <weakClassifiers>
        <_>
          <internalNodes>
            0 -1 721 4.2363867163658142e-02</internalNodes>
          <leafValues>
            -2.7327781915664673e-01 8.1060153245925903e-01</leafValues></_>
        <_>
          <internalNodes>
            0 -1 583 -8.2250043749809265e-02</internalNodes>
          <leafValues>
            7.8192979097366333e-01 -1.0838743299245834e-01</leafValues></_>
        <_>
          <internalNodes>
            0 -1 841 -2.4151157587766647e-02</internalNodes>
          <leafValues>
            6.4367532730102539e-01 -1.4484824240207672e-01</leafValues></_>
        <_>
          <internalNodes>
            0 -1 1417 3.2839681953191757e-03</internalNodes>
          <leafValues>
            -2.5096207857131958e-01 5.0122940540313721e-01</leafValues></_>
        <_>
          <internalNodes>
            0 -1 802 -6.0040075331926346e-03</internalNodes>
          <leafValues>
            5.1946330070495605e-01 -2.0182923972606659e-01</leafValues></_>
        <_>
          <internalNodes>
            0 -1 950 -3.0490797944366932e-03</internalNodes>
          <leafValues>
            4.8135986924171448e-01 -2.2981803119182587e-01</leafValues></_>
        <_>
          <internalNodes>
            0 -1 328 2.2802366875112057e-03</internalNodes>
          <leafValues>
            -1.6909971833229065e-01 4.5486080646514893e-01</leafValues></_>
        <_>
          <internalNodes>
            0 -1 617 -2.2030449472367764e-03</internalNodes>
          <leafValues>
            3.9638566970825195e-01 -1.8471847474575043e-01</leafValues></_>
        <_>
          <internalNodes>
            0 -1 725 -3.1942392233759165e-03</internalNodes>
          <leafValues>
            4.1839572787284851e-01 -1.7442120611667633e-01</leafValues></_>
        <_>
          <internalNodes>
            0 -1 354 -1.7714481800794601e-03</internalNodes>
          <leafValues>
            4.8512086272239685e-01 -1.2776748836040497e-01</leafValues></_>
        <_>
          <internalNodes>
            0 -1 816 -6.8008452653884888e-02</internalNodes>
          <leafValues>
            -6.8381452560424805e-01 1.0005518794059753e-01</leafValues></_>
        <_>
          <internalNodes>
            0 -1 65 4.5112669467926025e-03</internalNodes>
          <leafValues>
            -2.5756993889808655e-01 2.3960651457309723e-01</leafValues></_>
        <_>
          <internalNodes>
            0 -1 1444 -6.6581768915057182e-03</internalNodes>
          <leafValues>
            4.7874090075492859e-01 -1.3053350150585175e-01</leafValues></_>
        <_>
          <internalNodes>
            0 -1 1180 -6.8071298301219940e-03</internalNodes>
          <leafValues>
            6.3909661769866943e-01 -9.4454765319824219e-02</leafValues></_>
        <_>
          <internalNodes>
            0 -1 54 1.6009449958801270e-02</internalNodes>
          <leafValues>
            -1.4709380269050598e-01 4.1747733950614929e-01</leafValues></_>
        <_>
          <internalNodes>
            0 -1 293 4.2025577276945114e-03</internalNodes>
          <leafValues>
            -1.3364876806735992e-01 4.2009073495864868e-01</leafValues></_>
        <_>
          <internalNodes>
            0 -1 1516 5.7869241572916508e-03</internalNodes>
          <leafValues>
            -1.0282447934150696e-01 5.2521884441375732e-01</leafValues></_></weakClassifiers></_>
    <!-- stage 1 -->
    <_>
      <maxWeakCount>34</maxWeakCount>
      <stageThreshold>-9.8198640346527100e-01</stageThreshold>
      <weakClassifiers>
        <_>
          <internalNodes>
            0 -1 720 7.6407611370086670e-02</internalNodes>
          <leafValues>
            -5.6860320270061493e-02 7.9015916585922241e-01</leafValues></_>
        <_>
          <internalNodes>
            0 -1 703 -4.8663839697837830e-02</internalNodes>
          <leafValues>
            6.0875201225280762e-01 -1.1837808787822723e-01</leafValues></_>
        <_>
          <internalNodes>
            0 -1 681 -5.6267499923706055e-02</internalNodes>
          <leafValues>
            4.1954964399337769e-01 -2.0344482362270355e-01</leafValues></_>
        <_>
          <internalNodes>
            0 -1 166 -1.6622491180896759e-02</internalNodes>
          <leafValues>
            3.1851938366889954e-01 -2.1851421892642975e-01</leafValues></_>
        <_>
          <internalNodes>
            0 -1 1579 -1.2985908426344395e-02</internalNodes>
          <leafValues>
            3.7304300069808960e-01 -1.8394094705581665e-01</leafValues></_>
        <_>
          <internalNodes>
            0 -1 904 7.0334859192371368e-03</internalNodes>
          <leafValues>
            -1.1402408033609390e-01 5.2641540765762329e-01</leafValues></_>
        <_>
          <internalNodes>
            0 -1 766 6.7505696788430214e-03</internalNodes>
          <leafValues>
            -1.2709099054336548e-01 5.3638941049575806e-01</leafValues></_>
        <_>
          <internalNodes>
            0 -1 1349 4.4692959636449814e-03</internalNodes>
          <leafValues>
            -1.7200864851474762e-01 2.9500892758369446e-01</leafValues></_>
        <_>
          <internalNodes>
            0 -1 672 7.5389957055449486e-03</internalNodes>
          <leafValues>
            -9.8562657833099365e-02 4.9757570028305054e-01</leafValues></_>
        <_>
          <internalNodes>
            0 -1 1595 -8.3088595420122147e-03</internalNodes>
          <leafValues>
            -5.6304895877838135e-01 9.5483958721160889e-02</leafValues></_>
        <_>
          <internalNodes>
            0 -1 1593 6.0600154101848602e-03</internalNodes>
          <leafValues>
            7.4348159134387970e-02 -5.9033560752868652e-01</leafValues></_>
        <_>
          <internalNodes>
            0 -1 178 -1.4478978700935841e-03</internalNodes>
          <leafValues>
            -4.0629979968070984e-01 1.1213410645723343e-01</leafValues></_>
        <_>
          <internalNodes>
            0 -1 1 1.3433492276817560e-03</internalNodes>
          <leafValues>
            9.1890603303909302e-02 -4.0059629082679749e-01</leafValues></_>
        <_>
          <internalNodes>
            0 -1 1457 -3.7215894553810358e-03</internalNodes>
          <leafValues>
            3.0931079387664795e-01 -1.3203862309455872e-01</leafValues></_>
        <_>
          <internalNodes>
            0 -1 235 -8.3411522209644318e-03</internalNodes>
          <leafValues>
            5.1593130826950073e-01 -7.9352498054504395e-02</leafValues></_>
        <_>
          <internalNodes>
            0 -1 762 1.0043465532362461e-02</internalNodes>
          <leafValues>
            9.0323410928249359e-02 -4.7725650668144226e-01</leafValues></_>
        <_>
          <internalNodes>
            0 -1 619 -8.0395657569169998e-03</internalNodes>
          <leafValues>
            3.1263288855552673e-01 -1.3821665942668915e-01</leafValues></_>
        <_>
          <internalNodes>
            0 -1 1434 -2.4903500452637672e-03</internalNodes>
          <leafValues>
            2.9374912381172180e-01 -1.3493031263351440e-01</leafValues></_>
        <_>
          <internalNodes>
            0 -1 18 5.0672106444835663e-03</internalNodes>
          <leafValues>
            9.5241762697696686e-02 -4.1897273063659668e-01</leafValues></_>
        <_>
          <internalNodes>
            0 -1 972 -1.5326420543715358e-03</internalNodes>
          <leafValues>
            3.5083657503128052e-01 -1.1496081203222275e-01</leafValues></_>
        <_>
          <internalNodes>
            0 -1 180 8.3729699254035950e-02</internalNodes>
          <leafValues>
            -9.9233299493789673e-02 4.1203355789184570e-01</leafValues></_>
        <_>
          <internalNodes>
            0 -1 161 1.8012572079896927e-02</internalNodes>
          <leafValues>
            -8.4169231355190277e-02 4.1421827673912048e-01</leafValues></_>
        <_>
          <internalNodes>
            0 -1 58 3.6071371287107468e-03</internalNodes>
          <leafValues>
            7.4362218379974365e-02 -5.6539255380630493e-01</leafValues></_>
        <_>
          <internalNodes>
            0 -1 71 5.7042418047785759e-03</internalNodes>
          <leafValues>
            7.6663844287395477e-02 -4.3906182050704956e-01</leafValues></_>
        <_>
          <internalNodes>
            0 -1 1370 6.8636951036751270e-03</internalNodes>
          <leafValues>
            -1.2757886946201324e-01 3.0979174375534058e-01</leafValues></_>
        <_>
          <internalNodes>
            0 -1 1538 6.9186314940452576e-03</internalNodes>
          <leafValues>
            4.7848932445049286e-02 -7.9429352283477783e-01</leafValues></_>
        <_>
          <internalNodes>
            0 -1 1515 2.5431022047996521e-02</internalNodes>
          <leafValues>
            -7.8456729650497437e-02 5.3525012731552124e-01</leafValues></_>
        <_>
          <internalNodes>
            0 -1 1549 2.4108053185045719e-03</internalNodes>
          <leafValues>
            6.5251417458057404e-02 -6.2304461002349854e-01</leafValues></_>
        <_>
          <internalNodes>
            0 -1 1240 5.1418007351458073e-03</internalNodes>
          <leafValues>
            -1.1874576658010483e-01 3.3321639895439148e-01</leafValues></_>
        <_>
          <internalNodes>
            0 -1 1133 1.4637045096606016e-03</internalNodes>
          <leafValues>
            -1.6045616567134857e-01 2.9128336906433105e-01</leafValues></_>
        <_>
          <internalNodes>
            0 -1 229 -3.5735033452510834e-02</internalNodes>
          <leafValues>
            -5.1891863346099854e-01 8.6742766201496124e-02</leafValues></_>
        <_>
          <internalNodes>
            0 -1 105 -1.0561326052993536e-03</internalNodes>
          <leafValues>
            -3.6569005250930786e-01 9.6405111253261566e-02</leafValues></_>
        <_>
          <internalNodes>
            0 -1 291 2.6529261958785355e-04</internalNodes>
          <leafValues>
            -1.9422519207000732e-01 1.8936295807361603e-01</leafValues></_>
        <_>
          <internalNodes>
            0 -1 775 1.5698932111263275e-02</internalNodes>
          <leafValues>
            6.9822356104850769e-02 -5.6290894746780396e-01</leafValues></_></weakClassifiers></_>
    <!-- stage 2 -->
    <_>
      <maxWeakCount>27</maxWeakCount>
      <stageThreshold>-1.0181722640991211e+00</stageThreshold>
      <weakClassifiers>
        <_>
          <internalNodes>
            0 -1 582 -3.8595624268054962e-02</internalNodes>
          <leafValues>
            7.2179484367370605e-01 -8.7499998509883881e-02</leafValues></_>
        <_>
          <internalNodes>
            0 -1 431 -2.5344807654619217e-02</internalNodes>
          <leafValues>
            5.3978264331817627e-01 -2.6535919308662415e-01</leafValues></_>
        <_>
          <internalNodes>
            0 -1 699 -7.9565532505512238e-03</internalNodes>
          <leafValues>
            5.6766730546951294e-01 -1.8070423603057861e-01</leafValues></_>
        <_>
          <internalNodes>
            0 -1 795 1.1684917844831944e-02</internalNodes>
          <leafValues>
            -1.6040503978729248e-01 6.0496824979782104e-01</leafValues></_>
        <_>
          <internalNodes>
            0 -1 820 9.7706466913223267e-03</internalNodes>
          <leafValues>
            -1.0174037516117096e-01 5.5803495645523071e-01</leafValues></_>
        <_>
          <internalNodes>
            0 -1 464 4.7395755536854267e-03</internalNodes>
          <leafValues>
            -2.0119400322437286e-01 3.3358243107795715e-01</leafValues></_>
        <_>
          <internalNodes>
            0 -1 1080 -1.0627922601997852e-03</internalNodes>
          <leafValues>
            3.3312368392944336e-01 -1.8995052576065063e-01</leafValues></_>
        <_>
          <internalNodes>
            0 -1 1063 -2.4558033794164658e-02</internalNodes>
          <leafValues>
            5.8300828933715820e-01 -8.5420072078704834e-02</leafValues></_>
        <_>
          <internalNodes>
            0 -1 1550 1.5357531374320388e-03</internalNodes>
          <leafValues>
            -1.7180827260017395e-01 3.0591231584548950e-01</leafValues></_>
        <_>
          <internalNodes>
            0 -1 1067 -3.4684538841247559e-03</internalNodes>
          <leafValues>
            3.1677755713462830e-01 -1.6696776449680328e-01</leafValues></_>
        <_>
          <internalNodes>
            0 -1 1108 2.5109328329563141e-02</internalNodes>
          <leafValues>
            -1.0281086713075638e-01 4.6687850356101990e-01</leafValues></_>
        <_>
          <internalNodes>
            0 -1 535 9.1327726840972900e-03</internalNodes>
          <leafValues>
            -1.3171023130416870e-01 3.7202847003936768e-01</leafValues></_>
        <_>
          <internalNodes>
            0 -1 828 8.6128562688827515e-03</internalNodes>
          <leafValues>
            8.9152291417121887e-02 -7.2992509603500366e-01</leafValues></_>
        <_>
          <internalNodes>
            0 -1 964 2.9413076117634773e-03</internalNodes>
          <leafValues>
            -1.5598420798778534e-01 3.8967108726501465e-01</leafValues></_>
        <_>
          <internalNodes>
            0 -1 362 -1.0633703786879778e-03</internalNodes>
          <leafValues>
            3.2554310560226440e-01 -1.3565781712532043e-01</leafValues></_>
        <_>
          <internalNodes>
            0 -1 1058 -3.5767499357461929e-03</internalNodes>
          <leafValues>
            3.8313406705856323e-01 -1.1609561741352081e-01</leafValues></_>
        <_>
          <internalNodes>
            0 -1 84 8.7690930813550949e-03</internalNodes>
          <leafValues>
            -1.1912600696086884e-01 3.8047274947166443e-01</leafValues></_>
        <_>
          <internalNodes>
            0 -1 920 -3.5355858504772186e-02</internalNodes>
          <leafValues>
            3.9750406146049500e-01 -1.0637035220861435e-01</leafValues></_>
        <_>
          <internalNodes>
            0 -1 1472 -1.4787853695452213e-02</internalNodes>
          <leafValues>
            2.9559823870658875e-01 -1.4508205652236938e-01</leafValues></_>
        <_>
          <internalNodes>
            0 -1 1022 2.6931879110634327e-03</internalNodes>
          <leafValues>
            -1.0853904485702515e-01 3.8368585705757141e-01</leafValues></_>
        <_>
          <internalNodes>
            0 -1 1614 -1.2636015890166163e-03</internalNodes>
          <leafValues>
            -4.1701406240463257e-01 1.0957490652799606e-01</leafValues></_>
        <_>
          <internalNodes>
            0 -1 661 1.8405416049063206e-03</internalNodes>
          <leafValues>
            -1.9022294878959656e-01 2.4950315058231354e-01</leafValues></_>
        <_>
          <internalNodes>
            0 -1 521 1.1994788423180580e-02</internalNodes>
          <leafValues>
            6.5985873341560364e-02 -7.8329288959503174e-01</leafValues></_>
        <_>
          <internalNodes>
            0 -1 569 2.9694028198719025e-03</internalNodes>
          <leafValues>
            -1.5572562813758850e-01 3.0960288643836975e-01</leafValues></_>
        <_>
          <internalNodes>
            0 -1 459 -4.0226377546787262e-02</internalNodes>
          <leafValues>
            -5.2382153272628784e-01 8.7390154600143433e-02</leafValues></_>
        <_>
          <internalNodes>
            0 -1 486 1.8290560692548752e-03</internalNodes>
          <leafValues>
            -1.1477485299110413e-01 3.6415377259254456e-01</leafValues></_>
        <_>
          <internalNodes>
            0 -1 1554 -5.7755157351493835e-02</internalNodes>
          <leafValues>
            4.4611087441444397e-01 -8.6103603243827820e-02</leafValues></_></weakClassifiers></_>
    <!-- stage 3 -->
    <_>
      <maxWeakCount>31</maxWeakCount>
      <stageThreshold>-9.9374437332153320e-01</stageThreshold>
      <weakClassifiers>
        <_>
          <internalNodes>
            0 -1 487 -2.8200756758451462e-02</internalNodes>
          <leafValues>
            6.7574411630630493e-01 -4.7149892896413803e-02</leafValues></_>
        <_>
          <internalNodes>
            0 -1 635 -3.7756331264972687e-02</internalNodes>
          <leafValues>
            5.1263594627380371e-01 -1.8283371627330780e-01</leafValues></_>
        <_>
          <internalNodes>
            0 -1 904 -9.5463637262582779e-03</internalNodes>
          <leafValues>
            7.1942317485809326e-01 -1.0433441400527954e-01</leafValues></_>
        <_>
          <internalNodes>
            0 -1 754 -1.1018887162208557e-02</internalNodes>
          <leafValues>
            6.1824893951416016e-01 -1.9718204438686371e-01</leafValues></_>
        <_>
          <internalNodes>
            0 -1 1062 9.0221427381038666e-03</internalNodes>
          <leafValues>
            -1.1488571017980576e-01 5.0251227617263794e-01</leafValues></_>
        <_>
          <internalNodes>
            0 -1 149 1.0457917116582394e-02</internalNodes>
          <leafValues>
            -1.1723875254392624e-01 5.3986996412277222e-01</leafValues></_>
        <_>
          <internalNodes>
            0 -1 1665 -1.5291439369320869e-02</internalNodes>
          <leafValues>
            5.1519501209259033e-01 -1.1581771820783615e-01</leafValues></_>
        <_>
          <internalNodes>
            0 -1 1622 -6.0702580958604813e-03</internalNodes>
          <leafValues>
            3.7909191846847534e-01 -1.6826668381690979e-01</leafValues></_>
        <_>
          <internalNodes>
            0 -1 1064 3.9207106456160545e-03</internalNodes>
          <leafValues>
            -1.0711434483528137e-01 4.9855065345764160e-01</leafValues></_>
        <_>
          <internalNodes>
            0 -1 1575 -4.6345861628651619e-03</internalNodes>
          <leafValues>
            4.1050446033477783e-01 -1.0275755822658539e-01</leafValues></_>
        <_>
          <internalNodes>
            0 -1 222 6.1963484622538090e-03</internalNodes>
          <leafValues>
            -8.0680161714553833e-02 5.2395570278167725e-01</leafValues></_>
        <_>
          <internalNodes>
            0 -1 1431 7.4568367563188076e-03</internalNodes>
          <leafValues>
            -1.1136443167924881e-01 3.6506637930870056e-01</leafValues></_>
        <_>
          <internalNodes>
            0 -1 743 5.3715868853032589e-03</internalNodes>
          <leafValues>
            -1.0154434293508530e-01 4.3326368927955627e-01</leafValues></_>
        <_>
          <internalNodes>
            0 -1 1043 1.1460722889751196e-03</internalNodes>
          <leafValues>
            1.2644332647323608e-01 -3.5791906714439392e-01</leafValues></_>
        <_>
          <internalNodes>
            0 -1 761 -2.8100840747356415e-02</internalNodes>
          <leafValues>
            -4.4778728485107422e-01 1.0391074419021606e-01</leafValues></_>
        <_>
          <internalNodes>
            0 -1 386 1.7584398388862610e-02</internalNodes>
          <leafValues>
            -1.8585905432701111e-01 2.3515868186950684e-01</leafValues></_>
        <_>
          <internalNodes>
            0 -1 673 2.5757814291864634e-03</internalNodes>
          <leafValues>
            -1.4286211133003235e-01 2.9326167702674866e-01</leafValues></_>
        <_>
          <internalNodes>
            0 -1 1582 3.3730939030647278e-03</internalNodes>
          <leafValues>
            -9.4979524612426758e-02 4.2491132020950317e-01</leafValues></_>
        <_>
          <internalNodes>
            0 -1 1586 -2.6847999542951584e-03</internalNodes>
          <leafValues>
            3.2416421175003052e-01 -1.2301376461982727e-01</leafValues></_>
        <_>
          <internalNodes>
            0 -1 825 1.4222167432308197e-02</internalNodes>
          <leafValues>
            -6.5288715064525604e-02 5.0350409746170044e-01</leafValues></_>
        <_>
          <internalNodes>
            0 -1 1284 -1.8331070896238089e-03</internalNodes>
          <leafValues>
            3.2386121153831482e-01 -1.2084706127643585e-01</leafValues></_>
        <_>
          <internalNodes>
            0 -1 1628 -7.1943039074540138e-03</internalNodes>
          <leafValues>
            -7.1323412656784058e-01 5.6816462427377701e-02</leafValues></_>
        <_>
          <internalNodes>
            0 -1 476 2.9060263186693192e-02</internalNodes>
          <leafValues>
            7.0782385766506195e-02 -4.8990410566329956e-01</leafValues></_>
        <_>
          <internalNodes>
            0 -1 4 -1.1361829191446304e-01</internalNodes>
          <leafValues>
            5.1257222890853882e-01 -7.6151058077812195e-02</leafValues></_>
        <_>
          <internalNodes>
            0 -1 763 -4.3826987966895103e-03</internalNodes>
          <leafValues>
            -2.9030928015708923e-01 1.2046081572771072e-01</leafValues></_>
        <_>
          <internalNodes>
            0 -1 1147 5.8612506836652756e-03</internalNodes>
          <leafValues>
            -8.8019594550132751e-02 4.0879163146018982e-01</leafValues></_>
        <_>
          <internalNodes>
            0 -1 289 -2.0003966987133026e-02</internalNodes>
          <leafValues>
            3.0731356143951416e-01 -1.1272673308849335e-01</leafValues></_>
        <_>
          <internalNodes>
            0 -1 1240 5.2677113562822342e-03</internalNodes>
          <leafValues>
            -1.0389086604118347e-01 3.0795916914939880e-01</leafValues></_>
        <_>
          <internalNodes>
            0 -1 218 -4.0281660854816437e-02</internalNodes>
          <leafValues>
            -4.4291836023330688e-01 8.4138959646224976e-02</leafValues></_>
        <_>
          <internalNodes>
            0 -1 1547 1.3982189120724797e-03</internalNodes>
          <leafValues>
            8.2556664943695068e-02 -3.8460671901702881e-01</leafValues></_>
        <_>
          <internalNodes>
            0 -1 424 8.2645146176218987e-04</internalNodes>
          <leafValues>
            -1.3562062382698059e-01 2.7198064327239990e-01</leafValues></_></weakClassifiers></_>
    <!-- stage 4 -->
    <_>
      <maxWeakCount>41</maxWeakCount>
      <stageThreshold>-1.0283323526382446e+00</stageThreshold>
      <weakClassifiers>
        <_>
          <internalNodes>
            0 -1 749 -1.3034600764513016e-02</internalNodes>
          <leafValues>
            5.8369565010070801e-01 -6.3793100416660309e-02</leafValues></_>
        <_>
          <internalNodes>
            0 -1 823 -3.7307187914848328e-02</internalNodes>
          <leafValues>
            4.1149502992630005e-01 -2.3838438093662262e-01</leafValues></_>
        <_>
          <internalNodes>
            0 -1 568 -5.4174372926354408e-03</internalNodes>
          <leafValues>
            4.7415599226951599e-01 -1.3773649930953979e-01</leafValues></_>
        <_>
          <internalNodes>
            0 -1 1434 -1.8638763576745987e-03</internalNodes>
          <leafValues>
            2.9380753636360168e-01 -2.2869195044040680e-01</leafValues></_>
        <_>
          <internalNodes>
            0 -1 1405 -1.2214867398142815e-02</internalNodes>
          <leafValues>
            4.2927452921867371e-01 -1.4302514493465424e-01</leafValues></_>
        <_>
          <internalNodes>
            0 -1 143 3.9942674338817596e-03</internalNodes>
          <leafValues>
            -1.6015484929084778e-01 3.3635792136192322e-01</leafValues></_>
        <_>
          <internalNodes>
            0 -1 902 3.5459557548165321e-03</internalNodes>
          <leafValues>
            -1.2470522522926331e-01 4.4251066446304321e-01</leafValues></_>
        <_>
          <internalNodes>
            0 -1 1022 3.1649256125092506e-03</internalNodes>
          <leafValues>
            -1.4397042989730835e-01 4.3819859623908997e-01</leafValues></_>
        <_>
          <internalNodes>
            0 -1 1204 -5.1007927395403385e-03</internalNodes>
          <leafValues>
            3.8625538349151611e-01 -1.1741061508655548e-01</leafValues></_>
        <_>
          <internalNodes>
            0 -1 438 2.7202712371945381e-03</internalNodes>
          <leafValues>
            -1.2490447610616684e-01 3.6109480261802673e-01</leafValues></_>
        <_>
          <internalNodes>
            0 -1 672 -9.0975817292928696e-03</internalNodes>
          <leafValues>
            5.5480712652206421e-01 -6.6006481647491455e-02</leafValues></_>
        <_>
          <internalNodes>
            0 -1 1168 5.8716727653518319e-04</internalNodes>
          <leafValues>
            1.6654643416404724e-01 -2.4622134864330292e-01</leafValues></_>
        <_>
          <internalNodes>
            0 -1 1297 5.8222264051437378e-03</internalNodes>
          <leafValues>
            -1.0026372969150543e-01 4.9768531322479248e-01</leafValues></_>
        <_>
          <internalNodes>
            0 -1 469 3.6653429269790649e-02</internalNodes>
          <leafValues>
            8.9294306933879852e-02 -5.2111768722534180e-01</leafValues></_>
        <_>
          <internalNodes>
            0 -1 463 9.7703173756599426e-02</internalNodes>
          <leafValues>
            6.4255028963088989e-02 -6.0860675573348999e-01</leafValues></_>
        <_>
          <internalNodes>
            0 -1 305 -8.3073340356349945e-03</internalNodes>
          <leafValues>
            3.9741989970207214e-01 -1.0248487442731857e-01</leafValues></_>
        <_>
          <internalNodes>
            0 -1 1442 -9.3186995945870876e-04</internalNodes>
          <leafValues>
            2.9844367504119873e-01 -1.3396154344081879e-01</leafValues></_>
        <_>
          <internalNodes>
            0 -1 1500 -1.0644257999956608e-03</internalNodes>
          <leafValues>
            3.2871639728546143e-01 -1.3034975528717041e-01</leafValues></_>
        <_>
          <internalNodes>
            0 -1 969 8.5218157619237900e-03</internalNodes>
          <leafValues>
            -1.1656312644481659e-01 2.9644966125488281e-01</leafValues></_>
        <_>
          <internalNodes>
            0 -1 1499 1.2960374355316162e-02</internalNodes>
          <leafValues>
            6.8670794367790222e-02 -7.0921033620834351e-01</leafValues></_>
        <_>
          <internalNodes>
            0 -1 1585 2.1953606046736240e-03</internalNodes>
          <leafValues>
            -1.2139739096164703e-01 3.2122355699539185e-01</leafValues></_>
        <_>
          <internalNodes>
            0 -1 1588 6.2095941975712776e-03</internalNodes>
          <leafValues>
            -1.0175228118896484e-01 4.2087939381599426e-01</leafValues></_>
        <_>
          <internalNodes>
            0 -1 1060 -6.8289851769804955e-03</internalNodes>
          <leafValues>
            4.2036914825439453e-01 -8.7318025529384613e-02</leafValues></_>
        <_>
          <internalNodes>
            0 -1 173 -4.4535715132951736e-02</internalNodes>
          <leafValues>
            -3.2509580254554749e-01 1.2083879113197327e-01</leafValues></_>
        <_>
          <internalNodes>
            0 -1 1324 4.3751243501901627e-03</internalNodes>
          <leafValues>
            -1.1173980683088303e-01 3.2530412077903748e-01</leafValues></_>
        <_>
          <internalNodes>
            0 -1 1319 -6.7069455981254578e-03</internalNodes>
          <leafValues>
            3.9138251543045044e-01 -9.3481123447418213e-02</leafValues></_>
        <_>
          <internalNodes>
            0 -1 977 -3.7036973983049393e-02</internalNodes>
          <leafValues>
            -3.9390230178833008e-01 8.9045882225036621e-02</leafValues></_>
        <_>
          <internalNodes>
            0 -1 1092 -5.8466820046305656e-03</internalNodes>
          <leafValues>
            3.7803444266319275e-01 -9.0202808380126953e-02</leafValues></_>
        <_>
          <internalNodes>
            0 -1 887 5.7528065517544746e-03</internalNodes>
          <leafValues>
            7.1891225874423981e-02 -4.9273851513862610e-01</leafValues></_>
        <_>
          <internalNodes>
            0 -1 1515 -1.1946132406592369e-02</internalNodes>
          <leafValues>
            3.1710866093635559e-01 -1.0449945926666260e-01</leafValues></_>
        <_>
          <internalNodes>
            0 -1 1574 -4.3427490163594484e-04</internalNodes>
          <leafValues>
            2.0541273057460785e-01 -1.6770203411579132e-01</leafValues></_>
        <_>
          <internalNodes>
            0 -1 1628 4.3750107288360596e-03</internalNodes>
          <leafValues>
            7.9055152833461761e-02 -4.4461330771446228e-01</leafValues></_>
        <_>
          <internalNodes>
            0 -1 1448 -1.2876351829618216e-03</internalNodes>
          <leafValues>
            2.8889781236648560e-01 -1.1228719353675842e-01</leafValues></_>
        <_>
          <internalNodes>
            0 -1 80 1.6656488180160522e-02</internalNodes>
          <leafValues>
            -6.9660462439060211e-02 4.8717752099037170e-01</leafValues></_>
        <_>
          <internalNodes>
            0 -1 277 -2.5015235878527164e-03</internalNodes>
          <leafValues>
            -3.3856257796287537e-01 9.8732672631740570e-02</leafValues></_>
        <_>
          <internalNodes>
            0 -1 754 -9.0174786746501923e-03</internalNodes>
          <leafValues>
            3.7051391601562500e-01 -8.8645756244659424e-02</leafValues></_>
        <_>
          <internalNodes>
            0 -1 707 -4.8273480497300625e-03</internalNodes>
          <leafValues>
            -6.6283780336380005e-01 4.9643047153949738e-02</leafValues></_>
        <_>
          <internalNodes>
            0 -1 428 -7.4782250449061394e-03</internalNodes>
          <leafValues>
            4.2146244645118713e-01 -7.8989006578922272e-02</leafValues></_>
        <_>
          <internalNodes>
            0 -1 812 -6.4770020544528961e-03</internalNodes>
          <leafValues>
            -5.6480985879898071e-01 6.2280744314193726e-02</leafValues></_>
        <_>
          <internalNodes>
            0 -1 1410 2.0231204107403755e-03</internalNodes>
          <leafValues>
            -1.2692745029926300e-01 2.7666845917701721e-01</leafValues></_>
        <_>
          <internalNodes>
            0 -1 1476 -1.7778703477233648e-03</internalNodes>
          <leafValues>
            3.8047319650650024e-01 -9.4376645982265472e-02</leafValues></_></weakClassifiers></_>
    <!-- stage 5 -->
    <_>
      <maxWeakCount>47</maxWeakCount>
      <stageThreshold>-9.4417059421539307e-01</stageThreshold>
      <weakClassifiers>
        <_>
          <internalNodes>
            0 -1 721 1.0934086143970490e-01</internalNodes>
          <leafValues>
            5.7258531451225281e-02 7.0889061689376831e-01</leafValues></_>
        <_>
          <internalNodes>
            0 -1 498 3.1140251085162163e-02</internalNodes>
          <leafValues>
            -1.3610830903053284e-01 3.7978261709213257e-01</leafValues></_>
        <_>
          <internalNodes>
            0 -1 540 -6.0988031327724457e-02</internalNodes>
          <leafValues>
            4.7276857495307922e-01 -1.3030453026294708e-01</leafValues></_>
        <_>
          <internalNodes>
            0 -1 916 -5.4636243730783463e-03</internalNodes>
          <leafValues>
            5.0969231128692627e-01 -1.2362770736217499e-01</leafValues></_>
        <_>
          <internalNodes>
            0 -1 754 -1.4148632064461708e-02</internalNodes>
          <leafValues>
            5.7780396938323975e-01 -1.2258779257535934e-01</leafValues></_>
        <_>
          <internalNodes>
            0 -1 33 3.2533157616853714e-02</internalNodes>
          <leafValues>
            -1.2990649044513702e-01 3.5185813903808594e-01</leafValues></_>
        <_>
          <internalNodes>
            0 -1 1317 7.6298541389405727e-03</internalNodes>
          <leafValues>
            -9.2151761054992676e-02 5.0796169042587280e-01</leafValues></_>
        <_>
          <internalNodes>
            0 -1 882 -6.6025154665112495e-03</internalNodes>
          <leafValues>
            6.2035328149795532e-01 -6.6411860287189484e-02</leafValues></_>
        <_>
          <internalNodes>
            0 -1 527 -4.8084505833685398e-03</internalNodes>
          <leafValues>
            4.5452204346656799e-01 -8.8894009590148926e-02</leafValues></_>
        <_>
          <internalNodes>
            0 -1 1194 -1.2030864134430885e-02</internalNodes>
          <leafValues>
            5.3551155328750610e-01 -6.8982176482677460e-02</leafValues></_>
        <_>
          <internalNodes>
            0 -1 1022 -6.0168318450450897e-03</internalNodes>
          <leafValues>
            6.0340768098831177e-01 -5.7430475950241089e-02</leafValues></_>
        <_>
          <internalNodes>
            0 -1 623 3.2592609059065580e-03</internalNodes>
          <leafValues>
            -1.1313179135322571e-01 3.2565477490425110e-01</leafValues></_>
        <_>
          <internalNodes>
            0 -1 667 1.0998672805726528e-02</internalNodes>
          <leafValues>
            6.4846254885196686e-02 -5.7133823633193970e-01</leafValues></_>
        <_>
          <internalNodes>
            0 -1 571 2.2402424365282059e-02</internalNodes>
          <leafValues>
            5.9854425489902496e-02 -5.8783882856369019e-01</leafValues></_>
        <_>
          <internalNodes>
            0 -1 1627 -7.1715321391820908e-03</internalNodes>
          <leafValues>
            2.7111074328422546e-01 -1.2116438895463943e-01</leafValues></_>
        <_>
          <internalNodes>
            0 -1 375 -5.2886167541146278e-03</internalNodes>
          <leafValues>
            2.8451305627822876e-01 -1.2373184412717819e-01</leafValues></_>
        <_>
          <internalNodes>
            0 -1 1067 -3.6376784555613995e-03</internalNodes>
          <leafValues>
            2.4322314560413361e-01 -1.2934036552906036e-01</leafValues></_>
        <_>
          <internalNodes>
            0 -1 608 1.0964890941977501e-02</internalNodes>
          <leafValues>
            -9.8510757088661194e-02 3.3554589748382568e-01</leafValues></_>
        <_>
          <internalNodes>
            0 -1 1689 2.2738520056009293e-03</internalNodes>
          <leafValues>
            7.2124399244785309e-02 -4.5422390103340149e-01</leafValues></_>
        <_>
          <internalNodes>
            0 -1 182 1.4654154656454921e-03</internalNodes>
          <leafValues>
            -1.2135784327983856e-01 2.7437037229537964e-01</leafValues></_>
        <_>
          <internalNodes>
            0 -1 691 -5.4892273619771004e-03</internalNodes>
          <leafValues>
            -4.7380077838897705e-01 7.2947174310684204e-02</leafValues></_>
        <_>
          <internalNodes>
            0 -1 1494 -1.3494211016222835e-03</internalNodes>
          <leafValues>
            2.9270568490028381e-01 -1.1230003088712692e-01</leafValues></_>
        <_>
          <internalNodes>
            0 -1 1376 4.8374366015195847e-03</internalNodes>
          <leafValues>
            -1.1985826492309570e-01 2.3488534986972809e-01</leafValues></_>
        <_>
          <internalNodes>
            0 -1 1039 -2.8645135462284088e-03</internalNodes>
          <leafValues>
            -5.2185028791427612e-01 5.9546794742345810e-02</leafValues></_>
        <_>
          <internalNodes>
            0 -1 974 7.7204573899507523e-03</internalNodes>
          <leafValues>
            3.9676036685705185e-02 -6.2388765811920166e-01</leafValues></_>
        <_>
          <internalNodes>
            0 -1 369 2.1821236237883568e-02</internalNodes>
          <leafValues>
            -7.4505679309368134e-02 4.2230969667434692e-01</leafValues></_>
        <_>
          <internalNodes>
            0 -1 353 1.1821638327091932e-03</internalNodes>
          <leafValues>
            -1.1987270414829254e-01 2.4985399842262268e-01</leafValues></_>
        <_>
          <internalNodes>
            0 -1 700 -6.3372123986482620e-03</internalNodes>
          <leafValues>
            3.4891265630722046e-01 -9.0812094509601593e-02</leafValues></_>
        <_>
          <internalNodes>
            0 -1 820 -5.7999594137072563e-03</internalNodes>
          <leafValues>
            2.9059019684791565e-01 -1.1484176665544510e-01</leafValues></_>
        <_>
          <internalNodes>
            0 -1 627 -1.0117352008819580e-02</internalNodes>
          <leafValues>
            4.1946390271186829e-01 -7.0016123354434967e-02</leafValues></_>
        <_>
          <internalNodes>
            0 -1 1636 -4.6344134025275707e-03</internalNodes>
          <leafValues>
            -4.3220546841621399e-01 6.8034835159778595e-02</leafValues></_>
        <_>
          <internalNodes>
            0 -1 1456 1.0670214891433716e-02</internalNodes>
          <leafValues>
            -6.3114345073699951e-02 4.3879786133766174e-01</leafValues></_>
        <_>
          <internalNodes>
            0 -1 424 5.1243032794445753e-04</internalNodes>
          <leafValues>
            -1.4110466837882996e-01 1.9791045784950256e-01</leafValues></_>
        <_>
          <internalNodes>
            0 -1 891 -3.7663318216800690e-03</internalNodes>
          <leafValues>
            -3.0566647648811340e-01 9.5095694065093994e-02</leafValues></_>
        <_>
          <internalNodes>
            0 -1 675 -1.4120054431259632e-02</internalNodes>
          <leafValues>
            -4.0337949991226196e-01 7.4981577694416046e-02</leafValues></_>
        <_>
          <internalNodes>
            0 -1 567 1.3726504985243082e-03</internalNodes>
          <leafValues>
            -9.4208396971225739e-02 3.0891206860542297e-01</leafValues></_>
        <_>
          <internalNodes>
            0 -1 772 1.6061948612332344e-02</internalNodes>
          <leafValues>
            5.8636933565139771e-02 -4.9144351482391357e-01</leafValues></_>
        <_>
          <internalNodes>
            0 -1 1064 -3.8649956695735455e-03</internalNodes>
          <leafValues>
            3.3563417196273804e-01 -9.8407864570617676e-02</leafValues></_>
        <_>
          <internalNodes>
            0 -1 1012 4.0271347388625145e-03</internalNodes>
          <leafValues>
            -1.0875162482261658e-01 2.9475510120391846e-01</leafValues></_>
        <_>
          <internalNodes>
            0 -1 1011 -4.1446806862950325e-03</internalNodes>
          <leafValues>
            4.2309966683387756e-01 -9.8666675388813019e-02</leafValues></_>
        <_>
          <internalNodes>
            0 -1 955 -2.8024115599691868e-03</internalNodes>
          <leafValues>
            -3.9764505624771118e-01 8.2308009266853333e-02</leafValues></_>
        <_>
          <internalNodes>
            0 -1 528 3.8582742214202881e-02</internalNodes>
          <leafValues>
            -1.0183966159820557e-01 3.2651481032371521e-01</leafValues></_>
        <_>
          <internalNodes>
            0 -1 1631 7.4791032820940018e-03</internalNodes>
          <leafValues>
            -6.3999846577644348e-02 4.9043831229209900e-01</leafValues></_>
        <_>
          <internalNodes>
            0 -1 615 -5.9490408748388290e-03</internalNodes>
          <leafValues>
            -4.2068341374397278e-01 7.9641297459602356e-02</leafValues></_>
        <_>
          <internalNodes>
            0 -1 1341 5.6469081901013851e-03</internalNodes>
          <leafValues>
            5.0240613520145416e-02 -5.3124946355819702e-01</leafValues></_>
        <_>
          <internalNodes>
            0 -1 1559 6.9766277447342873e-03</internalNodes>
          <leafValues>
            -7.4050195515155792e-02 3.9909479022026062e-01</leafValues></_>
        <_>
          <internalNodes>
            0 -1 1429 -8.0476270522922277e-04</internalNodes>
          <leafValues>
            2.3793685436248779e-01 -1.3505887985229492e-01</leafValues></_></weakClassifiers></_>
    <!-- stage 6 -->
    <_>
      <maxWeakCount>49</maxWeakCount>
      <stageThreshold>-9.2545998096466064e-01</stageThreshold>
      <weakClassifiers>
        <_>
          <internalNodes>
            0 -1 641 2.0617641508579254e-02</internalNodes>
          <leafValues>
            -3.4649476408958435e-02 5.9295052289962769e-01</leafValues></_>
        <_>
          <internalNodes>
            0 -1 914 -6.4536601305007935e-02</internalNodes>
          <leafValues>
            4.7312009334564209e-01 -1.9416412711143494e-01</leafValues></_>
        <_>
          <internalNodes>
            0 -1 1061 3.3251182176172733e-03</internalNodes>
          <leafValues>
            -2.1510621905326843e-01 2.9304164648056030e-01</leafValues></_>
        <_>
          <internalNodes>
            0 -1 471 2.1762764081358910e-03</internalNodes>
          <leafValues>
            -1.9918693602085114e-01 2.6426970958709717e-01</leafValues></_>
        <_>
          <internalNodes>
            0 -1 698 -6.1115962453186512e-03</internalNodes>
          <leafValues>
            2.8908079862594604e-01 -1.9250066578388214e-01</leafValues></_>
        <_>
          <internalNodes>
            0 -1 1209 6.7886030301451683e-03</internalNodes>
          <leafValues>
            -1.6128234565258026e-01 2.4494206905364990e-01</leafValues></_>
        <_>
          <internalNodes>
            0 -1 363 -3.4957169555127621e-03</internalNodes>
          <leafValues>
            3.2390493154525757e-01 -1.1811512708663940e-01</leafValues></_>
        <_>
          <internalNodes>
            0 -1 1439 -4.2299494147300720e-02</internalNodes>
          <leafValues>
            2.8768789768218994e-01 -1.2635461986064911e-01</leafValues></_>
        <_>
          <internalNodes>
            0 -1 1345 -2.1552773192524910e-02</internalNodes>
          <leafValues>
            6.3874340057373047e-01 -5.6406464427709579e-02</leafValues></_>
        <_>
          <internalNodes>
            0 -1 1069 -4.6783271245658398e-03</internalNodes>
          <leafValues>
            2.5496026873588562e-01 -1.3170020282268524e-01</leafValues></_>
        <_>
          <internalNodes>
            0 -1 885 -6.7859590053558350e-03</internalNodes>
          <leafValues>
            4.7405016422271729e-01 -6.4348049461841583e-02</leafValues></_>
        <_>
          <internalNodes>
            0 -1 1360 1.2713840231299400e-02</internalNodes>
          <leafValues>
            6.6782191395759583e-02 -5.4580473899841309e-01</leafValues></_>
        <_>
          <internalNodes>
            0 -1 884 -1.3390892185270786e-02</internalNodes>
          <leafValues>
            5.4403066635131836e-01 -6.8855777382850647e-02</leafValues></_>
        <_>
          <internalNodes>
            0 -1 1268 1.2822326272726059e-02</internalNodes>
          <leafValues>
            5.7887125760316849e-02 -5.7991063594818115e-01</leafValues></_>
        <_>
          <internalNodes>
            0 -1 746 -1.8903177231550217e-02</internalNodes>
          <leafValues>
            -6.1404049396514893e-01 4.7697722911834717e-02</leafValues></_>
        <_>
          <internalNodes>
            0 -1 438 3.0910850036889315e-03</internalNodes>
          <leafValues>
            -1.2160779535770416e-01 2.9622864723205566e-01</leafValues></_>
        <_>
          <internalNodes>
            0 -1 1381 -8.6009292863309383e-04</internalNodes>
          <leafValues>
            2.4072328209877014e-01 -1.2426742911338806e-01</leafValues></_>
        <_>
          <internalNodes>
            0 -1 1281 3.9602648466825485e-03</internalNodes>
          <leafValues>
            4.8802055418491364e-02 -6.7130708694458008e-01</leafValues></_>
        <_>
          <internalNodes>
            0 -1 618 8.6630145087838173e-03</internalNodes>
          <leafValues>
            -9.4420529901981354e-02 3.4894281625747681e-01</leafValues></_>
        <_>
          <internalNodes>
            0 -1 862 -9.2452229000627995e-04</internalNodes>
          <leafValues>
            2.5501981377601624e-01 -1.2716113030910492e-01</leafValues></_>
        <_>
          <internalNodes>
            0 -1 1212 5.3386338986456394e-03</internalNodes>
          <leafValues>
            4.8473950475454330e-02 -6.7077356576919556e-01</leafValues></_>
        <_>
          <internalNodes>
            0 -1 644 1.3391327811405063e-03</internalNodes>
          <leafValues>
            -1.4886659383773804e-01 2.1434462070465088e-01</leafValues></_>
        <_>
          <internalNodes>
            0 -1 1562 1.0233979672193527e-02</internalNodes>
          <leafValues>
            5.8164663612842560e-02 -5.5737978219985962e-01</leafValues></_>
        <_>
          <internalNodes>
            0 -1 142 -1.2534045614302158e-02</internalNodes>
          <leafValues>
            4.2566922307014465e-01 -6.8966969847679138e-02</leafValues></_>
        <_>
          <internalNodes>
            0 -1 256 1.3563867658376694e-02</internalNodes>
          <leafValues>
            -7.7520392835140228e-02 3.5582378506660461e-01</leafValues></_>
        <_>
          <internalNodes>
            0 -1 1204 -2.8269411996006966e-03</internalNodes>
          <leafValues>
            2.0892253518104553e-01 -1.3433378934860229e-01</leafValues></_>
        <_>
          <internalNodes>
            0 -1 1024 -3.9258124306797981e-03</internalNodes>
          <leafValues>
            -3.8564071059226990e-01 7.6020322740077972e-02</leafValues></_>
        <_>
          <internalNodes>
            0 -1 1548 -6.0886107385158539e-03</internalNodes>
          <leafValues>
            -4.5840802788734436e-01 5.8123409748077393e-02</leafValues></_>
        <_>
          <internalNodes>
            0 -1 1632 -6.5553458407521248e-03</internalNodes>
          <leafValues>
            2.7905774116516113e-01 -1.0237099975347519e-01</leafValues></_>
        <_>
          <internalNodes>
            0 -1 1103 -3.0275203753262758e-03</internalNodes>
          <leafValues>
            -3.8575217127799988e-01 7.2526238858699799e-02</leafValues></_>
        <_>
          <internalNodes>
            0 -1 1102 1.4726594090461731e-03</internalNodes>
          <leafValues>
            7.8595459461212158e-02 -3.9615738391876221e-01</leafValues></_>
        <_>
          <internalNodes>
            0 -1 561 -1.5302728861570358e-03</internalNodes>
          <leafValues>
            2.6468265056610107e-01 -1.1145281046628952e-01</leafValues></_>
        <_>
          <internalNodes>
            0 -1 939 1.4674611389636993e-02</internalNodes>
          <leafValues>
            5.0467353314161301e-02 -6.3713109493255615e-01</leafValues></_>
        <_>
          <internalNodes>
            0 -1 374 -1.8940551672130823e-03</internalNodes>
          <leafValues>
            2.5229921936988831e-01 -1.2911933660507202e-01</leafValues></_>
        <_>
          <internalNodes>
            0 -1 973 4.6667316928505898e-03</internalNodes>
          <leafValues>
            4.7886207699775696e-02 -5.7858216762542725e-01</leafValues></_>
        <_>
          <internalNodes>
            0 -1 928 1.0957310441881418e-03</internalNodes>
          <leafValues>
            9.3036517500877380e-02 -2.9105964303016663e-01</leafValues></_>
        <_>
          <internalNodes>
            0 -1 189 -8.9385285973548889e-03</internalNodes>
          <leafValues>
            3.5285586118698120e-01 -8.4032095968723297e-02</leafValues></_>
        <_>
          <internalNodes>
            0 -1 1141 1.9885471090674400e-02</internalNodes>
          <leafValues>
            5.2969701588153839e-02 -5.3589415550231934e-01</leafValues></_>
        <_>
          <internalNodes>
            0 -1 1380 -1.5328219160437584e-02</internalNodes>
          <leafValues>
            2.7262410521507263e-01 -1.0231190919876099e-01</leafValues></_>
        <_>
          <internalNodes>
            0 -1 1525 -9.4708031974732876e-04</internalNodes>
          <leafValues>
            2.4548043310642242e-01 -1.1569859087467194e-01</leafValues></_>
        <_>
          <internalNodes>
            0 -1 341 3.9274778217077255e-02</internalNodes>
          <leafValues>
            6.5732225775718689e-02 -4.2192921042442322e-01</leafValues></_>
        <_>
          <internalNodes>
            0 -1 674 -3.5093431361019611e-03</internalNodes>
          <leafValues>
            3.0102407932281494e-01 -1.0979900509119034e-01</leafValues></_>
        <_>
          <internalNodes>
            0 -1 811 5.6681521236896515e-03</internalNodes>
          <leafValues>
            4.3745666742324829e-02 -6.6295057535171509e-01</leafValues></_>
        <_>
          <internalNodes>
            0 -1 276 -1.7876734491437674e-03</internalNodes>
          <leafValues>
            -4.0094706416130066e-01 6.6379815340042114e-02</leafValues></_>
        <_>
          <internalNodes>
            0 -1 160 1.0230636224150658e-02</internalNodes>
          <leafValues>
            -1.2334302067756653e-01 2.7013075351715088e-01</leafValues></_>
        <_>
          <internalNodes>
            0 -1 405 -1.9736913964152336e-03</internalNodes>
          <leafValues>
            -4.4022479653358459e-01 7.4601806700229645e-02</leafValues></_>
        <_>
          <internalNodes>
            0 -1 747 2.0505381748080254e-02</internalNodes>
          <leafValues>
            5.3703721612691879e-02 -5.5224895477294922e-01</leafValues></_>
        <_>
          <internalNodes>
            0 -1 532 -7.3013789951801300e-03</internalNodes>
          <leafValues>
            -5.5702090263366699e-01 4.9045819789171219e-02</leafValues></_>
        <_>
          <internalNodes>
            0 -1 807 7.1444939821958542e-03</internalNodes>
          <leafValues>
            -8.2091316580772400e-02 3.5548090934753418e-01</leafValues></_></weakClassifiers></_>
    <!-- stage 7 -->
    <_>
      <maxWeakCount>52</maxWeakCount>
      <stageThreshold>-8.7330639362335205e-01</stageThreshold>
      <weakClassifiers>
        <_>
          <internalNodes>
            0 -1 446 6.0057044029235840e-02</internalNodes>
          <leafValues>
            2.1276595070958138e-02 5.7719713449478149e-01</leafValues></_>
        <_>
          <internalNodes>
            0 -1 397 -5.8243460953235626e-03</internalNodes>
          <leafValues>
            3.5994699597358704e-01 -1.4687314629554749e-01</leafValues></_>
        <_>
          <internalNodes>
            0 -1 423 -6.8293125368654728e-03</internalNodes>
          <leafValues>
            4.1394975781440735e-01 -1.3713072240352631e-01</leafValues></_>
        <_>
          <internalNodes>
            0 -1 904 -1.3165343552827835e-02</internalNodes>
          <leafValues>
            6.1358755826950073e-01 -1.0761600732803345e-01</leafValues></_>
        <_>
          <internalNodes>
            0 -1 884 8.5319560021162033e-03</internalNodes>
          <leafValues>
            -1.2289219349622726e-01 5.6310087442398071e-01</leafValues></_>
        <_>
          <internalNodes>
            0 -1 1470 1.1379398405551910e-02</internalNodes>
          <leafValues>
            -1.6473554074764252e-01 3.1463736295700073e-01</leafValues></_>
        <_>
          <internalNodes>
            0 -1 47 2.8820645064115524e-02</internalNodes>
          <leafValues>
            -8.5965037345886230e-02 4.5311698317527771e-01</leafValues></_>
        <_>
          <internalNodes>
            0 -1 1011 2.6058782823383808e-03</internalNodes>
          <leafValues>
            -1.1731429398059845e-01 3.1043487787246704e-01</leafValues></_>
        <_>
          <internalNodes>
            0 -1 374 5.0624394789338112e-03</internalNodes>
          <leafValues>
            -8.9163988828659058e-02 3.7673002481460571e-01</leafValues></_>
        <_>
          <internalNodes>
            0 -1 1133 2.5311436038464308e-03</internalNodes>
          <leafValues>
            -1.1241305619478226e-01 2.9334688186645508e-01</leafValues></_>
        <_>
          <internalNodes>
            0 -1 1039 5.4916110821068287e-04</internalNodes>
          <leafValues>
            1.2133159488439560e-01 -2.7025991678237915e-01</leafValues></_>
        <_>
          <internalNodes>
            0 -1 801 -1.0070191696286201e-02</internalNodes>
          <leafValues>
            3.5453864932060242e-01 -9.1792844235897064e-02</leafValues></_>
        <_>
          <internalNodes>
            0 -1 1675 -1.0804042685776949e-03</internalNodes>
          <leafValues>
            -3.3170565962791443e-01 1.0138563066720963e-01</leafValues></_>
        <_>
          <internalNodes>
            0 -1 950 -4.5351963490247726e-03</internalNodes>
          <leafValues>
            2.8168210387229919e-01 -1.2654712796211243e-01</leafValues></_>
        <_>
          <internalNodes>
            0 -1 410 -1.4985142275691032e-02</internalNodes>
          <leafValues>
            -5.8514088392257690e-01 6.3980966806411743e-02</leafValues></_>
        <_>
          <internalNodes>
            0 -1 590 -3.8210891187191010e-02</internalNodes>
          <leafValues>
            3.0211901664733887e-01 -1.0804037749767303e-01</leafValues></_>
        <_>
          <internalNodes>
            0 -1 26 2.4682258069515228e-01</internalNodes>
          <leafValues>
            -7.2497792541980743e-02 4.3568798899650574e-01</leafValues></_>
        <_>
          <internalNodes>
            0 -1 1090 4.3671382591128349e-03</internalNodes>
          <leafValues>
            9.3898877501487732e-02 -3.7887486815452576e-01</leafValues></_>
        <_>
          <internalNodes>
            0 -1 1443 -3.0212108977138996e-03</internalNodes>
          <leafValues>
            2.5448110699653625e-01 -1.2496934831142426e-01</leafValues></_>
        <_>
          <internalNodes>
            0 -1 819 -7.2583444416522980e-03</internalNodes>
          <leafValues>
            3.9181810617446899e-01 -7.8975982964038849e-02</leafValues></_>
        <_>
          <internalNodes>
            0 -1 669 2.0727398805320263e-03</internalNodes>
          <leafValues>
            -9.6000969409942627e-02 3.0529496073722839e-01</leafValues></_>
        <_>
          <internalNodes>
            0 -1 1265 -1.2362504377961159e-02</internalNodes>
          <leafValues>
            3.0389767885208130e-01 -9.1353088617324829e-02</leafValues></_>
        <_>
          <internalNodes>
            0 -1 1176 -1.9546924158930779e-03</internalNodes>
          <leafValues>
            2.9963377118110657e-01 -9.8537854850292206e-02</leafValues></_>
        <_>
          <internalNodes>
            0 -1 1657 -2.1540727466344833e-03</internalNodes>
          <leafValues>
            -4.3753960728645325e-01 7.4781060218811035e-02</leafValues></_>
        <_>
          <internalNodes>
            0 -1 1535 5.5072724353522062e-04</internalNodes>
          <leafValues>
            -1.3747617602348328e-01 2.0857000350952148e-01</leafValues></_>
        <_>
          <internalNodes>
            0 -1 86 -1.4871237799525261e-03</internalNodes>
          <leafValues>
            -3.5244816541671753e-01 8.4143579006195068e-02</leafValues></_>
        <_>
          <internalNodes>
            0 -1 221 2.8327647596597672e-03</internalNodes>
          <leafValues>
            7.0642761886119843e-02 -4.1270455718040466e-01</leafValues></_>
        <_>
          <internalNodes>
            0 -1 821 3.5624043084681034e-03</internalNodes>
          <leafValues>
            -1.2521208822727203e-01 2.3622286319732666e-01</leafValues></_>
        <_>
          <internalNodes>
            0 -1 765 3.6179595626890659e-03</internalNodes>
          <leafValues>
            -8.8363058865070343e-02 3.3794686198234558e-01</leafValues></_>
        <_>
          <internalNodes>
            0 -1 1308 1.2464983388781548e-02</internalNodes>
          <leafValues>
            -9.1718211770057678e-02 3.3191108703613281e-01</leafValues></_>
        <_>
          <internalNodes>
            0 -1 221 -3.5599512048065662e-03</internalNodes>
          <leafValues>
            -4.8939064145088196e-01 6.5557487308979034e-02</leafValues></_>
        <_>
          <internalNodes>
            0 -1 239 4.7203572466969490e-03</internalNodes>
          <leafValues>
            -1.3358761370182037e-01 2.1735456585884094e-01</leafValues></_>
        <_>
          <internalNodes>
            0 -1 207 1.0380489751696587e-02</internalNodes>
          <leafValues>
            -4.8323772847652435e-02 5.4278481006622314e-01</leafValues></_>
        <_>
          <internalNodes>
            0 -1 713 7.3104493319988251e-02</internalNodes>
          <leafValues>
            -4.1984740644693375e-02 6.4356607198715210e-01</leafValues></_>
        <_>
          <internalNodes>
            0 -1 1652 -1.0767579078674316e-03</internalNodes>
          <leafValues>
            -2.9541474580764771e-01 9.9563688039779663e-02</leafValues></_>
        <_>
          <internalNodes>
            0 -1 437 -5.4662181064486504e-03</internalNodes>
          <leafValues>
            4.2475062608718872e-01 -7.2560653090476990e-02</leafValues></_>
        <_>
          <internalNodes>
            0 -1 1612 -3.7386557087302208e-03</internalNodes>
          <leafValues>
            -6.6936701536178589e-01 4.3932568281888962e-02</leafValues></_>
        <_>
          <internalNodes>
            0 -1 1071 -6.0475124046206474e-03</internalNodes>
          <leafValues>
            2.1081113815307617e-01 -1.3245822489261627e-01</leafValues></_>
        <_>
          <internalNodes>
            0 -1 499 -6.6351285204291344e-04</internalNodes>
          <leafValues>
            2.1097700297832489e-01 -1.3415801525115967e-01</leafValues></_>
        <_>
          <internalNodes>
            0 -1 197 -4.4354304671287537e-02</internalNodes>
          <leafValues>
            3.0379500985145569e-01 -9.0470723807811737e-02</leafValues></_>
        <_>
          <internalNodes>
            0 -1 863 -1.0711019858717918e-02</internalNodes>
          <leafValues>
            -3.5911139845848083e-01 8.7414853274822235e-02</leafValues></_>
        <_>
          <internalNodes>
            0 -1 1311 7.0114070549607277e-03</internalNodes>
          <leafValues>
            -5.7294312864542007e-02 4.5753973722457886e-01</leafValues></_>
        <_>
          <internalNodes>
            0 -1 1239 3.2206468749791384e-03</internalNodes>
          <leafValues>
            -8.5264794528484344e-02 3.1051272153854370e-01</leafValues></_>
        <_>
          <internalNodes>
            0 -1 1006 2.0672302693128586e-02</internalNodes>
          <leafValues>
            5.4022945463657379e-02 -5.7729119062423706e-01</leafValues></_>
        <_>
          <internalNodes>
            0 -1 1011 -3.0008838512003422e-03</internalNodes>
          <leafValues>
            3.0541127920150757e-01 -9.5841467380523682e-02</leafValues></_>
        <_>
          <internalNodes>
            0 -1 506 -8.9252404868602753e-03</internalNodes>
          <leafValues>
            -4.3524119257926941e-01 6.4641192555427551e-02</leafValues></_>
        <_>
          <internalNodes>
            0 -1 186 7.2494111955165863e-02</internalNodes>
          <leafValues>
            -7.1915440261363983e-02 3.8204613327980042e-01</leafValues></_>
        <_>
          <internalNodes>
            0 -1 202 5.3704800084233284e-03</internalNodes>
          <leafValues>
            1.0293146222829819e-01 -2.8404068946838379e-01</leafValues></_>
        <_>
          <internalNodes>
            0 -1 1639 -7.0740352384746075e-03</internalNodes>
          <leafValues>
            2.7064034342765808e-01 -9.4567619264125824e-02</leafValues></_>
        <_>
          <internalNodes>
            0 -1 898 4.5293299481272697e-03</internalNodes>
          <leafValues>
            6.7180216312408447e-02 -3.7578389048576355e-01</leafValues></_>
        <_>
          <internalNodes>
            0 -1 760 -6.4431168138980865e-03</internalNodes>
          <leafValues>
            -3.9965000748634338e-01 6.8468824028968811e-02</leafValues></_>
        <_>
          <internalNodes>
            0 -1 857 1.5760135138407350e-03</internalNodes>
          <leafValues>
            1.0531295835971832e-01 -2.4432209134101868e-01</leafValues></_></weakClassifiers></_>
    <!-- stage 8 -->
    <_>
      <maxWeakCount>52</maxWeakCount>
      <stageThreshold>-7.8176319599151611e-01</stageThreshold>
      <weakClassifiers>
        <_>
          <internalNodes>
            0 -1 441 5.1827341318130493e-02</internalNodes>
          <leafValues>
            5.2259888499975204e-02 5.8459597826004028e-01</leafValues></_>
        <_>
          <internalNodes>
            0 -1 583 -7.8655809164047241e-02</internalNodes>
          <leafValues>
            3.4571418166160583e-01 -1.8608045578002930e-01</leafValues></_>
        <_>
          <internalNodes>
            0 -1 1422 1.0629359632730484e-02</internalNodes>
          <leafValues>
            -8.9407220482826233e-02 4.8353117704391479e-01</leafValues></_>
        <_>
          <internalNodes>
            0 -1 1297 6.5656090155243874e-03</internalNodes>
          <leafValues>
            -1.4884485304355621e-01 4.7807011008262634e-01</leafValues></_>
        <_>
          <internalNodes>
            0 -1 1022 6.0759820044040680e-03</internalNodes>
          <leafValues>
            -4.6137630939483643e-02 5.5014795064926147e-01</leafValues></_>
        <_>
          <internalNodes>
            0 -1 884 4.9144010990858078e-03</internalNodes>
          <leafValues>
            -1.8155214190483093e-01 3.6795172095298767e-01</leafValues></_>
        <_>
          <internalNodes>
            0 -1 752 5.1608821377158165e-03</internalNodes>
          <leafValues>
            -9.7874611616134644e-02 3.5687443614006042e-01</leafValues></_>
        <_>
          <internalNodes>
            0 -1 662 9.8228435963392258e-03</internalNodes>
          <leafValues>
            -9.8814956843852997e-02 3.3140486478805542e-01</leafValues></_>
        <_>
          <internalNodes>
            0 -1 943 8.2436865195631981e-03</internalNodes>
          <leafValues>
            -1.0846783965826035e-01 2.7960133552551270e-01</leafValues></_>
        <_>
          <internalNodes>
            0 -1 1663 -1.4311088249087334e-02</internalNodes>
          <leafValues>
            4.1713297367095947e-01 -8.3817988634109497e-02</leafValues></_>
        <_>
          <internalNodes>
            0 -1 1056 4.5909401960670948e-03</internalNodes>
          <leafValues>
            7.5726628303527832e-02 -4.4180035591125488e-01</leafValues></_>
        <_>
          <internalNodes>
            0 -1 782 7.3817461729049683e-02</internalNodes>
          <leafValues>
            -8.7653219699859619e-02 3.6199933290481567e-01</leafValues></_>
        <_>
          <internalNodes>
            0 -1 246 -4.4559738598763943e-03</internalNodes>
          <leafValues>
            -6.2469315528869629e-01 5.1825955510139465e-02</leafValues></_>
        <_>
          <internalNodes>
            0 -1 649 -2.9530853033065796e-02</internalNodes>
          <leafValues>
            -5.3948968648910522e-01 5.4651182144880295e-02</leafValues></_>
        <_>
          <internalNodes>
            0 -1 1471 -9.4358418136835098e-03</internalNodes>
          <leafValues>
            2.3031646013259888e-01 -1.3395911455154419e-01</leafValues></_>
        <_>
          <internalNodes>
            0 -1 417 5.3479904308915138e-03</internalNodes>
          <leafValues>
            -6.6663973033428192e-02 4.7680020332336426e-01</leafValues></_>
        <_>
          <internalNodes>
            0 -1 1691 3.8415954913944006e-03</internalNodes>
          <leafValues>
            6.4414329826831818e-02 -5.2642303705215454e-01</leafValues></_>
        <_>
          <internalNodes>
            0 -1 1412 -2.6202627923339605e-03</internalNodes>
          <leafValues>
            2.9027193784713745e-01 -1.0490336269140244e-01</leafValues></_>
        <_>
          <internalNodes>
            0 -1 264 2.3671584203839302e-02</internalNodes>
          <leafValues>
            -5.5004034191370010e-02 5.1807463169097900e-01</leafValues></_>
        <_>
          <internalNodes>
            0 -1 690 -7.8900083899497986e-03</internalNodes>
          <leafValues>
            3.2615441083908081e-01 -9.0586565434932709e-02</leafValues></_>
        <_>
          <internalNodes>
            0 -1 1549 2.2032442502677441e-03</internalNodes>
          <leafValues>
            5.9824906289577484e-02 -5.0799858570098877e-01</leafValues></_>
        <_>
          <internalNodes>
            0 -1 668 1.4486823230981827e-02</internalNodes>
          <leafValues>
            4.4865354895591736e-02 -5.5846792459487915e-01</leafValues></_>
        <_>
          <internalNodes>
            0 -1 1109 -4.8731028800830245e-04</internalNodes>
          <leafValues>
            -2.5209453701972961e-01 1.0710388422012329e-01</leafValues></_>
        <_>
          <internalNodes>
            0 -1 1635 -2.7673232834786177e-03</internalNodes>
          <leafValues>
            -3.6148485541343689e-01 7.0636279881000519e-02</leafValues></_>
        <_>
          <internalNodes>
            0 -1 1315 1.8075162079185247e-03</internalNodes>
          <leafValues>
            -1.1313384026288986e-01 2.2881759703159332e-01</leafValues></_>
        <_>
          <internalNodes>
            0 -1 897 -2.0811900496482849e-02</internalNodes>
          <leafValues>
            -3.8440358638763428e-01 7.2272673249244690e-02</leafValues></_>
        <_>
          <internalNodes>
            0 -1 1247 6.7142718471586704e-03</internalNodes>
          <leafValues>
            -8.2724682986736298e-02 3.6441141366958618e-01</leafValues></_>
        <_>
          <internalNodes>
            0 -1 1235 -1.6791485249996185e-02</internalNodes>
          <leafValues>
            -3.8542363047599792e-01 8.9075900614261627e-02</leafValues></_>
        <_>
          <internalNodes>
            0 -1 1655 -1.1855133343487978e-03</internalNodes>
          <leafValues>
            -3.2042679190635681e-01 8.4168046712875366e-02</leafValues></_>
        <_>
          <internalNodes>
            0 -1 742 1.2457175180315971e-03</internalNodes>
          <leafValues>
            -1.0914026945829391e-01 2.5248333811759949e-01</leafValues></_>
        <_>
          <internalNodes>
            0 -1 1361 -3.2145362347364426e-03</internalNodes>
          <leafValues>
            3.0989480018615723e-01 -8.5632860660552979e-02</leafValues></_>
        <_>
          <internalNodes>
            0 -1 972 -2.8851323295384645e-03</internalNodes>
          <leafValues>
            3.8965988159179688e-01 -6.6205419600009918e-02</leafValues></_>
        <_>
          <internalNodes>
            0 -1 961 -1.4069215394556522e-03</internalNodes>
          <leafValues>
            2.8465092182159424e-01 -1.2349598109722137e-01</leafValues></_>
        <_>
          <internalNodes>
            0 -1 167 2.1810932084918022e-03</internalNodes>
          <leafValues>
            6.5114051103591919e-02 -4.2853435873985291e-01</leafValues></_>
        <_>
          <internalNodes>
            0 -1 1198 -3.2984565477818251e-03</internalNodes>
          <leafValues>
            2.4971483647823334e-01 -1.1809651553630829e-01</leafValues></_>
        <_>
          <internalNodes>
            0 -1 1335 -1.7484556883573532e-02</internalNodes>
          <leafValues>
            -5.1529616117477417e-01 5.8510739356279373e-02</leafValues></_>
        <_>
          <internalNodes>
            0 -1 1153 2.8088637627661228e-03</internalNodes>
          <leafValues>
            -1.0012306272983551e-01 2.8189116716384888e-01</leafValues></_>
        <_>
          <internalNodes>
            0 -1 1414 2.3482039105147123e-03</internalNodes>
          <leafValues>
            6.2939733266830444e-02 -4.6415591239929199e-01</leafValues></_>
        <_>
          <internalNodes>
            0 -1 562 1.1882336111739278e-03</internalNodes>
          <leafValues>
            -1.0721733421087265e-01 2.6158544421195984e-01</leafValues></_>
        <_>
          <internalNodes>
            0 -1 42 -1.7222254537045956e-03</internalNodes>
          <leafValues>
            -3.4311521053314209e-01 7.5350433588027954e-02</leafValues></_>
        <_>
          <internalNodes>
            0 -1 1229 2.7083444874733686e-03</internalNodes>
          <leafValues>
            -7.1846313774585724e-02 3.9110308885574341e-01</leafValues></_>
        <_>
          <internalNodes>
            0 -1 1048 8.7769776582717896e-03</internalNodes>
          <leafValues>
            6.4532533288002014e-02 -4.0803241729736328e-01</leafValues></_>
        <_>
          <internalNodes>
            0 -1 779 8.2655381411314011e-03</internalNodes>
          <leafValues>
            -6.5836004912853241e-02 3.9690348505973816e-01</leafValues></_>
        <_>
          <internalNodes>
            0 -1 279 -1.2852980755269527e-02</internalNodes>
          <leafValues>
            3.1906327605247498e-01 -7.4420414865016937e-02</leafValues></_>
        <_>
          <internalNodes>
            0 -1 1567 8.2448609173297882e-03</internalNodes>
          <leafValues>
            -6.6654399037361145e-02 3.7192317843437195e-01</leafValues></_>
        <_>
          <internalNodes>
            0 -1 1227 3.7870775908231735e-02</internalNodes>
          <leafValues>
            -6.0314040631055832e-02 4.0117359161376953e-01</leafValues></_>
        <_>
          <internalNodes>
            0 -1 1616 -1.1358370538800955e-03</internalNodes>
          <leafValues>
            -3.1351935863494873e-01 8.1446751952171326e-02</leafValues></_>
        <_>
          <internalNodes>
            0 -1 544 -6.1209931969642639e-02</internalNodes>
          <leafValues>
            3.5618492960929871e-01 -6.9161549210548401e-02</leafValues></_>
        <_>
          <internalNodes>
            0 -1 69 1.1570338159799576e-02</internalNodes>
          <leafValues>
            -5.9279359877109528e-02 4.1600567102432251e-01</leafValues></_>
        <_>
          <internalNodes>
            0 -1 139 -4.5952856540679932e-02</internalNodes>
          <leafValues>
            2.3600798845291138e-01 -1.0161063075065613e-01</leafValues></_>
        <_>
          <internalNodes>
            0 -1 585 4.7937699127942324e-04</internalNodes>
          <leafValues>
            -1.2101007997989655e-01 2.4048517644405365e-01</leafValues></_>
        <_>
          <internalNodes>
            0 -1 827 -3.9055729284882545e-03</internalNodes>
          <leafValues>
            -5.5978614091873169e-01 4.9734130501747131e-02</leafValues></_></weakClassifiers></_>
    <!-- stage 9 -->
    <_>
      <maxWeakCount>62</maxWeakCount>
      <stageThreshold>-9.2338836193084717e-01</stageThreshold>
      <weakClassifiers>
        <_>
          <internalNodes>
            0 -1 720 1.0664646327495575e-01</internalNodes>
          <leafValues>
            1.1936937272548676e-01 6.4379084110260010e-01</leafValues></_>
        <_>
          <internalNodes>
            0 -1 265 1.3633033260703087e-02</internalNodes>
          <leafValues>
            -1.2795129418373108e-01 3.6982664465904236e-01</leafValues></_>
        <_>
          <internalNodes>
            0 -1 1031 3.8252114318311214e-03</internalNodes>
          <leafValues>
            -1.0606538504362106e-01 4.2444461584091187e-01</leafValues></_>
        <_>
          <internalNodes>
            0 -1 1245 -5.1863156259059906e-03</internalNodes>
          <leafValues>
            4.6296116709709167e-01 -1.3240242004394531e-01</leafValues></_>
        <_>
          <internalNodes>
            0 -1 508 -3.8270810618996620e-03</internalNodes>
          <leafValues>
            4.1824513673782349e-01 -1.0047208517789841e-01</leafValues></_>
        <_>
          <internalNodes>
            0 -1 518 2.4102011695504189e-02</internalNodes>
          <leafValues>
            -1.3583788275718689e-01 3.0448192358016968e-01</leafValues></_>
        <_>
          <internalNodes>
            0 -1 1245 4.4615091755986214e-03</internalNodes>
          <leafValues>
            -1.0399617254734039e-01 3.6302894353866577e-01</leafValues></_>
        <_>
          <internalNodes>
            0 -1 861 5.5491002276539803e-03</internalNodes>
          <leafValues>
            -9.2362679541110992e-02 3.4318658709526062e-01</leafValues></_>
        <_>
          <internalNodes>
            0 -1 110 -1.3045947998762131e-03</internalNodes>
          <leafValues>
            -3.4456995129585266e-01 8.9900009334087372e-02</leafValues></_>
        <_>
          <internalNodes>
            0 -1 602 -2.6636789552867413e-03</internalNodes>
          <leafValues>
            2.4953208863735199e-01 -1.3575875759124756e-01</leafValues></_>
        <_>
          <internalNodes>
            0 -1 572 1.7891522496938705e-02</internalNodes>
          <leafValues>
            5.6146398186683655e-02 -4.8838138580322266e-01</leafValues></_>
        <_>
          <internalNodes>
            0 -1 1668 -1.0960092768073082e-02</internalNodes>
          <leafValues>
            3.3527094125747681e-01 -8.8894255459308624e-02</leafValues></_>
        <_>
          <internalNodes>
            0 -1 1625 -2.0871791057288647e-03</internalNodes>
          <leafValues>
            2.1900583803653717e-01 -1.2441310286521912e-01</leafValues></_>
        <_>
          <internalNodes>
            0 -1 1174 -1.9638262689113617e-02</internalNodes>
          <leafValues>
            -7.5206714868545532e-01 3.7685785442590714e-02</leafValues></_>
        <_>
          <internalNodes>
            0 -1 870 9.1996844857931137e-03</internalNodes>
          <leafValues>
            -7.4933327734470367e-02 4.2780640721321106e-01</leafValues></_>
        <_>
          <internalNodes>
            0 -1 757 6.4940256997942924e-03</internalNodes>
          <leafValues>
            9.3483351171016693e-02 -3.0843532085418701e-01</leafValues></_>
        <_>
          <internalNodes>
            0 -1 284 -2.1583430469036102e-02</internalNodes>
          <leafValues>
            3.2336127758026123e-01 -8.2969814538955688e-02</leafValues></_>
        <_>
          <internalNodes>
            0 -1 421 8.4184166043996811e-03</internalNodes>
          <leafValues>
            -8.3108521997928619e-02 3.3770176768302917e-01</leafValues></_>
        <_>
          <internalNodes>
            0 -1 405 2.6127090677618980e-03</internalNodes>
          <leafValues>
            6.0205504298210144e-02 -4.8959225416183472e-01</leafValues></_>
        <_>
          <internalNodes>
            0 -1 1490 2.1405695006251335e-03</internalNodes>
          <leafValues>
            -1.2843367457389832e-01 2.3596958816051483e-01</leafValues></_>
        <_>
          <internalNodes>
            0 -1 1502 -5.4339673370122910e-03</internalNodes>
          <leafValues>
            3.0834239721298218e-01 -1.0305251926183701e-01</leafValues></_>
        <_>
          <internalNodes>
            0 -1 909 -8.0866888165473938e-03</internalNodes>
          <leafValues>
            -4.7590607404708862e-01 6.6095195710659027e-02</leafValues></_>
        <_>
          <internalNodes>
            0 -1 276 1.0395727586001158e-03</internalNodes>
          <leafValues>
            7.9755477607250214e-02 -3.2581481337547302e-01</leafValues></_>
        <_>
          <internalNodes>
            0 -1 345 -2.0748737733811140e-03</internalNodes>
          <leafValues>
            3.3756366372108459e-01 -7.9507283866405487e-02</leafValues></_>
        <_>
          <internalNodes>
            0 -1 665 -1.8419248983263969e-02</internalNodes>
          <leafValues>
            -5.0757730007171631e-01 5.5415347218513489e-02</leafValues></_>
        <_>
          <internalNodes>
            0 -1 952 -3.6072144284844398e-03</internalNodes>
          <leafValues>
            2.1555775403976440e-01 -1.2264024466276169e-01</leafValues></_>
        <_>
          <internalNodes>
            0 -1 1188 -6.7951045930385590e-03</internalNodes>
          <leafValues>
            3.8402634859085083e-01 -7.6972208917140961e-02</leafValues></_>
        <_>
          <internalNodes>
            0 -1 148 6.1717731878161430e-03</internalNodes>
          <leafValues>
            -7.7132329344749451e-02 3.3545184135437012e-01</leafValues></_>
        <_>
          <internalNodes>
            0 -1 938 6.9489739835262299e-03</internalNodes>
          <leafValues>
            4.7952540218830109e-02 -5.6731986999511719e-01</leafValues></_>
        <_>
          <internalNodes>
            0 -1 1133 -5.9814201667904854e-03</internalNodes>
          <leafValues>
            4.6647316217422485e-01 -6.2389332801103592e-02</leafValues></_>
        <_>
          <internalNodes>
            0 -1 68 1.2355210492387414e-03</internalNodes>
          <leafValues>
            -1.2024369835853577e-01 2.1808265149593353e-01</leafValues></_>
        <_>
          <internalNodes>
            0 -1 1685 -4.5491168275475502e-03</internalNodes>
          <leafValues>
            -7.5558990240097046e-01 3.6828752607107162e-02</leafValues></_>
        <_>
          <internalNodes>
            0 -1 2 -7.3956244159489870e-04</internalNodes>
          <leafValues>
            -2.0222462713718414e-01 1.2220492959022522e-01</leafValues></_>
        <_>
          <internalNodes>
            0 -1 542 -2.9730517417192459e-02</internalNodes>
          <leafValues>
            2.1167303621768951e-01 -1.1888205260038376e-01</leafValues></_>
        <_>
          <internalNodes>
            0 -1 1379 -2.4492964148521423e-02</internalNodes>
          <leafValues>
            3.8816919922828674e-01 -6.7128576338291168e-02</leafValues></_>
        <_>
          <internalNodes>
            0 -1 338 3.4473598934710026e-03</internalNodes>
          <leafValues>
            -9.0068720281124115e-02 2.7950647473335266e-01</leafValues></_>
        <_>
          <internalNodes>
            0 -1 79 -5.2452655509114265e-03</internalNodes>
          <leafValues>
            -6.5937578678131104e-01 3.9973441511392593e-02</leafValues></_>
        <_>
          <internalNodes>
            0 -1 174 -7.9254247248172760e-03</internalNodes>
          <leafValues>
            2.8657600283622742e-01 -8.8878117501735687e-02</leafValues></_>
        <_>
          <internalNodes>
            0 -1 1167 -2.0611286163330078e-03</internalNodes>
          <leafValues>
            -4.3066391348838806e-01 6.0324773192405701e-02</leafValues></_>
        <_>
          <internalNodes>
            0 -1 1369 -1.3204535935074091e-03</internalNodes>
          <leafValues>
            1.7848785221576691e-01 -1.3455921411514282e-01</leafValues></_>
        <_>
          <internalNodes>
            0 -1 1495 -1.3378181029111147e-03</internalNodes>
          <leafValues>
            2.0349578559398651e-01 -1.2595190107822418e-01</leafValues></_>
        <_>
          <internalNodes>
            0 -1 1075 3.1560952775180340e-03</internalNodes>
          <leafValues>
            4.9622923135757446e-02 -5.5530726909637451e-01</leafValues></_>
        <_>
          <internalNodes>
            0 -1 1154 -1.4548463514074683e-03</internalNodes>
          <leafValues>
            2.6601737737655640e-01 -9.7658425569534302e-02</leafValues></_>
        <_>
          <internalNodes>
            0 -1 604 -4.4378405436873436e-03</internalNodes>
          <leafValues>
            3.7842097878456116e-01 -6.7737303674221039e-02</leafValues></_>
        <_>
          <internalNodes>
            0 -1 373 -4.8919972032308578e-03</internalNodes>
          <leafValues>
            3.9321821928024292e-01 -6.7040696740150452e-02</leafValues></_>
        <_>
          <internalNodes>
            0 -1 774 -7.1030962280929089e-03</internalNodes>
          <leafValues>
            -4.0041857957839966e-01 6.2882356345653534e-02</leafValues></_>
        <_>
          <internalNodes>
            0 -1 512 8.5810124874114990e-03</internalNodes>
          <leafValues>
            -6.6267289221286774e-02 3.9488488435745239e-01</leafValues></_>
        <_>
          <internalNodes>
            0 -1 1464 3.1757969409227371e-03</internalNodes>
          <leafValues>
            -9.9161654710769653e-02 2.6661613583564758e-01</leafValues></_>
        <_>
          <internalNodes>
            0 -1 1476 4.0204933611676097e-04</internalNodes>
          <leafValues>
            -1.3842304050922394e-01 2.1573512256145477e-01</leafValues></_>
        <_>
          <internalNodes>
            0 -1 1473 -1.1883430182933807e-02</internalNodes>
          <leafValues>
            -5.3306430578231812e-01 4.9914412200450897e-02</leafValues></_>
        <_>
          <internalNodes>
            0 -1 485 2.9961769469082355e-03</internalNodes>
          <leafValues>
            -8.9504525065422058e-02 2.7032336592674255e-01</leafValues></_>
        <_>
          <internalNodes>
            0 -1 595 -1.4496458694338799e-02</internalNodes>
          <leafValues>
            -5.7579433917999268e-01 4.5446190983057022e-02</leafValues></_>
        <_>
          <internalNodes>
            0 -1 364 -2.0862907171249390e-02</internalNodes>
          <leafValues>
            -5.5848658084869385e-01 3.7648480385541916e-02</leafValues></_>
        <_>
          <internalNodes>
            0 -1 1654 -4.2539774440228939e-03</internalNodes>
          <leafValues>
            -5.1814734935760498e-01 4.2979855090379715e-02</leafValues></_>
        <_>
          <internalNodes>
            0 -1 819 4.8807975836098194e-03</internalNodes>
          <leafValues>
            -9.4922557473182678e-02 2.6179400086402893e-01</leafValues></_>
        <_>
          <internalNodes>
            0 -1 1080 -9.7733351867645979e-04</internalNodes>
          <leafValues>
            2.0453083515167236e-01 -1.3058474659919739e-01</leafValues></_>
        <_>
          <internalNodes>
            0 -1 172 9.3325033783912659e-02</internalNodes>
          <leafValues>
            3.8061626255512238e-02 -7.4017727375030518e-01</leafValues></_>
        <_>
          <internalNodes>
            0 -1 9 -2.2390571236610413e-01</internalNodes>
          <leafValues>
            5.6350111961364746e-01 -5.1168110221624374e-02</leafValues></_>
        <_>
          <internalNodes>
            0 -1 315 -2.9688223730772734e-03</internalNodes>
          <leafValues>
            2.7662041783332825e-01 -9.2864513397216797e-02</leafValues></_>
        <_>
          <internalNodes>
            0 -1 315 1.6176514327526093e-03</internalNodes>
          <leafValues>
            -1.3401210308074951e-01 2.6643788814544678e-01</leafValues></_>
        <_>
          <internalNodes>
            0 -1 1039 -2.1506871562451124e-03</internalNodes>
          <leafValues>
            -4.0160003304481506e-01 6.7103192210197449e-02</leafValues></_>
        <_>
          <internalNodes>
            0 -1 1469 -1.0685930028557777e-02</internalNodes>
          <leafValues>
            3.4493497014045715e-01 -7.5361929833889008e-02</leafValues></_></weakClassifiers></_>
    <!-- stage 10 -->
    <_>
      <maxWeakCount>61</maxWeakCount>
      <stageThreshold>-7.8695130348205566e-01</stageThreshold>
      <weakClassifiers>
        <_>
          <internalNodes>
            0 -1 842 -3.0468575656414032e-02</internalNodes>
          <leafValues>
            5.9857648611068726e-01 9.9686518311500549e-02</leafValues></_>
        <_>
          <internalNodes>
            0 -1 584 -1.1399328708648682e-01</internalNodes>
          <leafValues>
            4.1171181201934814e-01 -1.2382727861404419e-01</leafValues></_>
        <_>
          <internalNodes>
            0 -1 768 1.2946281582117081e-02</internalNodes>
          <leafValues>
            -7.5699381530284882e-02 5.2372246980667114e-01</leafValues></_>
        <_>
          <internalNodes>
            0 -1 754 -7.1230893954634666e-03</internalNodes>
          <leafValues>
            3.1031697988510132e-01 -2.1120910346508026e-01</leafValues></_>
        <_>
          <internalNodes>
            0 -1 965 6.0197603888809681e-03</internalNodes>
          <leafValues>
            -9.0822994709014893e-02 3.6190536618232727e-01</leafValues></_>
        <_>
          <internalNodes>
            0 -1 1410 -3.8961819373071194e-03</internalNodes>
          <leafValues>
            3.2283350825309753e-01 -1.0345342755317688e-01</leafValues></_>
        <_>
          <internalNodes>
            0 -1 1478 -1.5236116945743561e-02</internalNodes>
          <leafValues>
            4.9926128983497620e-01 -5.9113908559083939e-02</leafValues></_>
        <_>
          <internalNodes>
            0 -1 355 -2.8641752433031797e-03</internalNodes>
          <leafValues>
            2.3016804456710815e-01 -1.3174812495708466e-01</leafValues></_>
        <_>
          <internalNodes>
            0 -1 708 -8.8342875242233276e-03</internalNodes>
          <leafValues>
            -6.7084234952926636e-01 4.1675269603729248e-02</leafValues></_>
        <_>
          <internalNodes>
            0 -1 1083 -2.0933677442371845e-03</internalNodes>
          <leafValues>
            2.0375797152519226e-01 -1.3886287808418274e-01</leafValues></_>
        <_>
          <internalNodes>
            0 -1 1022 -7.4256318621337414e-03</internalNodes>
          <leafValues>
            5.0794214010238647e-01 -5.5542826652526855e-02</leafValues></_>
        <_>
          <internalNodes>
            0 -1 884 -1.4779856428503990e-02</internalNodes>
          <leafValues>
            5.5068665742874146e-01 -5.6323565542697906e-02</leafValues></_>
        <_>
          <internalNodes>
            0 -1 802 -7.8286621719598770e-03</internalNodes>
          <leafValues>
            2.5243467092514038e-01 -1.0432257503271103e-01</leafValues></_>
        <_>
          <internalNodes>
            0 -1 138 8.9506590738892555e-03</internalNodes>
          <leafValues>
            -1.7007084190845490e-01 1.4769236743450165e-01</leafValues></_>
        <_>
          <internalNodes>
            0 -1 300 -7.4358098208904266e-03</internalNodes>
          <leafValues>
            4.6039107441902161e-01 -5.1670569926500320e-02</leafValues></_>
        <_>
          <internalNodes>
            0 -1 267 2.9368835967034101e-03</internalNodes>
          <leafValues>
            6.0499940067529678e-02 -3.9042106270790100e-01</leafValues></_>
        <_>
          <internalNodes>
            0 -1 32 -2.5850115343928337e-03</internalNodes>
          <leafValues>
            -4.8357236385345459e-01 4.6941142529249191e-02</leafValues></_>
        <_>
          <internalNodes>
            0 -1 600 1.0779526084661484e-02</internalNodes>
          <leafValues>
            4.9165330827236176e-02 -4.5375594496726990e-01</leafValues></_>
        <_>
          <internalNodes>
            0 -1 1546 4.9003846943378448e-03</internalNodes>
          <leafValues>
            3.4386474639177322e-02 -6.1556917428970337e-01</leafValues></_>
        <_>
          <internalNodes>
            0 -1 1245 2.5524368975311518e-03</internalNodes>
          <leafValues>
            -1.0098548233509064e-01 2.2953920066356659e-01</leafValues></_>
        <_>
          <internalNodes>
            0 -1 1025 2.7604857459664345e-02</internalNodes>
          <leafValues>
            3.7955764681100845e-02 -7.7916353940963745e-01</leafValues></_>
        <_>
          <internalNodes>
            0 -1 501 3.2609929330646992e-03</internalNodes>
          <leafValues>
            -9.5406368374824524e-02 2.6675394177436829e-01</leafValues></_>
        <_>
          <internalNodes>
            0 -1 496 -5.7931202463805676e-03</internalNodes>
          <leafValues>
            2.5965040922164917e-01 -9.2091329395771027e-02</leafValues></_>
        <_>
          <internalNodes>
            0 -1 234 -4.1815559379756451e-03</internalNodes>
          <leafValues>
            -5.1463907957077026e-01 4.9777105450630188e-02</leafValues></_>
        <_>
          <internalNodes>
            0 -1 1614 -1.5126373618841171e-03</internalNodes>
          <leafValues>
            -3.4121534228324890e-01 6.2359478324651718e-02</leafValues></_>
        <_>
          <internalNodes>
            0 -1 676 1.8902231007814407e-02</internalNodes>
          <leafValues>
            4.9993891268968582e-02 -4.3990308046340942e-01</leafValues></_>
        <_>
          <internalNodes>
            0 -1 472 -1.2623514048755169e-03</internalNodes>
          <leafValues>
            1.9793370366096497e-01 -1.1314556747674942e-01</leafValues></_>
        <_>
          <internalNodes>
            0 -1 567 -2.0944718271493912e-03</internalNodes>
          <leafValues>
            3.1475099921226501e-01 -8.8967472314834595e-02</leafValues></_>
        <_>
          <internalNodes>
            0 -1 770 8.8748950511217117e-03</internalNodes>
          <leafValues>
            3.7497229874134064e-02 -6.4916312694549561e-01</leafValues></_>
        <_>
          <internalNodes>
            0 -1 1130 7.8854851424694061e-02</internalNodes>
          <leafValues>
            3.3572800457477570e-02 -6.1944591999053955e-01</leafValues></_>
        <_>
          <internalNodes>
            0 -1 1599 -9.2199612408876419e-03</internalNodes>
          <leafValues>
            -5.0876754522323608e-01 4.1652079671621323e-02</leafValues></_>
        <_>
          <internalNodes>
            0 -1 1159 3.9905097335577011e-02</internalNodes>
          <leafValues>
            -5.9749230742454529e-02 3.9769470691680908e-01</leafValues></_>
        <_>
          <internalNodes>
            0 -1 607 -9.3728993088006973e-03</internalNodes>
          <leafValues>
            2.8252169489860535e-01 -9.2748627066612244e-02</leafValues></_>
        <_>
          <internalNodes>
            0 -1 526 -4.2525045573711395e-03</internalNodes>
          <leafValues>
            2.0829631388187408e-01 -1.0176485776901245e-01</leafValues></_>
        <_>
          <internalNodes>
            0 -1 1344 -4.4656526297330856e-03</internalNodes>
          <leafValues>
            2.3509004712104797e-01 -9.5016174018383026e-02</leafValues></_>
        <_>
          <internalNodes>
            0 -1 226 -8.2974676042795181e-03</internalNodes>
          <leafValues>
            -6.4121073484420776e-01 3.6648813635110855e-02</leafValues></_>
        <_>
          <internalNodes>
            0 -1 1132 -5.5561885237693787e-02</internalNodes>
          <leafValues>
            -7.4182510375976562e-01 2.4936601519584656e-02</leafValues></_>
        <_>
          <internalNodes>
            0 -1 610 -7.9667437821626663e-03</internalNodes>
          <leafValues>
            -4.9817606806755066e-01 3.9989240467548370e-02</leafValues></_>
        <_>
          <internalNodes>
            0 -1 424 1.4501621481031179e-03</internalNodes>
          <leafValues>
            -8.7965734302997589e-02 2.6128169894218445e-01</leafValues></_>
        <_>
          <internalNodes>
            0 -1 1426 1.4539320021867752e-02</internalNodes>
          <leafValues>
            4.2290534824132919e-02 -5.5467242002487183e-01</leafValues></_>
        <_>
          <internalNodes>
            0 -1 915 1.3067134656012058e-02</internalNodes>
          <leafValues>
            2.7772035449743271e-02 -6.4215433597564697e-01</leafValues></_>
        <_>
          <internalNodes>
            0 -1 304 -6.1658266931772232e-03</internalNodes>
          <leafValues>
            3.9750611782073975e-01 -6.0483120381832123e-02</leafValues></_>
        <_>
          <internalNodes>
            0 -1 214 1.7200383590534329e-03</internalNodes>
          <leafValues>
            -9.9488154053688049e-02 2.1953341364860535e-01</leafValues></_>
        <_>
          <internalNodes>
            0 -1 1052 3.8938082288950682e-03</internalNodes>
          <leafValues>
            7.0060685276985168e-02 -3.3971640467643738e-01</leafValues></_>
        <_>
          <internalNodes>
            0 -1 940 -2.7370289899408817e-03</internalNodes>
          <leafValues>
            2.5123795866966248e-01 -9.3704625964164734e-02</leafValues></_>
        <_>
          <internalNodes>
            0 -1 930 6.4295192714780569e-04</internalNodes>
          <leafValues>
            9.4170808792114258e-02 -2.2691687941551208e-01</leafValues></_>
        <_>
          <internalNodes>
            0 -1 494 -3.1946361064910889e-02</internalNodes>
          <leafValues>
            3.4459742903709412e-01 -6.9648921489715576e-02</leafValues></_>
        <_>
          <internalNodes>
            0 -1 596 2.8542192652821541e-02</internalNodes>
          <leafValues>
            -9.4557948410511017e-02 2.2528651356697083e-01</leafValues></_>
        <_>
          <internalNodes>
            0 -1 1429 -1.8092137761414051e-03</internalNodes>
          <leafValues>
            2.9053926467895508e-01 -7.4249707162380219e-02</leafValues></_>
        <_>
          <internalNodes>
            0 -1 982 -1.8210348207503557e-03</internalNodes>
          <leafValues>
            2.3215506970882416e-01 -1.2592038512229919e-01</leafValues></_>
        <_>
          <internalNodes>
            0 -1 830 6.2065292149782181e-03</internalNodes>
          <leafValues>
            4.3932326138019562e-02 -5.2543473243713379e-01</leafValues></_>
        <_>
          <internalNodes>
            0 -1 257 1.5370950102806091e-02</internalNodes>
          <leafValues>
            -8.3082355558872223e-02 2.6800611615180969e-01</leafValues></_>
        <_>
          <internalNodes>
            0 -1 744 3.9762314409017563e-03</internalNodes>
          <leafValues>
            -7.6541781425476074e-02 3.0229392647743225e-01</leafValues></_>
        <_>
          <internalNodes>
            0 -1 887 6.7970082163810730e-03</internalNodes>
          <leafValues>
            4.9441158771514893e-02 -5.0478994846343994e-01</leafValues></_>
        <_>
          <internalNodes>
            0 -1 861 3.5929454024881124e-03</internalNodes>
          <leafValues>
            -1.0399585962295532e-01 2.2926746308803558e-01</leafValues></_>
        <_>
          <internalNodes>
            0 -1 927 2.7099647559225559e-04</internalNodes>
          <leafValues>
            1.3246342539787292e-01 -1.9125993549823761e-01</leafValues></_>
        <_>
          <internalNodes>
            0 -1 711 2.0880240481346846e-03</internalNodes>
          <leafValues>
            -1.3965073227882385e-01 1.5675356984138489e-01</leafValues></_>
        <_>
          <internalNodes>
            0 -1 1091 2.1736850030720234e-03</internalNodes>
          <leafValues>
            -1.1691892147064209e-01 2.1268916130065918e-01</leafValues></_>
        <_>
          <internalNodes>
            0 -1 1220 2.6351418346166611e-03</internalNodes>
          <leafValues>
            -1.1581153422594070e-01 2.0298072695732117e-01</leafValues></_>
        <_>
          <internalNodes>
            0 -1 1297 -2.5674134958535433e-03</internalNodes>
          <leafValues>
            2.5520732998847961e-01 -9.2974558472633362e-02</leafValues></_>
        <_>
          <internalNodes>
            0 -1 1293 -4.9741957336664200e-03</internalNodes>
          <leafValues>
            1.7547737061977386e-01 -1.3102403283119202e-01</leafValues></_></weakClassifiers></_>
    <!-- stage 11 -->
    <_>
      <maxWeakCount>61</maxWeakCount>
      <stageThreshold>-7.8803074359893799e-01</stageThreshold>
      <weakClassifiers>
        <_>
          <internalNodes>
            0 -1 706 -7.6224699616432190e-02</internalNodes>
          <leafValues>
            6.5046888589859009e-01 1.2972085177898407e-01</leafValues></_>
        <_>
          <internalNodes>
            0 -1 776 -3.7022911012172699e-02</internalNodes>
          <leafValues>
            3.0983689427375793e-01 -2.0583498477935791e-01</leafValues></_>
        <_>
          <internalNodes>
            0 -1 142 1.0154820047318935e-02</internalNodes>
          <leafValues>
            -1.1078665405511856e-01 3.8514375686645508e-01</leafValues></_>
        <_>
          <internalNodes>
            0 -1 752 1.1783595196902752e-02</internalNodes>
          <leafValues>
            -9.1498926281929016e-02 5.1258182525634766e-01</leafValues></_>
        <_>
          <internalNodes>
            0 -1 752 -6.4615900628268719e-03</internalNodes>
          <leafValues>
            3.5339555144309998e-01 -1.6990317404270172e-01</leafValues></_>
        <_>
          <internalNodes>
            0 -1 1275 -7.7521908096969128e-03</internalNodes>
          <leafValues>
            3.8311460614204407e-01 -6.6813454031944275e-02</leafValues></_>
        <_>
          <internalNodes>
            0 -1 505 -2.2041746415197849e-03</internalNodes>
          <leafValues>
            1.8590158224105835e-01 -1.4241072535514832e-01</leafValues></_>
        <_>
          <internalNodes>
            0 -1 1023 1.0611686855554581e-02</internalNodes>
          <leafValues>
            -6.4065508544445038e-02 4.0212804079055786e-01</leafValues></_>
        <_>
          <internalNodes>
            0 -1 941 1.1662716977298260e-02</internalNodes>
          <leafValues>
            -7.3265865445137024e-02 3.6063766479492188e-01</leafValues></_>
        <_>
          <internalNodes>
            0 -1 1067 1.8357075750827789e-02</internalNodes>
          <leafValues>
            -4.8686135560274124e-02 4.9368402361869812e-01</leafValues></_>
        <_>
          <internalNodes>
            0 -1 1309 -7.7205993235111237e-02</internalNodes>
          <leafValues>
            2.5981393456459045e-01 -1.0399069637060165e-01</leafValues></_>
        <_>
          <internalNodes>
            0 -1 1373 -4.2568877339363098e-02</internalNodes>
          <leafValues>
            5.6429558992385864e-01 -4.0716107934713364e-02</leafValues></_>
        <_>
          <internalNodes>
            0 -1 237 4.0991147980093956e-03</internalNodes>
          <leafValues>
            -1.0988906770944595e-01 2.4505113065242767e-01</leafValues></_>
        <_>
          <internalNodes>
            0 -1 696 -3.9307540282607079e-03</internalNodes>
          <leafValues>
            -4.4667127728462219e-01 5.6924920529127121e-02</leafValues></_>
        <_>
          <internalNodes>
            0 -1 1152 -3.8004773668944836e-03</internalNodes>
          <leafValues>
            -2.4731960892677307e-01 9.9567174911499023e-02</leafValues></_>
        <_>
          <internalNodes>
            0 -1 1012 -1.7916219308972359e-02</internalNodes>
          <leafValues>
            6.6837799549102783e-01 -3.3274903893470764e-02</leafValues></_>
        <_>
          <internalNodes>
            0 -1 1595 -8.4468992426991463e-03</internalNodes>
          <leafValues>
            -4.2916223406791687e-01 5.9001497924327850e-02</leafValues></_>
        <_>
          <internalNodes>
            0 -1 525 -1.2365481816232204e-02</internalNodes>
          <leafValues>
            -5.6349700689315796e-01 4.3333657085895538e-02</leafValues></_>
        <_>
          <internalNodes>
            0 -1 704 8.8910870254039764e-03</internalNodes>
          <leafValues>
