<?xml version="1.0"?>
<opencv_storage>
<cascade>
  <stageType>BOOST</stageType>
  <featureType>HAAR</featureType>
  <height>20</height>
  <width>20</width>
  <stageParams>
    <boostType>GAB</boostType>
    <minHitRate>9.9500000476837158e-01</minHitRate>
    <maxFalseAlarm>5.0000000000000000e-01</maxFalseAlarm>
    <weightTrimRate>9.4999999999999996e-01</weightTrimRate>
    <maxDepth>1</maxDepth>
    <maxWeakCount>100</maxWeakCount></stageParams>
  <featureParams>
    <maxCatCount>0</maxCatCount>
    <featSize>1</featSize>
    <mode>BASIC</mode></featureParams>
  <stageNum>20</stageNum>
  <stages>
    <!-- stage 0 -->
    <_>
      <maxWeakCount>9</maxWeakCount>
      <stageThreshold>-1.7733414173126221e+00</stageThreshold>
      <weakClassifiers>
        <_>
          <internalNodes>
            0 -1 418 5.3488034754991531e-02</internalNodes>
          <leafValues>
            -6.7328304052352905e-01 8.5038816928863525e-01</leafValues></_>
        <_>
          <internalNodes>
            0 -1 334 -2.7743354439735413e-02</internalNodes>
          <leafValues>
            6.5487533807754517e-01 -4.5005342364311218e-01</leafValues></_>
        <_>
          <internalNodes>
            0 -1 685 -1.8909722566604614e-02</internalNodes>
          <leafValues>
            4.4204267859458923e-01 -4.4892531633377075e-01</leafValues></_>
        <_>
          <internalNodes>
            0 -1 450 -4.9234628677368164e-03</internalNodes>
          <leafValues>
            7.4949032068252563e-01 -1.9820782542228699e-01</leafValues></_>
        <_>
          <internalNodes>
            0 -1 551 -6.2943026423454285e-03</internalNodes>
          <leafValues>
            6.7430031299591064e-01 -2.3751738667488098e-01</leafValues></_>
        <_>
          <internalNodes>
            0 -1 120 1.1149358004331589e-02</internalNodes>
          <leafValues>
            -2.0317257940769196e-01 5.2425849437713623e-01</leafValues></_>
        <_>
          <internalNodes>
            0 -1 624 -4.8002265393733978e-03</internalNodes>
          <leafValues>
            7.0240741968154907e-01 -1.4575198292732239e-01</leafValues></_>
        <_>
          <internalNodes>
            0 -1 615 5.2311643958091736e-03</internalNodes>
          <leafValues>
            -1.2748134136199951e-01 6.7556375265121460e-01</leafValues></_>
        <_>
          <internalNodes>
            0 -1 153 -1.4866099227219820e-03</internalNodes>
          <leafValues>
            4.1746437549591064e-01 -1.7991654574871063e-01</leafValues></_></weakClassifiers></_>
    <!-- stage 1 -->
    <_>
      <maxWeakCount>15</maxWeakCount>
      <stageThreshold>-1.4268449544906616e+00</stageThreshold>
      <weakClassifiers>
        <_>
          <internalNodes>
            0 -1 418 6.7602455615997314e-02</internalNodes>
          <leafValues>
            -5.2212017774581909e-01 7.4225282669067383e-01</leafValues></_>
        <_>
          <internalNodes>
            0 -1 263 -5.0076358020305634e-03</internalNodes>
          <leafValues>
            5.1487445831298828e-01 -3.7505495548248291e-01</leafValues></_>
        <_>
          <internalNodes>
            0 -1 336 -4.2059976607561111e-02</internalNodes>
          <leafValues>
            4.3192565441131592e-01 -4.2659124732017517e-01</leafValues></_>
        <_>
          <internalNodes>
            0 -1 311 -2.7315707411617041e-03</internalNodes>
          <leafValues>
            6.2048184871673584e-01 -2.3658260703086853e-01</leafValues></_>
        <_>
          <internalNodes>
            0 -1 538 6.5279249101877213e-03</internalNodes>
          <leafValues>
            -2.2833223640918732e-01 6.4981389045715332e-01</leafValues></_>
        <_>
          <internalNodes>
            0 -1 440 5.8952039107680321e-03</internalNodes>
          <leafValues>
            -2.2154451906681061e-01 6.8448621034622192e-01</leafValues></_>
        <_>
          <internalNodes>
            0 -1 818 4.0728738531470299e-03</internalNodes>
          <leafValues>
            -1.4514067769050598e-01 5.4427963495254517e-01</leafValues></_>
        <_>
          <internalNodes>
            0 -1 102 -7.2446716949343681e-03</internalNodes>
          <leafValues>
            5.1946681737899780e-01 -2.2262036800384521e-01</leafValues></_>
        <_>
          <internalNodes>
            0 -1 564 1.3150514103472233e-02</internalNodes>
          <leafValues>
            -1.6932065784931183e-01 5.0834906101226807e-01</leafValues></_>
        <_>
          <internalNodes>
            0 -1 139 -4.6643540263175964e-03</internalNodes>
          <leafValues>
            5.2305501699447632e-01 -1.7420245707035065e-01</leafValues></_>
        <_>
          <internalNodes>
            0 -1 21 1.8881734460592270e-02</internalNodes>
          <leafValues>
            -1.6567626595497131e-01 5.1351612806320190e-01</leafValues></_>
        <_>
          <internalNodes>
            0 -1 394 1.4359517022967339e-02</internalNodes>
          <leafValues>
            -1.9112478196620941e-01 4.3620795011520386e-01</leafValues></_>
        <_>
          <internalNodes>
            0 -1 449 -1.3345134211704135e-03</internalNodes>
          <leafValues>
            4.4721052050590515e-01 -1.7739738523960114e-01</leafValues></_>
        <_>
          <internalNodes>
            0 -1 557 -5.9850895777344704e-03</internalNodes>
          <leafValues>
            6.0868096351623535e-01 -1.2876883149147034e-01</leafValues></_>
        <_>
          <internalNodes>
            0 -1 368 -1.8999336753040552e-03</internalNodes>
          <leafValues>
            4.7809529304504395e-01 -1.3585913181304932e-01</leafValues></_></weakClassifiers></_>
    <!-- stage 2 -->
    <_>
      <maxWeakCount>21</maxWeakCount>
      <stageThreshold>-1.4696080684661865e+00</stageThreshold>
      <weakClassifiers>
        <_>
          <internalNodes>
            0 -1 419 1.0112366825342178e-01</internalNodes>
          <leafValues>
            -2.9639080166816711e-01 7.0414948463439941e-01</leafValues></_>
        <_>
          <internalNodes>
            0 -1 79 -8.3658993244171143e-03</internalNodes>
          <leafValues>
            5.1279735565185547e-01 -2.5762379169464111e-01</leafValues></_>
        <_>
          <internalNodes>
            0 -1 672 -1.1386925354599953e-02</internalNodes>
          <leafValues>
            2.5483140349388123e-01 -5.0971853733062744e-01</leafValues></_>
        <_>
          <internalNodes>
            0 -1 450 -5.9793596155941486e-03</internalNodes>
          <leafValues>
            6.7674309015274048e-01 -1.9168628752231598e-01</leafValues></_>
        <_>
          <internalNodes>
            0 -1 549 -4.9259299412369728e-03</internalNodes>
          <leafValues>
            6.6440981626510620e-01 -2.5978523492813110e-01</leafValues></_>
        <_>
          <internalNodes>
            0 -1 624 -3.7967888638377190e-03</internalNodes>
          <leafValues>
            6.1550748348236084e-01 -1.5795233845710754e-01</leafValues></_>
        <_>
          <internalNodes>
            0 -1 119 1.1960756033658981e-02</internalNodes>
          <leafValues>
            -1.9387559592723846e-01 5.4372906684875488e-01</leafValues></_>
        <_>
          <internalNodes>
            0 -1 502 -1.3905927538871765e-02</internalNodes>
          <leafValues>
            3.1433603167533875e-01 -3.1260660290718079e-01</leafValues></_>
        <_>
          <internalNodes>
            0 -1 629 4.6676169149577618e-03</internalNodes>
          <leafValues>
            -1.4550063014030457e-01 5.4836529493331909e-01</leafValues></_>
        <_>
          <internalNodes>
            0 -1 2 4.4367998838424683e-02</internalNodes>
          <leafValues>
            -1.9413907825946808e-01 3.7973216176033020e-01</leafValues></_>
        <_>
          <internalNodes>
            0 -1 566 5.4753846488893032e-03</internalNodes>
          <leafValues>
            -2.3978579044342041e-01 3.0841636657714844e-01</leafValues></_>
        <_>
          <internalNodes>
            0 -1 122 -1.4495611190795898e-02</internalNodes>
          <leafValues>
            4.0380296111106873e-01 -1.7265246808528900e-01</leafValues></_>
        <_>
          <internalNodes>
            0 -1 477 -8.1867817789316177e-03</internalNodes>
          <leafValues>
            5.5157822370529175e-01 -1.4772999286651611e-01</leafValues></_>
        <_>
          <internalNodes>
            0 -1 149 5.9356726706027985e-03</internalNodes>
          <leafValues>
            -1.3188038766384125e-01 4.5547142624855042e-01</leafValues></_>
        <_>
          <internalNodes>
            0 -1 536 4.7936346381902695e-03</internalNodes>
          <leafValues>
            -1.2809526920318604e-01 4.8004844784736633e-01</leafValues></_>
        <_>
          <internalNodes>
            0 -1 536 -5.5055655539035797e-03</internalNodes>
          <leafValues>
            5.7097417116165161e-01 -1.2966039776802063e-01</leafValues></_>
        <_>
          <internalNodes>
            0 -1 514 -1.8745571374893188e-02</internalNodes>
          <leafValues>
            -5.1061540842056274e-01 1.3391973078250885e-01</leafValues></_>
        <_>
          <internalNodes>
            0 -1 557 3.4272535704076290e-03</internalNodes>
          <leafValues>
            -1.4139865338802338e-01 4.1501179337501526e-01</leafValues></_>
        <_>
          <internalNodes>
            0 -1 400 -1.4863553456962109e-02</internalNodes>
          <leafValues>
            3.6232694983482361e-01 -1.6103419661521912e-01</leafValues></_>
        <_>
          <internalNodes>
            0 -1 801 1.4315590262413025e-02</internalNodes>
          <leafValues>
            -1.2636323273181915e-01 4.3862655758857727e-01</leafValues></_>
        <_>
          <internalNodes>
            0 -1 454 -7.0580728352069855e-03</internalNodes>
          <leafValues>
            -5.3609895706176758e-01 9.2506512999534607e-02</leafValues></_></weakClassifiers></_>
    <!-- stage 3 -->
    <_>
      <maxWeakCount>28</maxWeakCount>
      <stageThreshold>-1.4039236307144165e+00</stageThreshold>
      <weakClassifiers>
        <_>
          <internalNodes>
            0 -1 220 3.1250402331352234e-02</internalNodes>
          <leafValues>
            -4.9052134156227112e-01 5.7844746112823486e-01</leafValues></_>
        <_>
          <internalNodes>
            0 -1 459 -6.6189303994178772e-02</internalNodes>
          <leafValues>
            5.0948536396026611e-01 -3.5302090644836426e-01</leafValues></_>
        <_>
          <internalNodes>
            0 -1 308 -7.3132691904902458e-03</internalNodes>
          <leafValues>
            5.8304375410079956e-01 -1.7673146724700928e-01</leafValues></_>
        <_>
          <internalNodes>
            0 -1 370 -6.9245388731360435e-03</internalNodes>
          <leafValues>
            5.8263939619064331e-01 -1.9832925498485565e-01</leafValues></_>
        <_>
          <internalNodes>
            0 -1 442 -8.6454432457685471e-03</internalNodes>
          <leafValues>
            5.7572382688522339e-01 -2.1683827042579651e-01</leafValues></_>
        <_>
          <internalNodes>
            0 -1 272 -8.1235878169536591e-03</internalNodes>
          <leafValues>
            3.6239671707153320e-01 -2.5316312909126282e-01</leafValues></_>
        <_>
          <internalNodes>
            0 -1 551 -9.3064028769731522e-03</internalNodes>
          <leafValues>
            5.4815161228179932e-01 -1.9018313288688660e-01</leafValues></_>
        <_>
          <internalNodes>
            0 -1 686 2.1097818389534950e-03</internalNodes>
          <leafValues>
            -1.6752731800079346e-01 4.5440083742141724e-01</leafValues></_>
        <_>
          <internalNodes>
            0 -1 433 -2.0169554278254509e-02</internalNodes>
          <leafValues>
            1.8508376181125641e-01 -4.3595170974731445e-01</leafValues></_>
        <_>
          <internalNodes>
            0 -1 164 -3.3109211362898350e-03</internalNodes>
          <leafValues>
            3.5611465573310852e-01 -2.1682092547416687e-01</leafValues></_>
        <_>
          <internalNodes>
            0 -1 22 3.2989542931318283e-02</internalNodes>
          <leafValues>
            -1.1060956120491028e-01 4.8453956842422485e-01</leafValues></_>
        <_>
          <internalNodes>
            0 -1 80 1.2648829258978367e-02</internalNodes>
          <leafValues>
            -2.9266697168350220e-01 2.0984449982643127e-01</leafValues></_>
        <_>
          <internalNodes>
            0 -1 573 1.1790364980697632e-02</internalNodes>
          <leafValues>
            -1.3793657720088959e-01 4.3642392754554749e-01</leafValues></_>
        <_>
          <internalNodes>
            0 -1 687 -3.3216336742043495e-03</internalNodes>
          <leafValues>
            4.4500833749771118e-01 -1.1800494790077209e-01</leafValues></_>
        <_>
          <internalNodes>
            0 -1 645 6.3102953135967255e-03</internalNodes>
          <leafValues>
            -1.1842137575149536e-01 4.4546797871589661e-01</leafValues></_>
        <_>
          <internalNodes>
            0 -1 227 -4.5468937605619431e-02</internalNodes>
          <leafValues>
            3.1100857257843018e-01 -1.5868435800075531e-01</leafValues></_>
        <_>
          <internalNodes>
            0 -1 509 1.1407888960093260e-03</internalNodes>
          <leafValues>
            1.2489511817693710e-01 -4.4719448685646057e-01</leafValues></_>
        <_>
          <internalNodes>
            0 -1 526 9.6967117860913277e-03</internalNodes>
          <leafValues>
            -1.4051985740661621e-01 4.0441530942916870e-01</leafValues></_>
        <_>
          <internalNodes>
            0 -1 603 -1.3541031628847122e-02</internalNodes>
          <leafValues>
            -5.4509413242340088e-01 1.0563629120588303e-01</leafValues></_>
        <_>
          <internalNodes>
            0 -1 615 4.5597716234624386e-03</internalNodes>
          <leafValues>
            -1.3174039125442505e-01 4.1763198375701904e-01</leafValues></_>
        <_>
          <internalNodes>
            0 -1 505 -5.5408077314496040e-03</internalNodes>
          <leafValues>
            -5.9676969051361084e-01 8.9638389647006989e-02</leafValues></_>
        <_>
          <internalNodes>
            0 -1 680 2.5801099836826324e-03</internalNodes>
          <leafValues>
            -1.4546900987625122e-01 3.2995474338531494e-01</leafValues></_>
        <_>
          <internalNodes>
            0 -1 304 -3.4323945641517639e-02</internalNodes>
          <leafValues>
            -6.5045684576034546e-01 8.2262746989727020e-02</leafValues></_>
        <_>
          <internalNodes>
            0 -1 141 -6.7081931047141552e-03</internalNodes>
          <leafValues>
            2.7842578291893005e-01 -1.6871218383312225e-01</leafValues></_>
        <_>
          <internalNodes>
            0 -1 41 2.8643283993005753e-02</internalNodes>
          <leafValues>
            -8.5884489119052887e-02 6.0137981176376343e-01</leafValues></_>
        <_>
          <internalNodes>
            0 -1 543 1.8945064395666122e-02</internalNodes>
          <leafValues>
            8.0071702599525452e-02 -6.3383668661117554e-01</leafValues></_>
        <_>
          <internalNodes>
            0 -1 839 3.1064508948475122e-03</internalNodes>
          <leafValues>
            -1.2894114851951599e-01 3.8170322775840759e-01</leafValues></_>
        <_>
          <internalNodes>
            0 -1 33 1.4708951348438859e-03</internalNodes>
          <leafValues>
            1.0456199198961258e-01 -4.6584576368331909e-01</leafValues></_></weakClassifiers></_>
    <!-- stage 4 -->
    <_>
      <maxWeakCount>38</maxWeakCount>
      <stageThreshold>-1.3358346223831177e+00</stageThreshold>
      <weakClassifiers>
        <_>
          <internalNodes>
            0 -1 417 2.6789212599396706e-02</internalNodes>
          <leafValues>
            -2.2219705581665039e-01 5.7142859697341919e-01</leafValues></_>
        <_>
          <internalNodes>
            0 -1 182 -1.7564810812473297e-02</internalNodes>
          <leafValues>
            3.6312204599380493e-01 -3.1729239225387573e-01</leafValues></_>
        <_>
          <internalNodes>
            0 -1 232 6.1673959717154503e-03</internalNodes>
          <leafValues>
            -2.5386092066764832e-01 3.8931268453598022e-01</leafValues></_>
        <_>
          <internalNodes>
            0 -1 442 -1.4622930437326431e-02</internalNodes>
          <leafValues>
            6.4847934246063232e-01 -1.4102999866008759e-01</leafValues></_>
        <_>
          <internalNodes>
            0 -1 551 -1.1447008699178696e-02</internalNodes>
          <leafValues>
            6.6077607870101929e-01 -1.9642837345600128e-01</leafValues></_>
        <_>
          <internalNodes>
            0 -1 317 -2.1042106673121452e-02</internalNodes>
          <leafValues>
            2.8993785381317139e-01 -3.1926095485687256e-01</leafValues></_>
        <_>
          <internalNodes>
            0 -1 624 -5.4242732003331184e-03</internalNodes>
          <leafValues>
            5.1793366670608521e-01 -1.6262523829936981e-01</leafValues></_>
        <_>
          <internalNodes>
            0 -1 834 -2.7690682560205460e-02</internalNodes>
          <leafValues>
            4.8569431900978088e-01 -1.2609905004501343e-01</leafValues></_>
        <_>
          <internalNodes>
            0 -1 214 -6.7202956415712833e-04</internalNodes>
          <leafValues>
            2.3270417749881744e-01 -2.7374288439750671e-01</leafValues></_>
        <_>
          <internalNodes>
            0 -1 615 4.2838663794100285e-03</internalNodes>
          <leafValues>
            -1.3055239617824554e-01 4.1752809286117554e-01</leafValues></_>
        <_>
          <internalNodes>
            0 -1 536 3.4449566155672073e-03</internalNodes>
          <leafValues>
            -1.6325068473815918e-01 3.5656273365020752e-01</leafValues></_>
        <_>
          <internalNodes>
            0 -1 604 -7.3933484964072704e-03</internalNodes>
          <leafValues>
            -4.1653215885162354e-01 1.3644047081470490e-01</leafValues></_>
        <_>
          <internalNodes>
            0 -1 120 2.2129774093627930e-02</internalNodes>
          <leafValues>
            -1.3118679821491241e-01 3.8576915860176086e-01</leafValues></_>
        <_>
          <internalNodes>
            0 -1 565 -2.8912590350955725e-03</internalNodes>
          <leafValues>
            -5.5987954139709473e-01 9.0791806578636169e-02</leafValues></_>
        <_>
          <internalNodes>
            0 -1 465 -6.8251071497797966e-03</internalNodes>
          <leafValues>
            -5.0729042291641235e-01 8.5790708661079407e-02</leafValues></_>
        <_>
          <internalNodes>
            0 -1 161 3.7119428161531687e-03</internalNodes>
          <leafValues>
            -1.6374175250530243e-01 2.7629274129867554e-01</leafValues></_>
        <_>
          <internalNodes>
            0 -1 637 -2.5121625512838364e-03</internalNodes>
          <leafValues>
            -4.6795257925987244e-01 9.2527449131011963e-02</leafValues></_>
        <_>
          <internalNodes>
            0 -1 28 3.1283210963010788e-02</internalNodes>
          <leafValues>
            -1.0400802642107010e-01 4.4453915953636169e-01</leafValues></_>
        <_>
          <internalNodes>
            0 -1 624 3.3487142063677311e-03</internalNodes>
          <leafValues>
            -1.2510719895362854e-01 3.4803617000579834e-01</leafValues></_>
        <_>
          <internalNodes>
            0 -1 111 -1.7571400851011276e-02</internalNodes>
          <leafValues>
            3.7863162159919739e-01 -1.1411312222480774e-01</leafValues></_>
        <_>
          <internalNodes>
            0 -1 273 -9.6275642514228821e-02</internalNodes>
          <leafValues>
            4.2103242874145508e-01 -1.0113202780485153e-01</leafValues></_>
        <_>
          <internalNodes>
            0 -1 206 -2.4565197527408600e-03</internalNodes>
          <leafValues>
            2.0083886384963989e-01 -2.2361749410629272e-01</leafValues></_>
        <_>
          <internalNodes>
            0 -1 592 2.7240902185440063e-02</internalNodes>
          <leafValues>
            -2.4533414840698242e-01 1.7588117718696594e-01</leafValues></_>
        <_>
          <internalNodes>
            0 -1 444 1.3792100362479687e-02</internalNodes>
          <leafValues>
            5.5192600935697556e-02 -6.9208860397338867e-01</leafValues></_>
        <_>
          <internalNodes>
            0 -1 548 1.6680904664099216e-03</internalNodes>
          <leafValues>
            -1.7542728781700134e-01 2.9906716942787170e-01</leafValues></_>
        <_>
          <internalNodes>
            0 -1 377 -9.3411579728126526e-03</internalNodes>
          <leafValues>
            5.2483898401260376e-01 -9.1843865811824799e-02</leafValues></_>
        <_>
          <internalNodes>
            0 -1 3 1.6952939331531525e-03</internalNodes>
          <leafValues>
            9.6168436110019684e-02 -4.8624330759048462e-01</leafValues></_>
        <_>
          <internalNodes>
            0 -1 636 1.4406239613890648e-02</internalNodes>
          <leafValues>
            -1.5787339210510254e-01 2.5927948951721191e-01</leafValues></_>
        <_>
          <internalNodes>
            0 -1 189 -9.7628086805343628e-03</internalNodes>
          <leafValues>
            3.8397589325904846e-01 -1.2648274004459381e-01</leafValues></_>
        <_>
          <internalNodes>
            0 -1 594 1.1885479325428605e-03</internalNodes>
          <leafValues>
            1.1249936372041702e-01 -3.6994338035583496e-01</leafValues></_>
        <_>
          <internalNodes>
            0 -1 531 -1.3059214688837528e-02</internalNodes>
          <leafValues>
            -7.7444386482238770e-01 4.7934215515851974e-02</leafValues></_>
        <_>
          <internalNodes>
            0 -1 655 -5.6637357920408249e-04</internalNodes>
          <leafValues>
            -2.8813573718070984e-01 1.3660432398319244e-01</leafValues></_>
        <_>
          <internalNodes>
            0 -1 817 -4.9393298104405403e-03</internalNodes>
          <leafValues>
            3.0682298541069031e-01 -1.2984876334667206e-01</leafValues></_>
        <_>
          <internalNodes>
            0 -1 235 -5.5725768208503723e-02</internalNodes>
          <leafValues>
            -6.2403440475463867e-01 6.2817208468914032e-02</leafValues></_>
        <_>
          <internalNodes>
            0 -1 460 -4.9790632911026478e-03</internalNodes>
          <leafValues>
            3.8254818320274353e-01 -1.0090052336454391e-01</leafValues></_>
        <_>
          <internalNodes>
            0 -1 18 3.3479005098342896e-02</internalNodes>
          <leafValues>
            -9.7319498658180237e-02 3.7217074632644653e-01</leafValues></_>
        <_>
          <internalNodes>
            0 -1 546 -1.0800468735396862e-02</internalNodes>
          <leafValues>
            -7.4163931608200073e-01 5.3233325481414795e-02</leafValues></_>
        <_>
          <internalNodes>
            0 -1 570 -9.2602483928203583e-03</internalNodes>
          <leafValues>
            -6.6071587800979614e-01 4.8171952366828918e-02</leafValues></_></weakClassifiers></_>
    <!-- stage 5 -->
    <_>
      <maxWeakCount>44</maxWeakCount>
      <stageThreshold>-1.3765990734100342e+00</stageThreshold>
      <weakClassifiers>
        <_>
          <internalNodes>
            0 -1 275 1.4262118935585022e-01</internalNodes>
          <leafValues>
            -1.6857263445854187e-01 5.7049340009689331e-01</leafValues></_>
        <_>
          <internalNodes>
            0 -1 250 -1.0790787637233734e-02</internalNodes>
          <leafValues>
            3.0338141322135925e-01 -3.0437514185905457e-01</leafValues></_>
        <_>
          <internalNodes>
            0 -1 208 -3.4786019474267960e-02</internalNodes>
          <leafValues>
            2.5797224044799805e-01 -3.2647877931594849e-01</leafValues></_>
        <_>
          <internalNodes>
            0 -1 376 6.0092341154813766e-03</internalNodes>
          <leafValues>
            -1.5398849546909332e-01 5.8805793523788452e-01</leafValues></_>
        <_>
          <internalNodes>
            0 -1 442 1.2257969006896019e-02</internalNodes>
          <leafValues>
            -1.8782062828540802e-01 6.2809759378433228e-01</leafValues></_>
        <_>
          <internalNodes>
            0 -1 538 6.7196181043982506e-03</internalNodes>
          <leafValues>
            -2.1092633903026581e-01 4.8711973428726196e-01</leafValues></_>
        <_>
          <internalNodes>
            0 -1 572 7.2402982041239738e-03</internalNodes>
          <leafValues>
            -1.5074521303176880e-01 4.5530867576599121e-01</leafValues></_>
        <_>
          <internalNodes>
            0 -1 615 4.5909434556961060e-03</internalNodes>
          <leafValues>
            -1.6251407563686371e-01 5.0115209817886353e-01</leafValues></_>
        <_>
          <internalNodes>
            0 -1 495 -3.9665130898356438e-03</internalNodes>
          <leafValues>
            3.6703369021415710e-01 -1.9387368857860565e-01</leafValues></_>
        <_>
          <internalNodes>
            0 -1 764 6.2088933773338795e-03</internalNodes>
          <leafValues>
            -1.2292832881212234e-01 4.5268556475639343e-01</leafValues></_>
        <_>
          <internalNodes>
            0 -1 428 2.2457456216216087e-02</internalNodes>
          <leafValues>
            1.1067103594541550e-01 -5.2196967601776123e-01</leafValues></_>
        <_>
          <internalNodes>
            0 -1 561 -2.6591883506625891e-03</internalNodes>
          <leafValues>
            -5.0394660234451294e-01 8.8514842092990875e-02</leafValues></_>
        <_>
          <internalNodes>
            0 -1 733 4.0004523470997810e-03</internalNodes>
          <leafValues>
            -1.1809652298688889e-01 3.9011830091476440e-01</leafValues></_>
        <_>
          <internalNodes>
            0 -1 553 -3.1978811603039503e-03</internalNodes>
          <leafValues>
            -4.6598979830741882e-01 8.5464775562286377e-02</leafValues></_>
        <_>
          <internalNodes>
            0 -1 557 6.9062178954482079e-03</internalNodes>
          <leafValues>
            -9.8987303674221039e-02 5.0003778934478760e-01</leafValues></_>
        <_>
          <internalNodes>
            0 -1 85 -8.5808048024773598e-03</internalNodes>
          <leafValues>
            3.6509573459625244e-01 -1.0683041810989380e-01</leafValues></_>
        <_>
          <internalNodes>
            0 -1 9 6.3255935907363892e-02</internalNodes>
          <leafValues>
            -1.1279028654098511e-01 3.7730678915977478e-01</leafValues></_>
        <_>
          <internalNodes>
            0 -1 61 -1.2978745624423027e-02</internalNodes>
          <leafValues>
            3.8259676098823547e-01 -1.2542705237865448e-01</leafValues></_>
        <_>
          <internalNodes>
            0 -1 468 2.6894241571426392e-02</internalNodes>
          <leafValues>
            -1.5190917253494263e-01 3.0454313755035400e-01</leafValues></_>
        <_>
          <internalNodes>
            0 -1 707 1.3450035825371742e-02</internalNodes>
          <leafValues>
            -1.3020938634872437e-01 3.0388569831848145e-01</leafValues></_>
        <_>
          <internalNodes>
            0 -1 291 -7.1082174777984619e-02</internalNodes>
          <leafValues>
            4.3184214830398560e-01 -1.0046204179525375e-01</leafValues></_>
        <_>
          <internalNodes>
            0 -1 618 4.4169998727738857e-03</internalNodes>
          <leafValues>
            -1.2088400870561600e-01 3.6244621872901917e-01</leafValues></_>
        <_>
          <internalNodes>
            0 -1 633 -1.4064975548535585e-03</internalNodes>
          <leafValues>
            -3.8196507096290588e-01 1.2121804803609848e-01</leafValues></_>
        <_>
          <internalNodes>
            0 -1 800 -8.5217654705047607e-03</internalNodes>
          <leafValues>
            2.6477548480033875e-01 -1.5771853923797607e-01</leafValues></_>
        <_>
          <internalNodes>
            0 -1 700 -6.3192257657647133e-03</internalNodes>
          <leafValues>
            -6.2806278467178345e-01 6.4014829695224762e-02</leafValues></_>
        <_>
          <internalNodes>
            0 -1 229 -1.2355124636087567e-04</internalNodes>
          <leafValues>
            2.2143770754337311e-01 -1.7013767361640930e-01</leafValues></_>
        <_>
          <internalNodes>
            0 -1 426 9.7485696896910667e-03</internalNodes>
          <leafValues>
            -8.0256268382072449e-02 4.9954578280448914e-01</leafValues></_>
        <_>
          <internalNodes>
            0 -1 517 -2.0468540489673615e-02</internalNodes>
          <leafValues>
            -6.1624878644943237e-01 6.2898710370063782e-02</leafValues></_>
        <_>
          <internalNodes>
            0 -1 649 -1.8982345936819911e-03</internalNodes>
          <leafValues>
            3.1013572216033936e-01 -1.1963164806365967e-01</leafValues></_>
        <_>
          <internalNodes>
            0 -1 77 -4.0092729032039642e-03</internalNodes>
          <leafValues>
            2.8005275130271912e-01 -1.2290685623884201e-01</leafValues></_>
        <_>
          <internalNodes>
            0 -1 37 1.5243939124047756e-03</internalNodes>
          <leafValues>
            8.3781480789184570e-02 -4.4213730096817017e-01</leafValues></_>
        <_>
          <internalNodes>
            0 -1 37 -1.3124751858413219e-03</internalNodes>
          <leafValues>
            -4.2303749918937683e-01 8.4507152438163757e-02</leafValues></_>
        <_>
          <internalNodes>
            0 -1 508 -8.4705710411071777e-02</internalNodes>
          <leafValues>
            -5.8790808916091919e-01 5.6821316480636597e-02</leafValues></_>
        <_>
          <internalNodes>
            0 -1 408 -1.1000690981745720e-02</internalNodes>
          <leafValues>
            -7.4238985776901245e-01 4.0125336498022079e-02</leafValues></_>
        <_>
          <internalNodes>
            0 -1 421 3.2794283470138907e-04</internalNodes>
          <leafValues>
            1.2558688223361969e-01 -2.9065403342247009e-01</leafValues></_>
        <_>
          <internalNodes>
            0 -1 731 2.0317034795880318e-03</internalNodes>
          <leafValues>
            -1.3185012340545654e-01 2.8103265166282654e-01</leafValues></_>
        <_>
          <internalNodes>
            0 -1 680 1.2576091103255749e-03</internalNodes>
          <leafValues>
            -1.5819567441940308e-01 2.3254252970218658e-01</leafValues></_>
        <_>
          <internalNodes>
            0 -1 387 -1.6979938372969627e-02</internalNodes>
          <leafValues>
            -6.6476267576217651e-01 4.9226973205804825e-02</leafValues></_>
        <_>
          <internalNodes>
            0 -1 727 -2.2402813658118248e-02</internalNodes>
          <leafValues>
            -5.4183024168014526e-01 4.9993801862001419e-02</leafValues></_>
        <_>
          <internalNodes>
            0 -1 434 4.8669376410543919e-03</internalNodes>
          <leafValues>
            -1.0839666426181793e-01 3.1034177541732788e-01</leafValues></_>
        <_>
          <internalNodes>
            0 -1 445 -1.7703294754028320e-02</internalNodes>
          <leafValues>
            -7.2037643194198608e-01 4.7165684401988983e-02</leafValues></_>
        <_>
          <internalNodes>
            0 -1 488 6.5770489163696766e-03</internalNodes>
          <leafValues>
            -9.4790875911712646e-02 3.6880245804786682e-01</leafValues></_>
        <_>
          <internalNodes>
            0 -1 367 5.1872599869966507e-03</internalNodes>
          <leafValues>
            -8.2023911178112030e-02 3.7275892496109009e-01</leafValues></_>
        <_>
          <internalNodes>
            0 -1 391 -1.2106949463486671e-02</internalNodes>
          <leafValues>
            1.9959673285484314e-01 -1.6213063895702362e-01</leafValues></_></weakClassifiers></_>
    <!-- stage 6 -->
    <_>
      <maxWeakCount>47</maxWeakCount>
      <stageThreshold>-1.3170106410980225e+00</stageThreshold>
      <weakClassifiers>
        <_>
          <internalNodes>
            0 -1 613 -3.2392885535955429e-02</internalNodes>
          <leafValues>
            5.1892465353012085e-01 -2.2608934342861176e-01</leafValues></_>
        <_>
          <internalNodes>
            0 -1 403 -6.8423762917518616e-02</internalNodes>
          <leafValues>
            3.3125299215316772e-01 -2.7041554450988770e-01</leafValues></_>
        <_>
          <internalNodes>
            0 -1 243 3.1512333080172539e-03</internalNodes>
          <leafValues>
            -2.4858242273330688e-01 3.3501085638999939e-01</leafValues></_>
        <_>
          <internalNodes>
            0 -1 617 -8.5506197065114975e-03</internalNodes>
          <leafValues>
            5.2640587091445923e-01 -1.4116914570331573e-01</leafValues></_>
        <_>
          <internalNodes>
            0 -1 549 -6.3252700492739677e-03</internalNodes>
          <leafValues>
            6.1414104700088501e-01 -2.0381541550159454e-01</leafValues></_>
        <_>
          <internalNodes>
            0 -1 450 -3.4773265942931175e-03</internalNodes>
          <leafValues>
            3.6908015608787537e-01 -1.9196885824203491e-01</leafValues></_>
        <_>
          <internalNodes>
            0 -1 260 5.0979582592844963e-03</internalNodes>
          <leafValues>
            -2.2576969861984253e-01 2.5659623742103577e-01</leafValues></_>
        <_>
          <internalNodes>
            0 -1 139 -3.3058915287256241e-03</internalNodes>
          <leafValues>
            3.0562987923622131e-01 -1.9687764346599579e-01</leafValues></_>
        <_>
          <internalNodes>
            0 -1 731 5.4555293172597885e-03</internalNodes>
          <leafValues>
            -1.0792466253042221e-01 5.1859855651855469e-01</leafValues></_>
        <_>
          <internalNodes>
            0 -1 271 -7.9896766692399979e-03</internalNodes>
          <leafValues>
            4.5720756053924561e-01 -1.0707335174083710e-01</leafValues></_>
        <_>
          <internalNodes>
            0 -1 370 -1.1614412069320679e-02</internalNodes>
          <leafValues>
            5.7368093729019165e-01 -7.9803198575973511e-02</leafValues></_>
        <_>
          <internalNodes>
            0 -1 374 2.5301195681095123e-02</internalNodes>
          <leafValues>
            7.4723206460475922e-02 -6.9099539518356323e-01</leafValues></_>
        <_>
          <internalNodes>
            0 -1 841 1.0722856968641281e-02</internalNodes>
          <leafValues>
            -1.1745984107255936e-01 3.9253109693527222e-01</leafValues></_>
        <_>
          <internalNodes>
            0 -1 568 2.9655266553163528e-03</internalNodes>
          <leafValues>
            7.8055217862129211e-02 -5.8579409122467041e-01</leafValues></_>
        <_>
          <internalNodes>
            0 -1 764 3.0393023043870926e-03</internalNodes>
          <leafValues>
            -1.5820498764514923e-01 2.8126665949821472e-01</leafValues></_>
        <_>
          <internalNodes>
            0 -1 795 -3.9459832012653351e-02</internalNodes>
          <leafValues>
            3.5116171836853027e-01 -1.1489379405975342e-01</leafValues></_>
        <_>
          <internalNodes>
            0 -1 67 2.0832823589444160e-02</internalNodes>
          <leafValues>
            -1.2370401620864868e-01 3.4042796492576599e-01</leafValues></_>
        <_>
          <internalNodes>
            0 -1 473 8.6664678528904915e-03</internalNodes>
          <leafValues>
            -1.6356521844863892e-01 2.9750877618789673e-01</leafValues></_>
        <_>
          <internalNodes>
            0 -1 496 8.2816898822784424e-02</internalNodes>
          <leafValues>
            -9.0717062354087830e-02 4.1489517688751221e-01</leafValues></_>
        <_>
          <internalNodes>
            0 -1 154 5.1498790271580219e-03</internalNodes>
          <leafValues>
            -1.1087389290332794e-01 3.6200502514839172e-01</leafValues></_>
        <_>
          <internalNodes>
            0 -1 656 -5.2874167449772358e-03</internalNodes>
          <leafValues>
            -5.8046978712081909e-01 7.6383687555789948e-02</leafValues></_>
        <_>
          <internalNodes>
            0 -1 733 2.5676577351987362e-03</internalNodes>
          <leafValues>
            -1.4780367910861969e-01 2.9433941841125488e-01</leafValues></_>
        <_>
          <internalNodes>
            0 -1 596 -3.7580197677016258e-03</internalNodes>
          <leafValues>
            -6.1933767795562744e-01 7.1729473769664764e-02</leafValues></_>
        <_>
          <internalNodes>
            0 -1 5 3.2936692237854004e-02</internalNodes>
          <leafValues>
            -1.2110519409179688e-01 3.2255813479423523e-01</leafValues></_>
        <_>
          <internalNodes>
            0 -1 577 6.7065181210637093e-03</internalNodes>
          <leafValues>
            -9.0506784617900848e-02 3.9043411612510681e-01</leafValues></_>
        <_>
          <internalNodes>
            0 -1 340 -7.4354382231831551e-03</internalNodes>
          <leafValues>
            -6.8762284517288208e-01 5.5342603474855423e-02</leafValues></_>
        <_>
          <internalNodes>
            0 -1 527 -1.1283798143267632e-02</internalNodes>
          <leafValues>
            4.4345057010650635e-01 -8.8080659508705139e-02</leafValues></_>
        <_>
          <internalNodes>
            0 -1 295 -2.7454564347863197e-02</internalNodes>
          <leafValues>
            -5.2636903524398804e-01 8.1702545285224915e-02</leafValues></_>
        <_>
          <internalNodes>
            0 -1 701 6.0507757589221001e-03</internalNodes>
          <leafValues>
            6.3119269907474518e-02 -5.2416872978210449e-01</leafValues></_>
        <_>
          <internalNodes>
            0 -1 557 3.6244406364858150e-03</internalNodes>
          <leafValues>
            -1.1405185610055923e-01 3.1002873182296753e-01</leafValues></_>
        <_>
          <internalNodes>
            0 -1 629 3.7455926649272442e-03</internalNodes>
          <leafValues>
            -1.1106219887733459e-01 3.2307335734367371e-01</leafValues></_>
        <_>
          <internalNodes>
            0 -1 277 -8.9544970542192459e-03</internalNodes>
          <leafValues>
            -5.9386956691741943e-01 6.1437081545591354e-02</leafValues></_>
        <_>
          <internalNodes>
            0 -1 211 -2.2007762454450130e-03</internalNodes>
          <leafValues>
            2.1279282867908478e-01 -1.8322281539440155e-01</leafValues></_>
        <_>
          <internalNodes>
            0 -1 200 1.2185643427073956e-03</internalNodes>
          <leafValues>
            -1.1366080492734909e-01 3.0176416039466858e-01</leafValues></_>
        <_>
          <internalNodes>
            0 -1 655 8.5107097402215004e-04</internalNodes>
          <leafValues>
            9.1522194445133209e-02 -3.6436867713928223e-01</leafValues></_>
        <_>
          <internalNodes>
            0 -1 669 5.2801487036049366e-03</internalNodes>
          <leafValues>
            -8.9600779116153717e-02 3.6680141091346741e-01</leafValues></_>
        <_>
          <internalNodes>
            0 -1 464 7.9956017434597015e-03</internalNodes>
          <leafValues>
            5.7243991643190384e-02 -5.9940415620803833e-01</leafValues></_>
        <_>
          <internalNodes>
            0 -1 84 -2.4500899016857147e-03</internalNodes>
          <leafValues>
            2.0192240178585052e-01 -1.5369872748851776e-01</leafValues></_>
        <_>
          <internalNodes>
            0 -1 325 -3.2074473798274994e-02</internalNodes>
          <leafValues>
            3.6760243773460388e-01 -8.6320213973522186e-02</leafValues></_>
        <_>
          <internalNodes>
            0 -1 864 2.1228224504739046e-03</internalNodes>
          <leafValues>
            7.1184195578098297e-02 -4.6971270442008972e-01</leafValues></_>
        <_>
          <internalNodes>
            0 -1 306 -2.1396465599536896e-03</internalNodes>
          <leafValues>
            2.7834129333496094e-01 -1.1769646406173706e-01</leafValues></_>
        <_>
          <internalNodes>
            0 -1 300 -2.0906995050609112e-03</internalNodes>
          <leafValues>
            3.3947128057479858e-01 -1.2949301302433014e-01</leafValues></_>
        <_>
          <internalNodes>
            0 -1 103 -4.0477844886481762e-03</internalNodes>
          <leafValues>
            -5.5015915632247925e-01 6.1393365263938904e-02</leafValues></_>
        <_>
          <internalNodes>
            0 -1 705 -5.0435084849596024e-03</internalNodes>
          <leafValues>
            -4.2871060967445374e-01 6.7844264209270477e-02</leafValues></_>
        <_>
          <internalNodes>
            0 -1 53 7.0842444896697998e-02</internalNodes>
          <leafValues>
            3.5657010972499847e-02 -7.1754449605941772e-01</leafValues></_>
        <_>
          <internalNodes>
            0 -1 483 -2.7621053159236908e-03</internalNodes>
          <leafValues>
            2.7210578322410583e-01 -1.0800116509199142e-01</leafValues></_>
        <_>
          <internalNodes>
            0 -1 488 7.2750668041408062e-03</internalNodes>
          <leafValues>
            -8.5588097572326660e-02 3.5499140620231628e-01</leafValues></_></weakClassifiers></_>
    <!-- stage 7 -->
    <_>
      <maxWeakCount>52</maxWeakCount>
      <stageThreshold>-1.2906690835952759e+00</stageThreshold>
      <weakClassifiers>
        <_>
          <internalNodes>
            0 -1 342 1.0251983255147934e-01</internalNodes>
          <leafValues>
            -1.8155314028263092e-01 5.1216024160385132e-01</leafValues></_>
        <_>
          <internalNodes>
            0 -1 436 1.1175488121807575e-02</internalNodes>
          <leafValues>
            -9.8262362182140350e-02 5.6462472677230835e-01</leafValues></_>
        <_>
          <internalNodes>
            0 -1 538 1.0842118412256241e-02</internalNodes>
          <leafValues>
            -1.4254926145076752e-01 5.1045006513595581e-01</leafValues></_>
        <_>
          <internalNodes>
            0 -1 251 -3.8049798458814621e-02</internalNodes>
          <leafValues>
            2.7229100465774536e-01 -2.7628338336944580e-01</leafValues></_>
        <_>
          <internalNodes>
            0 -1 369 4.9332957714796066e-03</internalNodes>
          <leafValues>
            -1.6286838054656982e-01 4.0817153453826904e-01</leafValues></_>
        <_>
          <internalNodes>
            0 -1 263 -7.0876050740480423e-03</internalNodes>
          <leafValues>
            1.8969725072383881e-01 -2.9493638873100281e-01</leafValues></_>
        <_>
          <internalNodes>
            0 -1 238 3.2015904784202576e-02</internalNodes>
          <leafValues>
            8.3857461810112000e-02 -6.7461788654327393e-01</leafValues></_>
        <_>
          <internalNodes>
            0 -1 452 1.2199569493532181e-02</internalNodes>
          <leafValues>
            -1.0612232983112335e-01 4.8156741261482239e-01</leafValues></_>
        <_>
          <internalNodes>
            0 -1 425 -5.5801090784370899e-03</internalNodes>
          <leafValues>
            3.2030320167541504e-01 -1.7056635022163391e-01</leafValues></_>
        <_>
          <internalNodes>
            0 -1 489 1.3110823929309845e-02</internalNodes>
          <leafValues>
            -1.8709100782871246e-01 2.7122673392295837e-01</leafValues></_>
        <_>
          <internalNodes>
            0 -1 66 1.9985660910606384e-02</internalNodes>
          <leafValues>
            -9.9648289382457733e-02 4.2523974180221558e-01</leafValues></_>
        <_>
          <internalNodes>
            0 -1 173 -1.4063527807593346e-02</internalNodes>
          <leafValues>
            3.3597019314765930e-01 -1.3695544004440308e-01</leafValues></_>
        <_>
          <internalNodes>
            0 -1 412 -2.0426329225301743e-02</internalNodes>
          <leafValues>
            1.5952204167842865e-01 -2.5872012972831726e-01</leafValues></_>
        <_>
          <internalNodes>
            0 -1 13 2.6186522096395493e-02</internalNodes>
          <leafValues>
            -1.2474799156188965e-01 3.3298519253730774e-01</leafValues></_>
        <_>
          <internalNodes>
            0 -1 106 -7.3534594848752022e-03</internalNodes>
          <leafValues>
            3.2976573705673218e-01 -1.1851894855499268e-01</leafValues></_>
        <_>
          <internalNodes>
            0 -1 542 -7.7810091897845268e-03</internalNodes>
          <leafValues>
            -6.2609666585922241e-01 5.7705327868461609e-02</leafValues></_>
        <_>
          <internalNodes>
            0 -1 624 -6.4961230382323265e-03</internalNodes>
          <leafValues>
            3.8675275444984436e-01 -9.4527333974838257e-02</leafValues></_>
        <_>
          <internalNodes>
            0 -1 624 4.9333386123180389e-03</internalNodes>
          <leafValues>
            -1.1285254359245300e-01 3.6051934957504272e-01</leafValues></_>
        <_>
          <internalNodes>
            0 -1 779 3.7010565400123596e-02</internalNodes>
          <leafValues>
            -7.1924746036529541e-02 4.7732183337211609e-01</leafValues></_>
        <_>
          <internalNodes>
            0 -1 801 1.7574988305568695e-02</internalNodes>
          <leafValues>
            -9.7160927951335907e-02 3.5937529802322388e-01</leafValues></_>
        <_>
          <internalNodes>
            0 -1 38 3.0896938405930996e-03</internalNodes>
          <leafValues>
            9.2935524880886078e-02 -3.7373316287994385e-01</leafValues></_>
        <_>
          <internalNodes>
            0 -1 853 -3.5130882170051336e-03</internalNodes>
          <leafValues>
            -5.0962752103805542e-01 6.1412371695041656e-02</leafValues></_>
        <_>
          <internalNodes>
            0 -1 205 -2.0608790218830109e-03</internalNodes>
          <leafValues>
            1.4854831993579865e-01 -2.1100266277790070e-01</leafValues></_>
        <_>
          <internalNodes>
            0 -1 614 -1.8788434099406004e-03</internalNodes>
          <leafValues>
            2.8400588035583496e-01 -1.1939756572246552e-01</leafValues></_>
        <_>
          <internalNodes>
            0 -1 525 6.7042373120784760e-03</internalNodes>
          <leafValues>
            -8.7192669510841370e-02 4.1526922583580017e-01</leafValues></_>
        <_>
          <internalNodes>
            0 -1 456 2.3463021963834763e-02</internalNodes>
          <leafValues>
            6.3111312687397003e-02 -5.9604328870773315e-01</leafValues></_>
        <_>
          <internalNodes>
            0 -1 844 4.5757163316011429e-03</internalNodes>
          <leafValues>
            6.7901551723480225e-02 -4.4371962547302246e-01</leafValues></_>
        <_>
          <internalNodes>
            0 -1 541 -6.3863582909107208e-03</internalNodes>
          <leafValues>
            -5.3813391923904419e-01 5.4664026945829391e-02</leafValues></_>
        <_>
          <internalNodes>
            0 -1 386 8.7806507945060730e-03</internalNodes>
          <leafValues>
            5.7329993695020676e-02 -5.1556491851806641e-01</leafValues></_>
        <_>
          <internalNodes>
            0 -1 91 6.5104034729301929e-03</internalNodes>
          <leafValues>
            -1.1322999000549316e-01 2.6896291971206665e-01</leafValues></_>
        <_>
          <internalNodes>
            0 -1 576 -2.1155297756195068e-02</internalNodes>
          <leafValues>
            3.3516687154769897e-01 -8.8342122733592987e-02</leafValues></_>
        <_>
          <internalNodes>
            0 -1 680 -4.8772273585200310e-03</internalNodes>
          <leafValues>
            3.7323334813117981e-01 -7.5868107378482819e-02</leafValues></_>
        <_>
          <internalNodes>
            0 -1 511 2.8674851637333632e-03</internalNodes>
          <leafValues>
            7.7625609934329987e-02 -4.0457668900489807e-01</leafValues></_>
        <_>
          <internalNodes>
            0 -1 509 -4.2544202879071236e-03</internalNodes>
          <leafValues>
            -6.1231005191802979e-01 5.2287213504314423e-02</leafValues></_>
        <_>
          <internalNodes>
            0 -1 523 2.8302313294261694e-03</internalNodes>
          <leafValues>
            -1.1976965516805649e-01 2.8470417857170105e-01</leafValues></_>
        <_>
          <internalNodes>
            0 -1 533 -2.0284760743379593e-02</internalNodes>
          <leafValues>
            -5.3977465629577637e-01 6.1546854674816132e-02</leafValues></_>
        <_>
          <internalNodes>
            0 -1 16 -5.4556950926780701e-02</internalNodes>
          <leafValues>
            4.3299642205238342e-01 -7.3698125779628754e-02</leafValues></_>
        <_>
          <internalNodes>
            0 -1 659 1.4119823463261127e-03</internalNodes>
          <leafValues>
            8.9581035077571869e-02 -3.5413962602615356e-01</leafValues></_>
        <_>
          <internalNodes>
            0 -1 356 4.1685777250677347e-04</internalNodes>
          <leafValues>
            1.9557186961174011e-01 -1.6091129183769226e-01</leafValues></_>
        <_>
          <internalNodes>
            0 -1 479 2.6934053748846054e-02</internalNodes>
          <leafValues>
            6.6421173512935638e-02 -4.7465437650680542e-01</leafValues></_>
        <_>
          <internalNodes>
            0 -1 20 -1.0177008807659149e-02</internalNodes>
          <leafValues>
            -5.3446841239929199e-01 5.1630318164825439e-02</leafValues></_>
        <_>
          <internalNodes>
            0 -1 258 -2.2103530354797840e-03</internalNodes>
          <leafValues>
            2.1939173340797424e-01 -1.3698130846023560e-01</leafValues></_>
        <_>
          <internalNodes>
            0 -1 92 -2.4619130417704582e-02</internalNodes>
          <leafValues>
            4.2844325304031372e-01 -6.7462302744388580e-02</leafValues></_>
        <_>
          <internalNodes>
            0 -1 97 -8.3626117557287216e-03</internalNodes>
          <leafValues>
            -6.7478215694427490e-01 4.6984855085611343e-02</leafValues></_>
        <_>
          <internalNodes>
            0 -1 711 -4.5180995948612690e-03</internalNodes>
          <leafValues>
            3.1092250347137451e-01 -9.7289204597473145e-02</leafValues></_>
        <_>
          <internalNodes>
            0 -1 404 8.8573964312672615e-03</internalNodes>
          <leafValues>
            -1.1794268339872360e-01 2.5956797599792480e-01</leafValues></_>
        <_>
          <internalNodes>
            0 -1 462 2.6373026776127517e-04</internalNodes>
          <leafValues>
            1.1495824158191681e-01 -2.5444415211677551e-01</leafValues></_>
        <_>
          <internalNodes>
            0 -1 848 1.7809425480663776e-03</internalNodes>
          <leafValues>
            6.7613951861858368e-02 -4.1577768325805664e-01</leafValues></_>
        <_>
          <internalNodes>
            0 -1 327 -3.0552153475582600e-03</internalNodes>
          <leafValues>
            2.5389027595520020e-01 -1.1142309755086899e-01</leafValues></_>
        <_>
          <internalNodes>
            0 -1 645 4.9351118505001068e-03</internalNodes>
          <leafValues>
            -1.0027026385068893e-01 2.8655412793159485e-01</leafValues></_>
        <_>
          <internalNodes>
            0 -1 68 2.0340527407824993e-03</internalNodes>
          <leafValues>
            5.9913646429777145e-02 -4.6876806020736694e-01</leafValues></_>
        <_>
          <internalNodes>
            0 -1 301 -6.2367022037506104e-03</internalNodes>
          <leafValues>
            3.9241790771484375e-01 -7.5463093817234039e-02</leafValues></_></weakClassifiers></_>
    <!-- stage 8 -->
    <_>
      <maxWeakCount>52</maxWeakCount>
      <stageThreshold>-1.2458981275558472e+00</stageThreshold>
      <weakClassifiers>
        <_>
          <internalNodes>
            0 -1 486 6.4602211117744446e-02</internalNodes>
          <leafValues>
            -1.4693218469619751e-01 4.9719774723052979e-01</leafValues></_>
        <_>
          <internalNodes>
            0 -1 131 -1.0817369446158409e-02</internalNodes>
          <leafValues>
            4.4352060556411743e-01 -1.2437812983989716e-01</leafValues></_>
        <_>
          <internalNodes>
            0 -1 758 5.4698018357157707e-03</internalNodes>
          <leafValues>
            -1.0858897864818573e-01 5.1134645938873291e-01</leafValues></_>
        <_>
          <internalNodes>
            0 -1 687 -6.0879001393914223e-03</internalNodes>
          <leafValues>
            5.0675481557846069e-01 -1.2463225424289703e-01</leafValues></_>
        <_>
          <internalNodes>
            0 -1 315 -9.3686997890472412e-02</internalNodes>
          <leafValues>
            2.5478821992874146e-01 -2.3172715306282043e-01</leafValues></_>
        <_>
          <internalNodes>
            0 -1 440 -1.3525545597076416e-02</internalNodes>
          <leafValues>
            4.9127820134162903e-01 -1.2194322794675827e-01</leafValues></_>
        <_>
          <internalNodes>
            0 -1 445 1.1937953531742096e-02</internalNodes>
          <leafValues>
            1.0894820839166641e-01 -5.3756666183471680e-01</leafValues></_>
        <_>
          <internalNodes>
            0 -1 371 -8.2466024905443192e-03</internalNodes>
          <leafValues>
            4.3193948268890381e-01 -1.2352696061134338e-01</leafValues></_>
        <_>
          <internalNodes>
            0 -1 754 9.3253860250115395e-03</internalNodes>
          <leafValues>
            -1.4696587622165680e-01 3.0572405457496643e-01</leafValues></_>
        <_>
          <internalNodes>
            0 -1 550 4.8378631472587585e-03</internalNodes>
          <leafValues>
            -1.4353016018867493e-01 3.2128521800041199e-01</leafValues></_>
        <_>
          <internalNodes>
            0 -1 551 -6.2718139961361885e-03</internalNodes>
          <leafValues>
            3.7538072466850281e-01 -1.4273121953010559e-01</leafValues></_>
        <_>
          <internalNodes>
            0 -1 324 8.6145233362913132e-03</internalNodes>
          <leafValues>
            -1.0210499912500381e-01 3.7076202034950256e-01</leafValues></_>
        <_>
          <internalNodes>
            0 -1 411 -2.3899357765913010e-02</internalNodes>
          <leafValues>
            1.9057056307792664e-01 -2.1827824413776398e-01</leafValues></_>
        <_>
          <internalNodes>
            0 -1 440 -3.7436627317219973e-03</internalNodes>
          <leafValues>
            2.3256798088550568e-01 -1.8736174702644348e-01</leafValues></_>
        <_>
          <internalNodes>
            0 -1 593 -4.8491187044419348e-04</internalNodes>
          <leafValues>
            -2.6702728867530823e-01 1.4835457503795624e-01</leafValues></_>
        <_>
          <internalNodes>
            0 -1 593 2.9961636755615473e-04</internalNodes>
          <leafValues>
            1.2515930831432343e-01 -3.6549425125122070e-01</leafValues></_>
        <_>
          <internalNodes>
            0 -1 282 -9.2513978481292725e-02</internalNodes>
          <leafValues>
            3.5276389122009277e-01 -1.1495236307382584e-01</leafValues></_>
        <_>
          <internalNodes>
            0 -1 540 2.7631951961666346e-03</internalNodes>
          <leafValues>
            9.5225781202316284e-02 -4.4540613889694214e-01</leafValues></_>
        <_>
          <internalNodes>
            0 -1 854 -8.9426711201667786e-03</internalNodes>
          <leafValues>
            3.5194674134254456e-01 -1.1220543086528778e-01</leafValues></_>
        <_>
          <internalNodes>
            0 -1 643 4.0903585031628609e-03</internalNodes>
          <leafValues>
            -1.9222454726696014e-01 2.0613236725330353e-01</leafValues></_>
        <_>
          <internalNodes>
            0 -1 297 -3.8529384881258011e-02</internalNodes>
          <leafValues>
            -6.7888289690017700e-01 4.8920646309852600e-02</leafValues></_>
        <_>
          <internalNodes>
            0 -1 427 3.2189309597015381e-02</internalNodes>
          <leafValues>
            3.8426663726568222e-02 -7.1661949157714844e-01</leafValues></_>
        <_>
          <internalNodes>
            0 -1 201 2.2826311178505421e-03</internalNodes>
          <leafValues>
            -1.3312189280986786e-01 2.5883388519287109e-01</leafValues></_>
        <_>
          <internalNodes>
            0 -1 153 -1.5534322010353208e-03</internalNodes>
          <leafValues>
            2.3386892676353455e-01 -1.3582178950309753e-01</leafValues></_>
        <_>
          <internalNodes>
            0 -1 615 2.4204410146921873e-03</internalNodes>
          <leafValues>
            -1.2482543289661407e-01 2.5413185358047485e-01</leafValues></_>
        <_>
          <internalNodes>
            0 -1 616 -1.1341564822942019e-03</internalNodes>
          <leafValues>
            2.1943762898445129e-01 -1.7127048969268799e-01</leafValues></_>
        <_>
          <internalNodes>
            0 -1 850 2.2127667907625437e-03</internalNodes>
          <leafValues>
            7.0786908268928528e-02 -5.0609087944030762e-01</leafValues></_>
        <_>
          <internalNodes>
            0 -1 328 -6.9238934665918350e-03</internalNodes>
          <leafValues>
            2.5386682152748108e-01 -1.2637844681739807e-01</leafValues></_>
        <_>
          <internalNodes>
            0 -1 639 4.6087577939033508e-03</internalNodes>
          <leafValues>
            7.3777742683887482e-02 -4.4474628567695618e-01</leafValues></_>
        <_>
          <internalNodes>
            0 -1 632 -1.0665514128049836e-04</internalNodes>
          <leafValues>
            -2.3688229918479919e-01 1.3074845075607300e-01</leafValues></_>
        <_>
          <internalNodes>
            0 -1 632 8.1494072219356894e-05</internalNodes>
          <leafValues>
            1.7682588100433350e-01 -2.7365905046463013e-01</leafValues></_>
        <_>
          <internalNodes>
            0 -1 262 -2.9812518041580915e-03</internalNodes>
          <leafValues>
            3.1577092409133911e-01 -1.1232379823923111e-01</leafValues></_>
        <_>
          <internalNodes>
            0 -1 98 -2.8854327276349068e-02</internalNodes>
          <leafValues>
            4.8761093616485596e-01 -6.3072800636291504e-02</leafValues></_>
        <_>
          <internalNodes>
            0 -1 490 1.9343970715999603e-01</internalNodes>
          <leafValues>
            -6.9306157529354095e-02 4.2668023705482483e-01</leafValues></_>
        <_>
          <internalNodes>
            0 -1 660 -1.1221697926521301e-01</internalNodes>
          <leafValues>
            4.0286582708358765e-01 -8.9614756405353546e-02</leafValues></_>
        <_>
          <internalNodes>
            0 -1 362 -3.0836318619549274e-03</internalNodes>
          <leafValues>
            2.5446072220802307e-01 -1.1493404209613800e-01</leafValues></_>
        <_>
          <internalNodes>
            0 -1 266 -7.8094014897942543e-03</internalNodes>
          <leafValues>
            2.3569616675376892e-01 -1.2839674949645996e-01</leafValues></_>
        <_>
          <internalNodes>
            0 -1 74 -1.6934471204876900e-02</internalNodes>
          <leafValues>
            2.0446813106536865e-01 -1.5302988886833191e-01</leafValues></_>
        <_>
          <internalNodes>
            0 -1 12 7.0303253829479218e-02</internalNodes>
          <leafValues>
            -1.1657401174306870e-01 3.1594845652580261e-01</leafValues></_>
        <_>
          <internalNodes>
            0 -1 639 -7.7708330936729908e-03</internalNodes>
          <leafValues>
            -5.3924787044525146e-01 5.8676231652498245e-02</leafValues></_>
        <_>
          <internalNodes>
            0 -1 174 -1.0711421491578221e-03</internalNodes>
          <leafValues>
            1.8721471726894379e-01 -1.4791131019592285e-01</leafValues></_>
        <_>
          <internalNodes>
            0 -1 167 -5.7661160826683044e-04</internalNodes>
          <leafValues>
            1.7885294556617737e-01 -1.4902241528034210e-01</leafValues></_>
        <_>
          <internalNodes>
            0 -1 518 -2.7549797669053078e-02</internalNodes>
          <leafValues>
            -5.6443184614181519e-01 4.7102365642786026e-02</leafValues></_>
        <_>
          <internalNodes>
            0 -1 435 5.0080786459147930e-03</internalNodes>
          <leafValues>
            -8.4812752902507782e-02 3.3329215645790100e-01</leafValues></_>
        <_>
          <internalNodes>
            0 -1 383 3.8932289462536573e-03</internalNodes>
          <leafValues>
            -1.0355826467275620e-01 2.9394814372062683e-01</leafValues></_>
        <_>
          <internalNodes>
            0 -1 434 8.8132061064243317e-03</internalNodes>
          <leafValues>
            -7.4824504554271698e-02 3.7887290120124817e-01</leafValues></_>
        <_>
          <internalNodes>
            0 -1 448 -2.2804563865065575e-02</internalNodes>
          <leafValues>
            -7.3230755329132080e-01 4.1952785104513168e-02</leafValues></_>
        <_>
          <internalNodes>
            0 -1 469 4.9783438444137573e-03</internalNodes>
          <leafValues>
            4.5857489109039307e-02 -5.5659139156341553e-01</leafValues></_>
        <_>
          <internalNodes>
            0 -1 24 -2.6692091487348080e-03</internalNodes>
          <leafValues>
            -5.1502829790115356e-01 4.8505485057830811e-02</leafValues></_>
        <_>
          <internalNodes>
            0 -1 822 3.6167125217616558e-03</internalNodes>
          <leafValues>
            -1.1139167845249176e-01 2.5378629565238953e-01</leafValues></_>
        <_>
          <internalNodes>
            0 -1 771 2.2644829005002975e-03</internalNodes>
          <leafValues>
            -1.0428817570209503e-01 2.5816527009010315e-01</leafValues></_>
        <_>
          <internalNodes>
            0 -1 395 7.6728658750653267e-03</internalNodes>
          <leafValues>
            -1.4759266376495361e-01 1.9809564948081970e-01</leafValues></_></weakClassifiers></_>
    <!-- stage 9 -->
    <_>
      <maxWeakCount>58</maxWeakCount>
      <stageThreshold>-1.2118734121322632e+00</stageThreshold>
      <weakClassifiers>
        <_>
          <internalNodes>
            0 -1 221 1.0189768671989441e-01</internalNodes>
          <leafValues>
            -1.7069751024246216e-01 4.5687377452850342e-01</leafValues></_>
        <_>
          <internalNodes>
            0 -1 143 -7.3017776012420654e-03</internalNodes>
          <leafValues>
            2.2271467745304108e-01 -2.9818087816238403e-01</leafValues></_>
        <_>
          <internalNodes>
            0 -1 451 1.2726846151053905e-02</internalNodes>
          <leafValues>
            -9.7081996500492096e-02 5.3530097007751465e-01</leafValues></_>
        <_>
          <internalNodes>
            0 -1 376 5.9871086850762367e-03</internalNodes>
          <leafValues>
            -2.0981782674789429e-01 4.3611016869544983e-01</leafValues></_>
        <_>
          <internalNodes>
            0 -1 746 5.9717772528529167e-03</internalNodes>
          <leafValues>
            -1.7143900692462921e-01 2.7704712748527527e-01</leafValues></_>
        <_>
          <internalNodes>
            0 -1 816 -3.6757052876055241e-03</internalNodes>
          <leafValues>
            2.7359411120414734e-01 -1.9752149283885956e-01</leafValues></_>
        <_>
          <internalNodes>
            0 -1 453 -4.1394168511033058e-03</internalNodes>
          <leafValues>
            -5.6667023897171021e-01 8.0613821744918823e-02</leafValues></_>
        <_>
          <internalNodes>
            0 -1 686 2.5113127194344997e-03</internalNodes>
          <leafValues>
            -1.3803555071353912e-01 3.6527210474014282e-01</leafValues></_>
        <_>
          <internalNodes>
            0 -1 538 -1.1103100143373013e-02</internalNodes>
          <leafValues>
            4.4342842698097229e-01 -1.2079493701457977e-01</leafValues></_>
        <_>
          <internalNodes>
            0 -1 279 -1.5764668583869934e-02</internalNodes>
          <leafValues>
            2.3960222303867340e-01 -1.7174649238586426e-01</leafValues></_>
        <_>
          <internalNodes>
            0 -1 6 1.2740164995193481e-01</internalNodes>
          <leafValues>
            -9.3793034553527832e-02 4.2379161715507507e-01</leafValues></_>
        <_>
          <internalNodes>
            0 -1 204 -2.1229875274002552e-03</internalNodes>
          <leafValues>
            1.9011297821998596e-01 -2.0994703471660614e-01</leafValues></_>
        <_>
          <internalNodes>
            0 -1 169 -1.0883311741054058e-02</internalNodes>
          <leafValues>
            3.8000035285949707e-01 -1.0870201140642166e-01</leafValues></_>
        <_>
          <internalNodes>
            0 -1 536 4.8325536772608757e-03</internalNodes>
          <leafValues>
            -1.2336213141679764e-01 3.2892155647277832e-01</leafValues></_>
        <_>
          <internalNodes>
            0 -1 319 -5.7400017976760864e-03</internalNodes>
          <leafValues>
            -4.9252006411552429e-01 9.2420175671577454e-02</leafValues></_>
        <_>
          <internalNodes>
            0 -1 493 -6.2214806675910950e-03</internalNodes>
          <leafValues>
            -6.1308312416076660e-01 5.2241273224353790e-02</leafValues></_>
        <_>
          <internalNodes>
            0 -1 407 -6.9114342331886292e-03</internalNodes>
          <leafValues>
            -6.5477186441421509e-01 4.7824915498495102e-02</leafValues></_>
        <_>
          <internalNodes>
            0 -1 680 -6.7033716477453709e-03</internalNodes>
          <leafValues>
            4.4023197889328003e-01 -8.5000805556774139e-02</leafValues></_>
        <_>
          <internalNodes>
            0 -1 600 -5.3169997408986092e-03</internalNodes>
          <leafValues>
            -3.4185564517974854e-01 1.1644165962934494e-01</leafValues></_>
        <_>
          <internalNodes>
            0 -1 667 2.0121641457080841e-02</internalNodes>
          <leafValues>
            5.6074790656566620e-02 -5.2248078584671021e-01</leafValues></_>
        <_>
          <internalNodes>
            0 -1 545 3.1512521207332611e-02</internalNodes>
          <leafValues>
            5.6977614760398865e-02 -4.9544629454612732e-01</leafValues></_>
        <_>
          <internalNodes>
            0 -1 690 -5.0689624622464180e-03</internalNodes>
          <leafValues>
            3.8842517137527466e-01 -8.3379700779914856e-02</leafValues></_>
        <_>
          <internalNodes>
            0 -1 557 5.5806683376431465e-03</internalNodes>
          <leafValues>
            -8.3236612379550934e-02 3.5765698552131653e-01</leafValues></_>
        <_>
          <internalNodes>
            0 -1 529 4.9934303387999535e-03</internalNodes>
          <leafValues>
            9.0233154594898224e-02 -3.6206996440887451e-01</leafValues></_>
        <_>
          <internalNodes>
            0 -1 273 -1.0661825537681580e-01</internalNodes>
          <leafValues>
            3.8387978076934814e-01 -8.9056909084320068e-02</leafValues></_>
        <_>
          <internalNodes>
            0 -1 561 1.9415130373090506e-04</internalNodes>
          <leafValues>
            1.3793766498565674e-01 -2.5203722715377808e-01</leafValues></_>
        <_>
          <internalNodes>
            0 -1 561 -1.2205723760416731e-04</internalNodes>
          <leafValues>
            -2.8361248970031738e-01 2.0796935260295868e-01</leafValues></_>
        <_>
          <internalNodes>
            0 -1 185 -1.9252916797995567e-02</internalNodes>
          <leafValues>
            4.1005805134773254e-01 -9.5611803233623505e-02</leafValues></_>
        <_>
          <internalNodes>
            0 -1 321 3.1715147197246552e-02</internalNodes>
          <leafValues>
            -1.3906000554561615e-01 2.6296997070312500e-01</leafValues></_>
        <_>
          <internalNodes>
            0 -1 645 8.1818252801895142e-03</internalNodes>
          <leafValues>
            -7.9828150570392609e-02 4.0611854195594788e-01</leafValues></_>
        <_>
          <internalNodes>
            0 -1 688 5.7882774854078889e-04</internalNodes>
          <leafValues>
            -1.3289479911327362e-01 2.1963675320148468e-01</leafValues></_>
        <_>
          <internalNodes>
            0 -1 17 -2.6327052619308233e-03</internalNodes>
          <leafValues>
            -4.1740939021110535e-01 6.9829069077968597e-02</leafValues></_>
        <_>
          <internalNodes>
            0 -1 331 2.3399777710437775e-02</internalNodes>
          <leafValues>
            -8.0762438476085663e-02 3.6021170020103455e-01</leafValues></_>
        <_>
          <internalNodes>
            0 -1 771 1.8476025434210896e-03</internalNodes>
          <leafValues>
            -1.0939549654722214e-01 2.4317091703414917e-01</leafValues></_>
        <_>
          <internalNodes>
            0 -1 101 -3.6036083474755287e-03</internalNodes>
          <leafValues>
            2.4624237418174744e-01 -1.0500680655241013e-01</leafValues></_>
        <_>
          <internalNodes>
            0 -1 124 3.5064620897173882e-03</internalNodes>
          <leafValues>
            4.1354633867740631e-02 -6.5923285484313965e-01</leafValues></_>
        <_>
          <internalNodes>
            0 -1 438 2.6644123718142509e-02</internalNodes>
          <leafValues>
            2.6871345937252045e-02 -8.3890140056610107e-01</leafValues></_>
        <_>
          <internalNodes>
            0 -1 357 1.9186854362487793e-02</internalNodes>
          <leafValues>
            -5.1897365599870682e-02 5.7478827238082886e-01</leafValues></_>
        <_>
          <internalNodes>
            0 -1 561 8.8677057647146285e-05</internalNodes>
          <leafValues>
            1.3600565493106842e-01 -2.0896756649017334e-01</leafValues></_>
        <_>
          <internalNodes>
            0 -1 474 1.1925661936402321e-02</internalNodes>
          <leafValues>
            -1.1784905940294266e-01 2.2350552678108215e-01</leafValues></_>
        <_>
          <internalNodes>
            0 -1 859 -5.9383120387792587e-03</internalNodes>
          <leafValues>
            -4.5541158318519592e-01 5.8331444859504700e-02</leafValues></_>
        <_>
          <internalNodes>
            0 -1 494 -2.0049570593982935e-03</internalNodes>
          <leafValues>
            2.1545854210853577e-01 -1.2481177598237991e-01</leafValues></_>
        <_>
          <internalNodes>
            0 -1 483 -4.5552151277661324e-03</internalNodes>
          <leafValues>
            3.1147247552871704e-01 -8.2215376198291779e-02</leafValues></_>
        <_>
          <internalNodes>
            0 -1 860 -1.0714028030633926e-03</internalNodes>
          <leafValues>
            -3.1479328870773315e-01 8.2609765231609344e-02</leafValues></_>
        <_>
          <internalNodes>
            0 -1 861 -2.1209288388490677e-03</internalNodes>
          <leafValues>
            -4.6792519092559814e-01 5.6391410529613495e-02</leafValues></_>
        <_>
          <internalNodes>
            0 -1 668 1.4984707813709974e-03</internalNodes>
          <leafValues>
            -1.0800476372241974e-01 2.3441243171691895e-01</leafValues></_>
        <_>
          <internalNodes>
            0 -1 624 2.5197712238878012e-03</internalNodes>
          <leafValues>
            -1.1926805973052979e-01 2.3781584203243256e-01</leafValues></_>
        <_>
          <internalNodes>
            0 -1 551 5.9737702831625938e-03</internalNodes>
          <leafValues>
            -1.1531662940979004e-01 2.4181705713272095e-01</leafValues></_>
        <_>
          <internalNodes>
            0 -1 337 -1.1836042627692223e-02</internalNodes>
          <leafValues>
            -5.9340190887451172e-01 4.5014686882495880e-02</leafValues></_>
        <_>
          <internalNodes>
            0 -1 265 -1.4581773430109024e-02</internalNodes>
          <leafValues>
            -6.3677859306335449e-01 3.4295406192541122e-02</leafValues></_>
        <_>
          <internalNodes>
            0 -1 531 -1.1173565872013569e-02</internalNodes>
          <leafValues>
            -5.9399563074111938e-01 3.8238178938627243e-02</leafValues></_>
        <_>
          <internalNodes>
            0 -1 197 -1.3634190894663334e-02</internalNodes>
          <leafValues>
            2.6263532042503357e-01 -1.0132084786891937e-01</leafValues></_>
        <_>
          <internalNodes>
            0 -1 196 5.4980251006782055e-03</internalNodes>
          <leafValues>
            -9.6777677536010742e-02 3.2670721411705017e-01</leafValues></_>
        <_>
          <internalNodes>
            0 -1 217 -6.1102258041501045e-04</internalNodes>
          <leafValues>
            1.5309007465839386e-01 -1.9934225082397461e-01</leafValues></_>
        <_>
          <internalNodes>
            0 -1 451 4.7388821840286255e-03</internalNodes>
          <leafValues>
            -9.7851909697055817e-02 2.6150903105735779e-01</leafValues></_>
        <_>
          <internalNodes>
            0 -1 857 5.6375153362751007e-03</internalNodes>
          <leafValues>
            6.0664299875497818e-02 -4.6205410361289978e-01</leafValues></_>
        <_>
          <internalNodes>
            0 -1 552 -3.6176475696265697e-03</internalNodes>
          <leafValues>
            2.0179721713066101e-01 -1.2522339820861816e-01</leafValues></_>
        <_>
          <internalNodes>
            0 -1 499 6.0666231438517570e-03</internalNodes>
          <leafValues>
            4.3737798929214478e-02 -6.2630838155746460e-01</leafValues></_></weakClassifiers></_>
    <!-- stage 10 -->
    <_>
      <maxWeakCount>64</maxWeakCount>
      <stageThreshold>-1.1820503473281860e+00</stageThreshold>
      <weakClassifiers>
        <_>
          <internalNodes>
            0 -1 417 3.2283902168273926e-02</internalNodes>
          <leafValues>
            -3.6351904273033142e-02 5.0562667846679688e-01</leafValues></_>
        <_>
          <internalNodes>
            0 -1 801 1.4128146693110466e-02</internalNodes>
          <leafValues>
            -1.4974635839462280e-01 3.6924737691879272e-01</leafValues></_>
        <_>
          <internalNodes>
            0 -1 244 2.5793788954615593e-03</internalNodes>
          <leafValues>
            -2.3194898664951324e-01 2.2244401276111603e-01</leafValues></_>
        <_>
          <internalNodes>
            0 -1 175 8.7260715663433075e-03</internalNodes>
          <leafValues>
            -1.5060937404632568e-01 3.2700321078300476e-01</leafValues></_>
        <_>
          <internalNodes>
            0 -1 255 -1.3682051794603467e-03</internalNodes>
          <leafValues>
            3.0345958471298218e-01 -1.6821867227554321e-01</leafValues></_>
        <_>
          <internalNodes>
            0 -1 149 1.3490285724401474e-02</internalNodes>
          <leafValues>
            -9.0634942054748535e-02 5.2171969413757324e-01</leafValues></_>
        <_>
          <internalNodes>
            0 -1 538 1.2511983513832092e-02</internalNodes>
          <leafValues>
            -9.1623477637767792e-02 3.8287207484245300e-01</leafValues></_>
        <_>
          <internalNodes>
            0 -1 624 5.6423759087920189e-03</internalNodes>
          <leafValues>
            -1.0532890260219574e-01 3.7421903014183044e-01</leafValues></_>
        <_>
          <internalNodes>
            0 -1 562 1.3860338367521763e-03</internalNodes>
          <leafValues>
            9.0352043509483337e-02 -4.3156659603118896e-01</leafValues></_>
        <_>
          <internalNodes>
            0 -1 799 2.6502257212996483e-02</internalNodes>
          <leafValues>
            -7.8758753836154938e-02 4.8054644465446472e-01</leafValues></_>
        <_>
          <internalNodes>
            0 -1 112 -4.8212938010692596e-02</internalNodes>
          <leafValues>
            2.7633234858512878e-01 -1.5497286617755890e-01</leafValues></_>
        <_>
          <internalNodes>
            0 -1 467 2.8089135885238647e-03</internalNodes>
          <leafValues>
            1.0610935091972351e-01 -3.4345939755439758e-01</leafValues></_>
        <_>
          <internalNodes>
            0 -1 687 2.8051040135324001e-03</internalNodes>
          <leafValues>
            -1.3532300293445587e-01 2.5193190574645996e-01</leafValues></_>
        <_>
          <internalNodes>
            0 -1 213 1.0200019460171461e-03</internalNodes>
          <leafValues>
            -1.7645096778869629e-01 2.0379213988780975e-01</leafValues></_>
        <_>
          <internalNodes>
            0 -1 14 3.0233088880777359e-02</internalNodes>
          <leafValues>
            -1.1906828731298447e-01 2.8280189633369446e-01</leafValues></_>
        <_>
          <internalNodes>
            0 -1 543 2.1964119747281075e-02</internalNodes>
          <leafValues>
            4.9438241869211197e-02 -7.6616877317428589e-01</leafValues></_>
        <_>
          <internalNodes>
            0 -1 561 1.8452375661581755e-04</internalNodes>
          <leafValues>
            1.1109928786754608e-01 -2.6295998692512512e-01</leafValues></_>
        <_>
          <internalNodes>
            0 -1 544 1.2625237926840782e-02</internalNodes>
          <leafValues>
            6.2453538179397583e-02 -4.5814928412437439e-01</leafValues></_>
        <_>
          <internalNodes>
            0 -1 25 -2.6237226556986570e-03</internalNodes>
          <leafValues>
            -5.3266471624374390e-01 5.2145060151815414e-02</leafValues></_>
        <_>
          <internalNodes>
            0 -1 199 -7.5343195348978043e-03</internalNodes>
          <leafValues>
            1.2723091244697571e-01 -2.1589732170104980e-01</leafValues></_>
        <_>
          <internalNodes>
            0 -1 472 1.5677899122238159e-02</internalNodes>
          <leafValues>
            -1.0058402270078659e-01 2.9651036858558655e-01</leafValues></_>
        <_>
          <internalNodes>
            0 -1 577 4.2187971994280815e-03</internalNodes>
          <leafValues>
            -1.1238615959882736e-01 2.9504024982452393e-01</leafValues></_>
        <_>
          <internalNodes>
            0 -1 375 2.3292256519198418e-03</internalNodes>
          <leafValues>
            -1.1468527466058731e-01 2.6000165939331055e-01</leafValues></_>
        <_>
          <internalNodes>
            0 -1 313 5.2764602005481720e-03</internalNodes>
          <leafValues>
            -9.4189926981925964e-02 3.5550588369369507e-01</leafValues></_>
        <_>
          <internalNodes>
            0 -1 709 -3.0345688574016094e-03</internalNodes>
          <leafValues>
            2.4997545778751373e-01 -1.0619375109672546e-01</leafValues></_>
        <_>
          <internalNodes>
            0 -1 561 -8.0427082139067352e-05</internalNodes>
          <leafValues>
            -1.7926552891731262e-01 1.5605278313159943e-01</leafValues></_>
        <_>
          <internalNodes>
            0 -1 309 -2.7884343639016151e-02</internalNodes>
          <leafValues>
            -4.6157023310661316e-01 5.5968828499317169e-02</leafValues></_>
        <_>
          <internalNodes>
            0 -1 281 8.6702056229114532e-02</internalNodes>
          <leafValues>
            -6.5548941493034363e-02 4.2239975929260254e-01</leafValues></_>
        <_>
          <internalNodes>
            0 -1 280 -5.8670923113822937e-02</internalNodes>
          <leafValues>
            3.0414384603500366e-01 -1.0211175680160522e-01</leafValues></_>
        <_>
          <internalNodes>
            0 -1 838 -1.2738501653075218e-02</internalNodes>
          <leafValues>
            2.8963765501976013e-01 -9.6822038292884827e-02</leafValues></_>
        <_>
          <internalNodes>
            0 -1 776 3.6870664916932583e-03</internalNodes>
          <leafValues>
            -1.0723809897899628e-01 2.6201227307319641e-01</leafValues></_>
        <_>
          <internalNodes>
            0 -1 735 3.6111271474510431e-03</internalNodes>
          <leafValues>
            -9.4672590494155884e-02 2.8958535194396973e-01</leafValues></_>
        <_>
          <internalNodes>
            0 -1 690 2.6802662760019302e-03</internalNodes>
          <leafValues>
            -1.0577306151390076e-01 2.6028358936309814e-01</leafValues></_>
        <_>
          <internalNodes>
            0 -1 599 4.1769206523895264e-02</internalNodes>
          <leafValues>
            5.0093438476324081e-02 -6.4371222257614136e-01</leafValues></_>
        <_>
          <internalNodes>
            0 -1 73 -1.3619564706459641e-03</internalNodes>
          <leafValues>
            -3.9401596784591675e-01 6.4817786216735840e-02</leafValues></_>
        <_>
          <internalNodes>
            0 -1 609 -1.2740394100546837e-02</internalNodes>
          <leafValues>
            -5.9077501296997070e-01 4.4217590242624283e-02</leafValues></_>
        <_>
          <internalNodes>
            0 -1 195 2.0676271524280310e-03</internalNodes>
          <leafValues>
            -1.1328675597906113e-01 2.4311959743499756e-01</leafValues></_>
        <_>
          <internalNodes>
            0 -1 871 -2.4546000640839338e-03</internalNodes>
          <leafValues>
            -3.7306001782417297e-01 6.9372713565826416e-02</leafValues></_>
        <_>
          <internalNodes>
            0 -1 390 -8.1868488341569901e-03</internalNodes>
          <leafValues>
            -5.6865066289901733e-01 4.1419461369514465e-02</leafValues></_>
        <_>
          <internalNodes>
            0 -1 525 -8.6957542225718498e-03</internalNodes>
          <leafValues>
            4.4076955318450928e-01 -6.1755992472171783e-02</leafValues></_>
        <_>
          <internalNodes>
            0 -1 434 1.1663375422358513e-02</internalNodes>
          <leafValues>
            -6.3186526298522949e-02 4.3080237507820129e-01</leafValues></_>
        <_>
          <internalNodes>
            0 -1 537 3.3304099924862385e-03</internalNodes>
          <leafValues>
            -1.4457377791404724e-01 2.1917958557605743e-01</leafValues></_>
        <_>
          <internalNodes>
            0 -1 264 -1.2584286741912365e-02</internalNodes>
          <leafValues>
            2.8094995021820068e-01 -9.4204008579254150e-02</leafValues></_>
        <_>
          <internalNodes>
            0 -1 30 -5.1130224019289017e-03</internalNodes>
          <leafValues>
            -3.2577887177467346e-01 8.2896046340465546e-02</leafValues></_>
        <_>
          <internalNodes>
            0 -1 755 -5.9666661545634270e-03</internalNodes>
          <leafValues>
            -5.1397919654846191e-01 5.1042620092630386e-02</leafValues></_>
        <_>
          <internalNodes>
            0 -1 651 -4.9283718690276146e-03</internalNodes>
          <leafValues>
            3.1338241696357727e-01 -8.9285932481288910e-02</leafValues></_>
        <_>
          <internalNodes>
            0 -1 651 4.8373192548751831e-03</internalNodes>
          <leafValues>
            -9.8646804690361023e-02 2.6406064629554749e-01</leafValues></_>
        <_>
          <internalNodes>
            0 -1 829 -1.9350504735484719e-03</internalNodes>
          <leafValues>
            -4.2953753471374512e-01 6.2512010335922241e-02</leafValues></_>
        <_>
          <internalNodes>
            0 -1 75 -1.7865577712655067e-02</internalNodes>
          <leafValues>
            1.7875778675079346e-01 -1.3928166031837463e-01</leafValues></_>
        <_>
          <internalNodes>
            0 -1 86 -3.4695394337177277e-02</internalNodes>
          <leafValues>
            5.1329684257507324e-01 -4.8543930053710938e-02</leafValues></_>
        <_>
          <internalNodes>
            0 -1 118 -1.0971128009259701e-02</internalNodes>
          <leafValues>
            -6.2781256437301636e-01 4.3364953249692917e-02</leafValues></_>
        <_>
          <internalNodes>
            0 -1 743 -9.7796320915222168e-03</internalNodes>
          <leafValues>
            -5.4636323451995850e-01 4.3172191828489304e-02</leafValues></_>
        <_>
          <internalNodes>
            0 -1 615 3.5508121363818645e-03</internalNodes>
          <leafValues>
            -1.0599331557750702e-01 2.4324838817119598e-01</leafValues></_>
        <_>
          <internalNodes>
            0 -1 679 1.7044097185134888e-03</internalNodes>
          <leafValues>
            -1.1782769113779068e-01 2.5327929854393005e-01</leafValues></_>
        <_>
          <internalNodes>
            0 -1 742 6.8008112721145153e-03</internalNodes>
          <leafValues>
            6.8180181086063385e-02 -4.1708818078041077e-01</leafValues></_>
        <_>
          <internalNodes>
            0 -1 384 -2.2672351915389299e-03</internalNodes>
          <leafValues>
            1.0610361397266388e-01 -2.4571190774440765e-01</leafValues></_>
        <_>
          <internalNodes>
            0 -1 224 -2.1294962789397687e-04</internalNodes>
          <leafValues>
            1.6671431064605713e-01 -1.4513811469078064e-01</leafValues></_>
        <_>
          <internalNodes>
            0 -1 447 6.1247674748301506e-03</internalNodes>
          <leafValues>
            6.2696292996406555e-02 -4.3989467620849609e-01</leafValues></_>
        <_>
          <internalNodes>
            0 -1 598 1.6472704010084271e-03</internalNodes>
          <leafValues>
            6.9422915577888489e-02 -3.2720485329627991e-01</leafValues></_>
        <_>
          <internalNodes>
            0 -1 355 2.9119025915861130e-02</internalNodes>
          <leafValues>
            3.8995075970888138e-02 -6.1661624908447266e-01</leafValues></_>
        <_>
          <internalNodes>
            0 -1 288 2.4320133030414581e-02</internalNodes>
          <leafValues>
            -7.8656457364559174e-02 3.3193981647491455e-01</leafValues></_>
        <_>
          <internalNodes>
            0 -1 36 1.8832421302795410e-01</internalNodes>
          <leafValues>
            -6.6296383738517761e-02 3.5679602622985840e-01</leafValues></_>
        <_>
          <internalNodes>
            0 -1 186 -4.7503644600510597e-03</internalNodes>
          <leafValues>
            1.5349458158016205e-01 -1.5532690286636353e-01</leafValues></_>
        <_>
          <internalNodes>
            0 -1 596 -4.4568348675966263e-03</internalNodes>
          <leafValues>
            -5.9706073999404907e-01 3.6459751427173615e-02</leafValues></_></weakClassifiers></_>
    <!-- stage 11 -->
    <_>
      <maxWeakCount>65</maxWeakCount>
      <stageThreshold>-1.1493986845016479e+00</stageThreshold>
      <weakClassifiers>
        <_>
          <internalNodes>
            0 -1 82 2.8014384210109711e-02</internalNodes>
          <leafValues>
            -1.8988464772701263e-01 4.3068566918373108e-01</leafValues></_>
        <_>
          <internalNodes>
            0 -1 310 -1.9349625799804926e-03</internalNodes>
          <leafValues>
            3.4879079461097717e-01 -1.3790148496627808e-01</leafValues></_>
        <_>
          <internalNodes>
            0 -1 745 7.4806541670113802e-04</internalNodes>
          <leafValues>
            -3.1220373511314392e-01 1.6526789963245392e-01</leafValues></_>
        <_>
          <internalNodes>
            0 -1 172 6.1121666803956032e-03</internalNodes>
          <leafValues>
            -1.0772817581892014e-01 4.5594209432601929e-01</leafValues></_>
        <_>
          <internalNodes>
            0 -1 306 -3.8617686368525028e-03</internalNodes>
          <leafValues>
            4.1101524233818054e-01 -1.2484019249677658e-01</leafValues></_>
        <_>
          <internalNodes>
            0 -1 460 7.9520475119352341e-03</internalNodes>
          <leafValues>
            -7.6450303196907043e-02 5.4583066701889038e-01</leafValues></_>
        <_>
          <internalNodes>
            0 -1 549 4.1618673130869865e-03</internalNodes>
          <leafValues>
            -1.7918108403682709e-01 3.1623679399490356e-01</leafValues></_>
        <_>
          <internalNodes>
            0 -1 635 -9.3974557239562273e-04</internalNodes>
          <leafValues>
            -2.5408440828323364e-01 1.7921343445777893e-01</leafValues></_>
        <_>
          <internalNodes>
            0 -1 634 9.6265452157240361e-05</internalNodes>
          <leafValues>
            1.4880822598934174e-01 -2.9956695437431335e-01</leafValues></_>
        <_>
          <internalNodes>
            0 -1 615 6.9234766997396946e-03</internalNodes>
          <leafValues>
            -1.0186459869146347e-01 4.3583676218986511e-01</leafValues></_>
        <_>
          <internalNodes>
            0 -1 634 -9.5617433544248343e-05</internalNodes>
          <leafValues>
            -2.1315369009971619e-01 1.9176825881004333e-01</leafValues></_>
        <_>
          <internalNodes>
            0 -1 211 -2.3652287200093269e-03</internalNodes>
          <leafValues>
            1.8909612298011780e-01 -2.0161166787147522e-01</leafValues></_>
        <_>
          <internalNodes>
            0 -1 519 -2.4770610034465790e-03</internalNodes>
          <leafValues>
            3.7007340788841248e-01 -9.8291680216789246e-02</leafValues></_>
        <_>
          <internalNodes>
            0 -1 607 -5.3582873078994453e-05</internalNodes>
          <leafValues>
            1.9187694787979126e-01 -1.6411280632019043e-01</leafValues></_>
        <_>
          <internalNodes>
            0 -1 634 2.1103252656757832e-03</internalNodes>
          <leafValues>
            8.5245475172996521e-02 -4.0476065874099731e-01</leafValues></_>
        <_>
          <internalNodes>
            0 -1 719 2.8164261020720005e-03</internalNodes>
          <leafValues>
            -1.9077819585800171e-01 1.6720078885555267e-01</leafValues></_>
        <_>
          <internalNodes>
            0 -1 554 3.7573664449155331e-03</internalNodes>
          <leafValues>
            5.3616091609001160e-02 -5.9160596132278442e-01</leafValues></_>
        <_>
          <internalNodes>
            0 -1 261 -2.7838149107992649e-03</internalNodes>
          <leafValues>
            2.8259441256523132e-01 -1.0946584492921829e-01</leafValues></_>
        <_>
          <internalNodes>
            0 -1 63 1.5818707644939423e-02</internalNodes>
          <leafValues>
            -1.7397658526897430e-01 2.2506518661975861e-01</leafValues></_>
        <_>
          <internalNodes>
            0 -1 595 1.9741640426218510e-03</internalNodes>
          <leafValues>
            8.2090355455875397e-02 -3.5959541797637939e-01</leafValues></_>
        <_>
          <internalNodes>
            0 -1 383 7.9747382551431656e-03</internalNodes>
          <leafValues>
            -7.0129968225955963e-02 4.4058594107627869e-01</leafValues></_>
        <_>
          <internalNodes>
            0 -1 108 -1.1558709666132927e-02</internalNodes>
          <leafValues>
            -5.3285276889801025e-01 5.9018101543188095e-02</leafValues></_>
        <_>
          <internalNodes>
            0 -1 454 9.1789606958627701e-03</internalNodes>
          <leafValues>
            4.9873217940330505e-02 -5.0009632110595703e-01</leafValues></_>
        <_>
          <internalNodes>
            0 -1 855 6.4147245138883591e-03</internalNodes>
          <leafValues>
            4.9942634999752045e-02 -4.9015417695045471e-01</leafValues></_>
        <_>
          <internalNodes>
            0 -1 536 6.8608187139034271e-03</internalNodes>
          <leafValues>
            -8.5890918970108032e-02 3.2401120662689209e-01</leafValues></_>
        <_>
          <internalNodes>
            0 -1 687 -3.2461886294186115e-03</internalNodes>
          <leafValues>
            2.8106325864791870e-01 -1.0313713550567627e-01</leafValues></_>
        <_>
          <internalNodes>
            0 -1 466 -9.7126252949237823e-03</internalNodes>
          <leafValues>
            -4.4768530130386353e-01 6.4492702484130859e-02</leafValues></_>
        <_>
          <internalNodes>
            0 -1 713 -1.2610692530870438e-02</internalNodes>
          <leafValues>
            -6.7688387632369995e-01 3.5915650427341461e-02</leafValues></_>
        <_>
          <internalNodes>
            0 -1 733 -5.5644707754254341e-03</internalNodes>
          <leafValues>
            3.6773443222045898e-01 -7.8413985669612885e-02</leafValues></_>
        <_>
          <internalNodes>
            0 -1 780 2.8550554998219013e-03</internalNodes>
          <leafValues>
            -1.5039622783660889e-01 2.0424093306064606e-01</leafValues></_>
        <_>
          <internalNodes>
            0 -1 623 -7.3376726359128952e-03</internalNodes>
          <leafValues>
            -3.1240999698638916e-01 1.0176920890808105e-01</leafValues></_>
        <_>
          <internalNodes>
            0 -1 158 -5.2413798868656158e-02</internalNodes>
          <leafValues>
            -6.8270581960678101e-01 3.5204909741878510e-02</leafValues></_>
        <_>
          <internalNodes>
            0 -1 455 -1.6442630439996719e-02</internalNodes>
          <leafValues>
            -5.4574328660964966e-01 4.3833006173372269e-02</leafValues></_>
        <_>
          <internalNodes>
            0 -1 827 -1.0275880340486765e-03</internalNodes>
          <leafValues>
            -3.1050512194633484e-01 8.0611303448677063e-02</leafValues></_>
        <_>
          <internalNodes>
            0 -1 753 -1.6886031953617930e-03</internalNodes>
          <leafValues>
            2.3735609650611877e-01 -1.1207602918148041e-01</leafValues></_>
        <_>
          <internalNodes>
            0 -1 796 -6.2222609994933009e-04</internalNodes>
          <leafValues>
            2.1616676449775696e-01 -1.3251417875289917e-01</leafValues></_>
        <_>
          <internalNodes>
            0 -1 842 8.5993167012929916e-03</internalNodes>
          <leafValues>
            -1.0491280257701874e-01 2.5125992298126221e-01</leafValues></_>
        <_>
          <internalNodes>
            0 -1 861 2.8498058672994375e-03</internalNodes>
          <leafValues>
            4.7788593918085098e-02 -5.8074277639389038e-01</leafValues></_>
        <_>
          <internalNodes>
            0 -1 661 -3.7053716368973255e-03</internalNodes>
          <leafValues>
            -4.9463406205177307e-01 4.6616118401288986e-02</leafValues></_>
        <_>
          <internalNodes>
            0 -1 759 -6.5848266240209341e-04</internalNodes>
          <leafValues>
            2.2041407227516174e-01 -1.1745150387287140e-01</leafValues></_>
        <_>
          <internalNodes>
            0 -1 31 2.1531465463340282e-03</internalNodes>
          <leafValues>
            5.4890383034944534e-02 -4.5804971456527710e-01</leafValues></_>
        <_>
          <internalNodes>
            0 -1 256 -2.5162850506603718e-03</internalNodes>
          <leafValues>
            2.3292428255081177e-01 -1.0539967566728592e-01</leafValues></_>
        <_>
          <internalNodes>
            0 -1 388 2.9829025268554688e-02</internalNodes>
          <leafValues>
            -1.3147857785224915e-01 2.2118094563484192e-01</leafValues></_>
        <_>
          <internalNodes>
            0 -1 708 1.7054816707968712e-03</internalNodes>
          <leafValues>
            -1.0776513814926147e-01 2.5867104530334473e-01</leafValues></_>
        <_>
          <internalNodes>
            0 -1 646 -5.1871417090296745e-03</internalNodes>
          <leafValues>
            2.9611173272132874e-01 -1.1039659380912781e-01</leafValues></_>
        <_>
          <internalNodes>
            0 -1 87 -5.2334759384393692e-03</internalNodes>
          <leafValues>
            1.7846332490444183e-01 -1.3903459906578064e-01</leafValues></_>
        <_>
          <internalNodes>
            0 -1 11 2.8993712738156319e-02</internalNodes>
          <leafValues>
            -1.2273887544870377e-01 2.5044399499893188e-01</leafValues></_>
        <_>
          <internalNodes>
            0 -1 722 2.1171569824218750e-04</internalNodes>
          <leafValues>
            1.4319241046905518e-01 -1.6556729376316071e-01</leafValues></_>
        <_>
          <internalNodes>
            0 -1 366 1.6461452469229698e-03</internalNodes>
          <leafValues>
            -8.7943241000175476e-02 2.6042455434799194e-01</leafValues></_>
        <_>
          <internalNodes>
            0 -1 123 1.4788054395467043e-03</internalNodes>
          <leafValues>
            6.7621998488903046e-02 -3.5889521241188049e-01</leafValues></_>
        <_>
          <internalNodes>
            0 -1 78 -8.6443480104207993e-03</internalNodes>
          <leafValues>
            2.3197847604751587e-01 -9.8768733441829681e-02</leafValues></_>
        <_>
          <internalNodes>
            0 -1 46 -7.1277534589171410e-03</internalNodes>
          <leafValues>
            -4.8858836293220520e-01 5.5644467473030090e-02</leafValues></_>
        <_>
          <internalNodes>
            0 -1 441 3.5259067080914974e-03</internalNodes>
          <leafValues>
            -1.0184025019407272e-01 2.1691718697547913e-01</leafValues></_>
        <_>
          <internalNodes>
            0 -1 539 5.0350325182080269e-03</internalNodes>
          <leafValues>
            -7.6181128621101379e-02 3.5221260786056519e-01</leafValues></_>
        <_>
          <internalNodes>
            0 -1 126 -3.4103272482752800e-03</internalNodes>
          <leafValues>
            -4.2024859786033630e-01 5.6321885436773300e-02</leafValues></_>
        <_>
          <internalNodes>
            0 -1 666 -2.3496463894844055e-02</internalNodes>
          <leafValues>
            -6.2114232778549194e-01 3.3087901771068573e-02</leafValues></_>
        <_>
          <internalNodes>
            0 -1 552 -6.4733661711215973e-03</internalNodes>
          <leafValues>
            2.5623184442520142e-01 -9.0830393135547638e-02</leafValues></_>
        <_>
          <internalNodes>
            0 -1 451 4.0022497996687889e-03</internalNodes>
          <leafValues>
            -9.0764425694942474e-02 2.4427993595600128e-01</leafValues></_>
        <_>
          <internalNodes>
            0 -1 193 -1.5267868526279926e-02</internalNodes>
          <leafValues>
            -5.4416775703430176e-01 4.3245129287242889e-02</leafValues></_>
        <_>
          <internalNodes>
            0 -1 343 -8.3353999070823193e-04</internalNodes>
          <leafValues>
            1.0021039843559265e-01 -2.3442654311656952e-01</leafValues></_>
        <_>
          <internalNodes>
            0 -1 522 -7.6575041748583317e-04</internalNodes>
          <leafValues>
            1.9428901374340057e-01 -1.1744890362024307e-01</leafValues></_>
        <_>
          <internalNodes>
            0 -1 42 -6.1186566948890686e-02</internalNodes>
          <leafValues>
            -6.4935308694839478e-01 3.7183608859777451e-02</leafValues></_>
        <_>
          <internalNodes>
            0 -1 586 -4.5919828116893768e-03</internalNodes>
          <leafValues>
            -5.9742814302444458e-01 3.4656055271625519e-02</leafValues></_>
        <_>
          <internalNodes>
            0 -1 588 -7.3421588167548180e-03</internalNodes>
          <leafValues>
            -5.1243251562118530e-01 4.0121201425790787e-02</leafValues></_>
        <_>
          <internalNodes>
            0 -1 202 1.6133936587721109e-03</internalNodes>
          <leafValues>
